svm_type c_svc
kernel_type rbf
gamma 0.07125
nr_class 3
total_sv 692
rho -0.908709 -3.48671 -1.75202
label -1 2 1
nr_sv 391 130 171
SV
2.671999846364398 2.109930195628805 1:1 2:-1 3:1 4:-1 5:-1 6:-1 7:-1 8:-1 9:-1 10:-1 11:-1 12:-1 13:-1 14:-1 15:-1 16:-1 17:-1 18:-1 19:-1 20:-1 21:-1 22:-1 24:-1 25:-1 26:-1 27:-1 28:1 29:-1 30:-0.966667 32:1 33:-1 34:-1 35:-1 37:-1 38:-1 39:1 40:0.142858 41:-1 42:1 43:1 44:-1 45:-0.428571 46:0.0558036 47:-1 48:-1 
0 14.56237498764294 1:1 2:-1 3:1 4:-1 5:-1 6:-1 7:-1 8:-1 9:-1 10:-1 11:-1 12:-1 13:-1 14:-1 16:-1 17:-1 18:-1 19:-1 20:-1 21:-1 22:-1 24:-1 25:-1 26:-1 27:-1 28:1 29:-1 30:-0.933333 32:1 33:-1 34:-1 35:-1 37:-1 38:-1 39:1 40:0.142858 41:-1 42:-1 43:-1 44:-1 45:0.446429 47:-1 48:-1 
1.777781616156995 0 1:-1 2:-1 3:1 4:-1 5:-1 6:-1 7:-1 8:-1 9:-1 10:-1 11:-1 12:-1 13:-1 14:-1 15:-1 16:-1 17:-1 18:-1 19:-1 20:-1 21:-1 22:-1 24:-1 25:-1 26:-1 27:-1 28:1 29:-1 30:-0.925 32:-1 33:-1 34:-1 35:-1 37:-1 38:-1 39:1 40:0.142858 41:-1 42:-1 43:-1 44:-1 46:0.0714286 47:-1 48:-1 
0 10.12059020126544 1:0.5 2:-1 4:-1 5:-1 6:-1 7:-1 8:-1 9:-1 10:-1 11:-1 12:-1 13:-1 14:-0.5 15:-1 17:-1 18:-1 19:-1 20:-1 21:-1 22:-1 24:-1 25:-1 26:-1 27:-1 28:-1 29:1 30:-0.964286 32:-1 33:-1 34:-1 35:-1 37:-1 38:-1 39:1 40:-0.25 41:-1 42:-1 43:-1 44:-1 46:-0.125 47:-1 48:-1 
5.025436522795632 0 1:-1 2:-1 3:-1 4:-1 5:-1 6:-1 7:-1 8:-1 9:-1 10:-1 11:-1 12:-1 13:-1 14:-1 15:-1 16:-1 17:-1 18:-1 19:-1 20:-1 21:-1 22:-1 24:-1 25:-1 26:-1 27:-1 28:-1 29:-1 30:0.026786 32:-1 33:-1 34:-1 35:-1 37:-1 38:-1 39:1 40:1 41:-1 42:-1 43:-1 44:-1 45:0.875 46:0.875 47:-1 48:-1 
0 32 2:-1 5:-1 6:-1 7:-1 8:-1 9:-1 10:-1 11:-1 12:-1 13:-1 14:-1 16:-1 17:-1 18:-1 19:-1 20:-1 21:-1 22:-1 24:-1 25:-1 26:-1 27:-1 28:-1 29:-1 30:-1 32:-1 33:-1 34:-1 35:-1 37:-1 38:-1 39:1 40:-0.5 41:-1 42:-1 43:-1 44:-1 46:-0.119186 47:-1 48:-1 
0.771403912263766 0 1:0.333334 2:-1 3:1 4:-1 5:-1 6:-1 7:-1 8:-1 9:-1 10:-1 11:-1 12:-1 13:-1 14:-0.333334 15:-1 16:-1 17:-1 18:-1 19:0.333332 20:1 21:-1 22:-0.333334 24:-1 25:-1 26:-1 27:-1 28:-1 29:-1 30:-0.35 32:-1 33:-1 34:-1 35:-1 37:-1 38:-1 39:1 41:-1 42:-1 43:-1 44:-1 47:1 48:-1 
0 32 1:-0.142858 2:-1 3:-0.142858 4:-0.857143 5:-0.857143 6:-1 7:-1 8:-1 9:-1 10:-1 11:-1 12:-1 13:-1 14:-0.142858 15:-0.428572 16:-0.857143 17:-1 18:-1 19:-1 20:-1 21:-1 22:-1 24:-1 25:-1 26:-1 27:-1 28:-1 29:-1 30:-0.394286 32:-1 33:-1 34:-1 35:-1 37:-1 38:-1 39:1 41:-1 42:-1 43:-1 44:-1 47:-1 48:-1 
0 16.01648191770675 1:-0.333334 2:-1 3:-0.2 4:-0.866667 5:-0.866667 6:-1 7:-1 8:-1 9:-1 10:-1 11:-1 12:-1 13:-1 14:-0.2 15:-0.333334 16:-1 17:-1 18:-1 19:-1 20:-1 21:-1 22:-0.866667 24:-1 25:-1 26:-1 27:-1 28:-1 29:-1 30:-0.165714 32:-1 33:-1 34:-1 35:-1 37:-1 38:-1 39:1 41:-1 42:-1 43:-1 44:-1 47:-1 48:-1 
3.920171352635691 0 1:-0.428572 2:-0.714286 3:1 4:-1 5:-1 6:-1 7:-1 8:-1 9:-1 10:-1 11:-1 12:-1 13:-1 14:-0.714286 15:-0.714286 16:-1 17:-1 18:-1 19:-1 20:-1 21:-1 22:0.428572 24:-1 25:-1 26:-1 27:-1 28:1 29:-1 30:-0.896679 32:-1 33:-1 34:-1 35:-1 37:-1 38:-1 39:1 40:-0.2 41:-1 42:-1 43:-1 44:-1 47:-1 48:-1 
0 9.741038116462155 1:1 2:1 3:1 4:-1 5:-1 6:-1 7:-1 8:-1 9:-1 10:-1 11:-1 12:-1 13:-1 14:-1 15:1 16:-1 17:-1 18:-1 19:-1 20:-1 21:-1 22:-1 24:-1 25:-1 26:-1 27:-1 28:-1 29:-1 30:-0.830258 32:1 33:-1 34:1 35:-1 37:-1 38:-1 39:-1 40:-0.2 41:-1 42:-1 43:-1 44:-1 45:-0.1 46:-0.1 47:-1 48:-1 
0 2.744479383544875 1:-0.272728 2:-0.454546 3:0.09091 4:-0.09091 5:-1 6:-1 7:-0.636364 8:-1 9:-1 10:-1 11:-1 12:-1 13:-1 14:-1 15:-1 16:-1 17:-1 18:-1 19:-1 20:-1 21:-1 22:-1 24:-1 25:-1 26:-1 27:-1 28:-1 29:-1 30:-0.308642 32:-1 33:-1 34:-1 35:-1 37:-1 38:-1 39:1 40:-0.156862 41:-1 42:-1 43:-1 44:-1 45:-0.0784314 46:-0.0784314 47:-1 48:-1 
4.858857784491536 0 1:-0.111112 2:-1 3:0.555556 4:-0.777778 5:-0.777778 6:-1 7:-1 8:-1 9:-1 10:-1 11:-1 12:-1 13:-1 14:-1 15:-1 16:-1 17:-1 18:-1 19:-1 20:-1 21:-1 22:0.555556 24:-1 25:-1 26:-1 27:-1 28:-1 29:-1 30:-1 32:-1 33:-1 34:-1 35:-1 37:-1 38:-1 39:1 40:-0.6 41:-1 42:-1 43:-1 44:-1 47:-1 48:1 
26.66495718036976 0 1:0.666666 2:-0.666666 3:1 4:-1 5:-1 6:-1 7:-0.666666 8:-1 9:-1 10:-1 11:-1 12:-1 13:-1 14:-1 15:-1 16:-1 17:-1 18:-1 19:-1 20:-1 21:-1 22:0.666666 24:-1 25:-1 26:-1 27:-1 28:-1 29:-1 30:-1 32:-1 33:-1 34:-1 35:-1 37:-1 38:-1 39:1 40:0.294118 41:-1 42:-1 43:1 44:-1 47:-1 48:-1 
2.478112476625044 0 1:-0.25 2:-1 3:0.75 4:-1 5:-1 6:-1 7:-1 8:-1 9:-1 10:-0.75 11:-1 12:-1 13:-1 14:-1 15:-1 16:-1 17:-1 18:-1 19:-1 20:-1 21:-1 22:0.75 24:-1 25:-1 26:-1 27:-1 28:-1 29:-1 30:-0.915888 32:-1 33:-1 34:-1 35:-1 37:-1 38:-1 39:1 40:0.17647 41:-1 42:-1 43:-1 44:-1 47:-1 48:-1 
0 2.936864065979952 1:-0.076924 2:-0.538462 3:-0.076924 4:-0.923077 5:-1 6:-0.923077 7:-0.538462 8:-1 9:-1 10:-1 11:-0.307692 12:-1 13:-1 14:-0.692308 15:-0.846154 16:-0.923077 17:-1 18:-1 19:-1 20:-1 21:-1 22:-0.461538 24:-1 25:-1 26:-1 27:-1 28:-1 29:-0.692308 30:-0.35514 32:-1 33:-1 34:-1 35:-1 37:-1 38:-1 39:1 41:-1 42:-1 43:-1 44:-1 47:-1 48:-1 
1.30065415469625 0 1:1 2:1 3:1 4:-1 5:-1 6:-1 7:-1 8:-1 9:-1 10:-1 11:-1 12:-1 13:-1 14:-1 15:-1 16:-1 17:-1 18:-1 19:-1 20:-1 21:-1 22:1 24:-1 25:-1 26:-1 27:-1 28:-1 29:-1 30:0.205608 32:1 33:-1 34:-1 35:-1 37:-1 38:-1 39:-1 40:0.058824 41:-1 42:-1 43:-1 44:1 45:0.0294118 46:-0.470588 47:-1 48:1 
0 31.881281529766 1:0.09091 2:-0.818182 3:-0.09091 4:-0.818182 5:-1 6:-1 7:-1 8:-0.818182 9:-1 10:-1 11:-0.818182 12:-1 13:-1 14:-0.636364 15:-0.818182 16:-1 17:-1 18:-1 19:-1 20:-1 21:-1 22:-1 24:-1 25:-1 26:-1 27:-1 28:-1 29:-1 30:0.869158 32:-1 33:-1 34:-1 35:-1 37:-1 38:-1 39:1 40:-0.025 41:-1 42:-1 43:-1 44:-1 45:-0.0125 46:-0.00163043 47:-1 48:-1 
6.779452182619621 0 1:1 2:-0.333334 3:1 4:-1 5:-1 6:-1 7:-1 8:-1 9:-1 10:-1 11:-1 12:-1 13:-1 14:-1 15:-1 16:-1 17:-1 18:-1 19:-1 20:-1 21:-1 22:0.333334 24:-1 25:-1 26:-1 27:-1 28:1 29:-1 30:-1 32:1 33:-1 34:-1 35:-1 37:-1 38:-1 39:1 40:1 41:-1 42:-1 43:-1 44:-1 46:0.366667 47:-1 48:-1 
3.241220801261521 0 2:-1 3:1 4:-1 5:-1 6:-1 7:-1 8:-1 9:-1 10:-1 11:-1 12:-1 13:-1 14:-1 15:-1 16:-1 17:-1 18:-1 19:-1 20:-1 21:-1 24:-1 26:-1 27:-1 28:-1 29:-1 30:-0.987261 32:-1 33:-1 34:-1 35:-1 37:-1 38:-1 39:1 40:0.266666 41:-1 42:1 43:-1 44:-1 45:-0.366667 46:0.133333 47:-1 48:-1 
4.126558777224381 0 1:1 2:-1 3:1 4:-1 5:-1 6:-1 7:-1 8:-1 9:-1 10:-1 11:-1 12:-1 13:-1 14:-1 15:-1 16:-1 17:-1 18:-1 19:-1 20:-1 21:-1 22:1 24:-1 25:-1 26:-1 27:-1 28:1 29:-1 30:-0.961783 32:1 33:-1 34:-1 35:-1 37:-1 38:-1 39:-1 40:0.133334 41:-1 42:-1 43:-1 44:1 45:0.0666667 46:-0.133333 47:-1 48:1 
0 29.1402855320504 1:-0.09091 2:-1 3:-0.636364 4:-0.636364 5:-1 6:-1 7:-1 8:-1 9:-1 10:-1 11:-1 12:-1 13:-1 14:-1 15:-1 16:-0.636364 17:-1 18:-1 19:-1 20:-1 21:-1 22:-1 24:-1 25:-1 26:-1 27:-1 28:-1 29:-0.818182 30:-0.579618 32:-1 33:-1 34:-1 35:-1 37:-1 38:-1 39:1 41:-1 42:-1 43:-1 44:-1 47:-1 48:-1 
0.09358079360575841 0 1:1 2:1 3:1 4:-1 5:-1 6:-1 7:-1 8:-1 9:-1 10:-1 11:-1 12:-1 13:-1 14:-1 15:-1 16:-1 17:-1 18:-1 19:-1 20:-1 21:-1 22:1 24:-1 25:-1 26:-1 27:-1 28:1 29:-1 30:-0.59276 32:1 33:-1 34:-1 35:-1 37:-1 38:-1 39:-1 40:-0.166666 41:-1 42:-1 43:-1 44:-1 45:-0.0833333 46:-0.0833333 47:-1 48:1 
0 5.638717597611804 1:0.5 2:0.5 3:0.5 4:-1 5:-1 6:-1 7:-1 8:-1 9:-1 10:-1 11:-0.5 12:-1 13:-1 14:-1 15:-0.5 16:-1 17:-1 18:-1 19:-1 20:-1 21:-1 22:-1 24:-1 25:-1 26:-1 27:-1 28:-1 29:-1 30:-0.158372 32:-1 33:-1 34:-1 35:-1 37:-1 38:-1 39:1 40:-0.333334 41:-1 42:-1 43:-1 44:-1 45:-0.166667 46:-0.166667 47:-1 48:-1 
0 18.69987888583242 1:0.333334 2:-0.333334 3:0.333334 4:-0.333334 5:-1 6:-1 7:-0.333334 8:-1 9:-1 10:-1 11:-1 12:-1 13:-1 14:-1 15:-0.333334 16:-1 17:-1 18:-1 19:-1 20:-1 21:-1 22:-0.333334 24:-1 25:-1 26:-1 27:-1 28:-1 29:-1 30:0.846154 32:-1 33:-1 34:-1 35:-1 37:-1 38:-1 39:1 40:-0.071428 41:-1 42:-1 43:-1 44:-1 45:0.214286 46:0.016369 47:-1 48:-1 
0 4.21498451226644 1:-0.571428 2:-0.714286 3:-0.142858 4:-0.714286 5:-1 6:-1 7:-0.714286 8:-1 9:-1 10:-1 11:-1 12:-1 13:-1 14:-1 15:-1 16:-0.714286 17:-1 18:-1 19:-1 20:-1 21:-1 22:-0.714286 24:-1 25:-1 26:-1 27:-1 28:-1 29:-1 30:0.97285 32:-1 33:-1 34:-1 35:-1 37:-1 38:-1 39:1 40:-0.104166 41:-1 42:-1 43:-1 44:-1 45:-0.016369 46:-0.0520833 47:-1 48:-1 
32 0 1:0.5 2:-1 3:1 4:-1 5:-1 6:-1 7:-1 8:-1 9:-1 10:-1 11:-1 12:-1 13:-1 14:-1 15:-1 16:-1 17:-1 18:-1 19:-1 20:-1 21:-1 22:0.5 24:-1 25:-0.5 26:-1 27:-1 28:1 29:-1 30:-0.991837 32:-1 33:-1 34:-1 35:-1 37:-1 38:-1 39:1 40:1 41:-1 42:-1 43:-1 44:1 45:0.5 47:-1 48:-1 
32 0 1:0.2 2:-1 3:1 4:-1 5:-1 6:-1 7:-1 8:-1 9:-1 10:-1 11:-1 12:-1 13:-1 14:-1 15:-0.6 16:-1 17:-1 18:-1 19:-1 20:-1 21:-1 22:0.6 24:-1 25:-1 26:-1 27:-1 28:-1 29:-1 30:-0.069388 32:-1 33:-1 34:-1 35:-1 37:-1 38:-1 39:1 40:1 41:-1 42:-1 43:-1 44:-1 45:0.75 46:1 47:-1 48:1 
7.027868342790407 0 1:0.6 2:-1 3:0.6 4:-1 5:-1 6:-1 7:-1 8:-1 9:-1 10:-0.8 11:-1 12:-1 13:-1 14:-1 15:-1 16:-1 17:-1 18:-1 19:-1 20:-1 21:-1 22:0.4 24:-1 25:-1 26:-1 27:-1 28:-1 29:-1 30:0.67347 32:-1 33:-1 34:-1 35:-1 37:-1 38:-1 39:1 40:1 41:-1 42:-1 43:-1 44:-1 45:0.75 46:1 47:-1 48:1 
0 4.893774753134647 1:0.25 2:-1 3:0.5 4:-1 5:-1 6:-1 7:-1 8:-1 9:-1 10:-1 11:-1 12:-1 13:-1 14:-0.25 15:-0.5 16:-1 17:-1 18:-1 19:-1 20:-1 21:-1 22:-0.75 24:-1 25:-1 26:-1 27:-1 28:-1 29:-1 30:0.844898 32:-1 33:-1 34:-1 35:-1 37:-1 38:-1 39:1 41:-1 42:-1 43:-1 44:-1 47:-1 48:-1 
0 10.93487060707036 1:-0.333334 2:-1 3:0.333334 4:-1 5:-1 6:-1 7:-1 8:-1 9:-1 10:-1 11:-1 12:-1 13:-1 14:-1 15:-1 16:-0.333334 17:-1 18:-1 19:-1 20:-1 21:-1 22:-1 24:-1 25:-1 26:-1 27:-1 28:-1 29:-1 30:-0.870968 32:-1 33:-1 34:-1 35:-1 37:-1 38:-1 39:1 41:1 42:-1 43:1 44:-1 47:-1 48:-1 
0 32 1:0.333334 2:-0.333334 3:0.333334 4:-1 5:-1 6:-1 7:-0.333334 8:-1 9:-1 10:-1 11:-0.666666 12:-1 13:-1 14:-1 15:-0.666666 16:-1 17:-1 18:-1 19:-1 20:-1 21:-1 22:-0.666666 24:-1 25:-1 26:-1 27:-1 28:-1 29:-1 30:-0.849462 32:-1 33:-1 34:-1 35:-1 37:-1 38:-1 39:1 41:-1 42:-1 43:-1 44:-1 47:-1 48:-1 
0 24.86258110133098 1:0.066666 2:-0.866667 3:0.333334 4:-0.866667 5:-1 6:-1 7:-1 8:-1 9:-1 10:-1 11:-1 12:-1 13:-1 14:-0.466666 15:-0.733334 16:-1 17:-1 18:-0.866667 19:-1 20:-1 21:-1 22:-0.333334 24:-1 25:-0.733334 26:-1 27:-1 28:-1 29:-1 30:-0.94958 32:-1 33:-1 34:-1 35:-1 37:-1 38:-1 39:1 41:1 42:-1 43:-1 44:-1 45:-0.0555556 47:-1 48:1 
32 0 1:-0.818182 2:-1 3:0.636364 4:-1 5:-1 6:-1 7:-1 8:-0.818182 9:-1 10:-1 11:-1 12:-1 13:-1 14:-0.636364 15:-1 16:-1 17:-1 18:-1 19:-1 20:-1 21:-1 22:0.636364 24:-1 25:-1 26:-1 27:-1 28:-1 29:-1 30:-0.888889 32:-1 33:-1 34:-1 35:-1 37:-1 38:-1 39:1 40:0.5 41:-1 42:-1 43:-1 44:-1 45:0.497175 47:-1 48:-1 
32 0 1:-0.777778 2:-1 3:0.777778 4:-1 5:-1 6:-1 7:-1 8:-1 9:-1 10:-1 11:-1 12:-1 13:-1 14:-0.777778 15:-1 16:-0.777778 17:-1 18:-1 19:-1 20:-1 21:-1 22:0.111112 24:-1 25:-1 26:-1 27:-1 28:-1 29:-1 30:-0.75 32:-1 33:-1 34:-1 35:-1 37:-1 38:-1 39:1 40:0.5 41:-1 42:-1 43:-1 44:-1 45:0.00471698 46:0.00961538 47:-1 48:-1 
32 0 1:-0.8 2:-1 3:1 4:-1 5:-1 6:-1 7:-1 8:-1 9:-1 10:-1 11:-1 12:-1 13:-1 14:-1 15:-1 16:-0.8 17:-1 18:-1 19:-1 20:-1 21:-1 22:0.6 24:-1 25:-1 26:-1 27:-1 28:-1 29:-1 30:-0.583334 32:-1 33:-1 34:-1 35:-1 37:-1 38:-1 39:1 40:0.5 41:-1 42:-1 43:-1 44:-1 46:0.0240385 47:-1 48:-1 
32 0 1:-0.6 2:-1 3:0.8 4:-1 5:-1 6:-1 7:-1 8:-1 9:-1 10:-1 11:-1 12:-1 13:-1 14:-0.8 15:-1 16:-0.8 17:-1 18:-1 19:-1 20:-1 21:-1 22:0.6 24:-1 25:-1 26:-1 27:-1 28:-1 29:-1 30:-0.361112 32:-1 33:-1 34:-1 35:-1 37:-1 38:-1 39:1 40:0.5 41:-1 42:-1 43:-1 44:-1 46:0.0612245 47:-1 48:-1 
10.5398743414399 0 1:-1 2:-1 3:1 4:-1 5:-1 6:-1 7:-1 8:-1 9:-1 10:-1 11:-1 12:-1 13:-1 14:-1 15:-1 16:-1 17:-1 18:-1 19:-1 20:-1 21:-1 22:0.818182 24:-1 25:-1 26:-1 27:-1 28:-1 29:-1 30:-0.194444 32:-1 33:-1 34:-1 35:-1 37:-1 38:-1 39:1 40:0.5 41:-1 42:-1 43:-1 44:-1 47:-1 48:-1 
0 15.21933742362186 1:1 2:-1 3:1 4:-1 5:-1 6:-1 7:-1 8:-1 9:-1 10:-1 11:-1 12:-1 13:-1 14:-1 15:-1 16:1 17:-1 18:-1 19:-1 20:-1 21:-1 22:-1 24:-1 25:-1 26:-1 27:-1 28:-1 29:-1 30:-0.976331 32:1 33:-1 34:-1 35:1 37:-1 38:-1 39:-1 40:0.4 41:-1 42:-1 43:-1 44:-1 45:0.533333 47:-1 48:-1 
0 32 1:0.333334 2:-1 3:0.333334 4:-1 5:-1 6:-1 7:-1 8:-1 9:-1 10:-1 11:-1 12:-1 13:-1 14:-1 15:-0.333334 16:-0.333334 17:-1 18:-1 19:-1 20:-1 21:-1 22:-1 24:-1 25:-1 26:-1 27:-1 28:-1 29:-1 30:-0.837838 32:-1 33:-1 34:-1 35:-1 37:-1 38:-1 39:1 41:-1 42:-1 43:-1 44:-1 47:-1 48:-1 
2.792571713610576 0 1:1 2:1 3:1 4:-1 5:-1 6:-1 7:-1 8:-1 9:-1 10:-1 11:-1 12:-1 13:-1 14:-1 15:-1 16:-1 17:-1 18:-1 19:-1 20:-1 21:-1 22:1 24:-1 25:-1 26:-1 27:-1 28:-1 29:-1 30:-1 32:1 33:-1 34:-1 35:-1 37:-1 38:-1 39:-1 40:1 41:-1 42:-1 43:-1 44:1 46:0.2 47:-1 48:-1 
0 4.65040693430934 1:0.333334 2:-1 3:0.333334 4:-1 5:-1 6:-1 7:-1 8:-1 9:-1 10:-1 11:-1 12:-1 13:-1 14:-0.333334 15:-1 16:0.333334 17:-1 18:-1 19:-1 20:-1 21:-1 22:-1 24:-1 25:-1 26:-1 27:-1 28:-1 29:1 30:-0.846154 32:-1 33:-1 34:-1 35:-1 37:-1 38:-1 39:1 40:0.111112 41:-1 42:-1 43:-1 44:-1 46:0.555556 47:-1 48:-1 
19.10452923910951 0 1:0.333334 2:-1 3:0.666666 4:-1 5:-1 6:-1 7:-1 8:-1 9:-1 10:-1 11:-1 12:-1 13:-1 14:-1 15:-1 16:-1 17:-1 18:-1 19:-1 20:-1 21:-1 22:0.333334 24:-1 25:-1 26:-1 27:-1 28:0.666666 29:-1 30:-0.285714 32:-1 33:-1 34:-1 35:-1 37:-1 38:-1 39:1 40:-0.02439 41:-1 42:-1 43:-1 44:-1 45:0.487805 46:-0.0121951 47:-1 48:-1 
0 0.237400042437383 1:-1 2:-1 3:1 4:-1 5:-1 6:-1 7:-1 8:-1 9:-1 10:-1 11:-1 12:-1 13:-1 14:-1 15:-1 16:-1 17:-1 18:-1 19:-1 20:-1 21:-1 22:-1 24:-1 25:-1 26:-1 27:1 28:-1 29:-1 30:0.365592 32:-1 33:-1 34:-1 35:-1 37:-1 38:-1 39:1 41:-1 42:-1 43:-1 44:-1 47:-1 48:-1 
0 32 2:-1 3:-0.25 4:-1 5:-1 6:-1 7:-1 8:-1 9:-1 10:-1 11:-1 12:-1 13:-1 14:-0.5 15:-1 16:-1 17:-1 18:-0.75 19:-1 20:-1 21:-1 22:-0.75 24:-1 25:-1 26:-1 27:-1 28:-1 29:-1 30:-0.944444 32:-1 33:-1 34:-1 35:-1 37:-1 38:-1 39:1 40:0.25 41:-1 42:-1 43:-1 44:-1 46:0.425 47:-1 48:-1 
9.249224857875495 0 1:0.25 2:-1 3:0.75 4:-1 5:-1 6:-1 7:-1 8:-1 9:-1 10:-1 11:-1 12:-1 13:-1 14:-0.75 15:-1 16:-1 17:-1 18:-1 19:-1 20:-1 21:-1 22:0.25 24:-1 25:-0.5 26:-1 27:-1 28:-1 29:-1 30:-0.922222 32:-1 33:-1 34:-1 35:-1 37:-1 38:-1 39:1 40:0.25 41:-1 42:-1 43:-1 44:-1 45:0.425 47:-1 48:-1 
0 2.974132603381977 2:-1 3:-0.25 4:-1 5:-1 6:-1 7:-1 8:-1 9:-1 10:-1 11:-1 12:-1 13:-1 14:-0.5 15:-1 16:-1 17:-1 18:-0.75 19:-1 20:-1 21:-1 22:-0.75 24:-1 25:-1 26:-1 27:-1 28:-1 29:-1 30:-0.911111 32:-1 33:-1 34:-1 35:-1 37:-1 38:-1 39:1 40:0.25 41:-1 42:-1 43:-1 44:-1 46:0.425 47:-1 48:-1 
0 19.5795467348309 1:0.09091 2:-0.636364 3:-0.09091 4:-0.818182 5:-1 6:-0.818182 7:-1 8:-0.818182 9:-1 10:-1 11:-1 12:-1 13:-1 14:-0.454546 15:-1 16:-0.818182 17:-1 18:-1 19:-1 20:-1 21:-1 22:-0.818182 24:-1 25:-1 26:-1 27:-1 28:-1 29:-1 30:-0.877778 32:-1 33:-1 34:-1 35:-1 37:-1 38:-1 39:1 40:0.25 41:-1 42:-1 43:-1 44:-1 47:-1 48:-1 
8.760271574119933 0 1:0.333334 2:-1 3:0.333334 4:-0.333334 5:-1 6:-1 7:-1 8:-1 9:-1 10:-1 11:-1 12:-1 13:-1 14:-1 15:-1 16:-1 17:-1 18:-1 19:-1 20:-1 21:-1 22:0.333334 24:-1 25:-1 26:-1 27:-1 28:-1 29:-1 30:-0.166666 32:-1 33:-1 34:-1 35:-1 37:-1 38:-1 39:1 40:0.4 41:-1 42:-1 43:-1 44:-1 45:0.2 46:0.2 47:-1 48:1 
21.32496313176528 0 1:0.6 2:-1 3:0.6 4:-1 5:-1 6:-1 7:-1 8:-1 9:-1 10:-0.6 11:-1 12:-1 13:-1 14:-1 15:-1 16:-1 17:-1 18:-1 19:-1 20:-1 21:-1 22:0.2 24:-1 25:-1 26:-1 27:-1 28:-1 29:-1 30:-1 32:-1 33:-1 34:-1 35:-1 37:-1 38:-1 39:1 40:0.133334 41:-1 42:-1 43:-1 44:-1 47:-1 48:-1 
1.650585585240429 0 1:0.714286 2:-1 3:1 4:-1 5:-1 6:-1 7:-1 8:-1 9:-1 10:-1 11:-1 12:-1 13:-1 14:-1 15:-1 16:-1 17:-1 18:-1 19:-1 20:-1 21:-1 22:1 24:-1 25:-1 26:-1 27:-1 28:-1 29:-1 30:-0.989796 32:-1 33:-1 34:-1 35:-1 37:-1 38:-1 39:-1 40:0.133334 41:-1 42:-1 43:1 44:-1 47:-1 48:1 
0 5.986433873819865 5:-1 6:-1 7:-1 8:-1 9:-1 10:-1 11:-1 12:-1 13:-1 14:-1 15:-1 16:-1 17:-1 18:-1 19:-1 20:-1 21:-1 22:-1 24:-1 25:-1 26:-1 27:-1 28:-1 29:-1 30:0.244898 32:-1 33:-1 34:-1 35:-1 37:-1 38:-1 39:1 41:-1 42:-1 43:-1 44:-1 47:-1 48:1 
0 1.130807891801995 1:-0.333334 2:-1 3:0.333334 4:-1 5:-1 6:-1 7:-1 8:-1 9:-1 10:-1 11:-1 12:-1 13:-1 14:-1 15:-0.333334 16:-1 17:-1 18:-1 19:-1 20:-1 21:-1 22:-1 24:-1 25:-1 26:-1 27:-1 28:-1 29:-1 30:0.453552 32:-1 33:-1 34:-1 35:-1 37:-1 38:-1 39:1 41:-1 42:-1 43:-1 44:-1 47:-1 48:-1 
0.6280138335858461 0 1:0.25 2:-1 3:1 4:-1 5:-1 6:-1 7:-1 8:-1 9:-1 10:-1 11:-1 12:-1 13:-1 14:-1 15:-1 16:-0.5 17:-1 18:-1 19:-1 20:-1 21:-1 22:0.5 24:-1 25:-1 26:-1 27:-1 28:-1 29:-1 30:-0.990698 32:-1 33:-1 34:-1 35:-1 37:-1 38:-1 39:1 40:0.1875 41:-1 42:-1 43:1 44:-1 47:-1 48:-1 
0 29.10925037791781 1:-0.111112 2:-0.555556 3:-0.111112 4:-0.888889 5:-1 6:-1 7:-0.555556 8:-1 9:-1 10:-1 11:-0.444444 12:-1 13:-1 14:-0.555556 15:-1 16:-1 17:-1 18:-1 19:-1 20:-1 21:-1 22:-0.555556 24:-1 25:-1 26:-1 27:-1 28:-1 29:-1 30:-0.767442 32:-1 33:-1 34:-1 35:-1 37:-1 38:-1 39:1 41:-1 42:-1 43:-1 44:-1 45:-0.0625 47:1 48:-1 
0 17.62679595242975 2:-0.4 4:-1 5:-1 6:-1 7:-0.4 8:-1 9:-1 10:-1 11:-0.4 12:-1 13:-1 14:-0.6 15:-0.9 16:-0.9 17:-1 18:-1 19:-1 20:-1 21:-1 22:-0.4 24:-1 25:-1 26:-1 27:-1 28:-1 29:-1 30:-0.534884 32:-1 33:-1 34:-1 35:-1 37:-1 38:-1 39:1 41:-1 42:-1 43:-1 44:-1 47:-1 48:-1 
0 32 2:-0.416666 4:-1 5:-1 6:-1 7:-0.416666 8:-1 9:-1 10:-1 11:-0.333334 12:-1 13:-1 14:-0.666666 15:-0.75 16:-1 17:-1 18:-1 19:-1 20:-1 21:-1 22:-0.416666 24:-1 25:-1 26:-1 27:-1 28:-1 29:-1 30:-0.376744 32:-1 33:-1 34:-1 35:-1 37:-1 38:-1 39:1 41:-1 42:-1 43:-1 44:-1 47:-1 48:-1 
9.832518463777518 0 1:1 4:-1 5:-1 6:-1 7:-1 8:-1 9:-1 10:-1 11:-1 12:-1 13:-1 14:-1 15:-1 16:-1 17:-1 18:-1 19:-1 20:-1 21:-1 24:-1 25:-1 26:-1 27:-1 28:-1 29:-1 30:-0.885714 32:-1 33:-1 34:-1 35:-1 37:-1 38:-1 39:1 40:0.25 41:-1 42:-1 43:-1 44:-1 47:-1 48:1 
21.10144201146408 0 1:-0.5 2:-1 3:0.5 4:-1 5:-1 6:-1 7:-1 8:-1 9:-1 10:-1 11:-1 12:-1 13:-1 14:-1 15:-1 16:-1 17:-1 18:-1 19:-1 20:-1 21:-1 22:0.5 24:-1 25:-1 26:-1 27:-1 28:-1 29:-1 30:-1 32:-1 33:-1 34:-1 35:-1 37:-1 38:-1 39:1 40:0.2 41:-1 42:-1 43:1 44:-1 47:-1 48:1 
3.669595418250334 0 2:-1 4:-1 5:-1 6:-1 7:-1 8:-1 9:-1 11:-1 12:-1 13:-1 14:-1 15:-1 16:-1 17:-1 18:-1 19:-1 20:-1 21:-1 24:-1 25:-1 26:-1 27:-1 28:-1 29:-1 30:-0.714286 32:-1 33:-1 34:-1 35:-1 37:-1 38:-1 39:1 40:0.2 41:-1 42:-1 43:-1 44:1 45:0.0666667 46:-0.333333 47:-1 48:-1 
0 3.609827205840709 1:-1 2:-1 4:-1 5:-1 6:-1 7:-1 8:-1 9:-1 10:-1 11:-1 12:-1 13:-1 14:-1 15:-1 17:-1 18:-1 19:-1 20:-1 21:-1 22:-1 24:-1 25:-1 26:-1 27:-1 28:1 29:-1 30:-0.687074 32:-1 33:-1 34:-1 35:-1 37:-1 38:-1 39:1 41:-1 42:1 43:-1 44:-1 45:-0.433333 46:0.0157895 47:-1 48:-1 
32 0 1:1 2:-1 3:1 4:-1 5:-1 6:-1 7:-1 8:-1 9:-1 10:-1 11:-1 12:-1 13:-1 14:-1 15:-1 16:-1 17:-1 18:-1 19:-1 20:-1 21:-1 22:1 24:-1 25:-1 26:-1 27:-1 28:-1 29:-1 30:-0.989744 32:1 33:-1 34:-1 35:-1 37:-1 38:-1 39:-1 40:0.133334 41:-1 42:-1 43:1 44:-1 47:-1 48:-1 
10.41373873377203 0 1:0.2 2:-1 3:1 4:-1 5:-1 6:-1 7:-1 8:-1 9:-1 10:-1 11:-1 12:-1 13:-1 14:-0.6 15:-0.6 16:-1 17:-1 18:-1 19:-1 20:-1 21:-1 22:0.6 24:-1 25:-1 26:-1 27:-1 28:-1 29:-1 30:0.364102 32:-1 33:-1 34:-1 35:-1 37:-1 38:-1 39:1 41:-1 42:-1 43:-1 44:-1 45:0.5 47:-1 48:-1 
0.7612583397076171 32 1:1 2:-1 3:1 4:-1 5:-1 6:-1 7:-1 8:-1 9:-1 10:-1 11:-1 12:-1 13:-1 14:-1 16:-1 17:-1 18:-1 19:-1 20:-1 21:-1 22:-1 24:-1 25:-1 26:-1 27:-1 28:-1 29:-1 30:-0.885057 32:1 33:-1 34:-1 35:-1 37:-1 38:-1 39:1 40:0.428572 41:1 42:-1 43:-1 44:-1 45:0.0254464 46:0.0678571 47:-1 48:-1 
0 32 1:-0.466666 2:-1 3:-0.2 4:-0.866667 5:-0.866667 6:-1 7:-1 8:-1 9:-1 10:-1 11:-1 12:-1 13:-1 14:-0.333334 15:-0.466666 16:-1 17:-1 18:-1 19:-1 20:-1 21:-1 22:-1 24:-1 25:-1 26:-1 27:-1 28:-1 29:-1 30:-0.586206 32:-1 33:-1 34:-1 35:-1 37:-1 38:-1 39:1 41:-1 42:-1 43:-1 44:-1 47:-1 48:-1 
0 21.67888579513504 1:-0.2 2:-0.6 3:0.2 4:-1 5:-1 6:-1 7:-0.6 8:-1 9:-1 10:-1 11:-0.6 12:-1 13:-1 14:-1 15:-1 16:-1 17:-1 18:-1 19:-1 20:-1 21:-1 22:-0.2 24:-1 25:-1 26:-1 27:-1 28:-1 29:-1 30:-0.959016 32:-1 33:-1 34:-1 35:-1 37:-1 38:-1 39:1 40:0.045454 41:1 42:-1 43:1 44:-1 45:0.019798 46:0.0417614 47:-1 48:-1 
0 3.75248519992372 2:-1 3:-1 4:-1 5:-1 6:-1 7:-1 8:-1 9:-1 10:-1 11:-1 12:-1 13:-1 14:-1 15:-1 16:-1 17:-1 18:-1 19:-1 20:-1 21:-1 22:-1 24:-1 25:-1 26:-1 27:-1 28:-1 29:1 30:-0.828571 32:-1 33:-1 34:-1 35:-1 37:-1 38:-1 39:1 40:-1 41:-1 42:-1 43:-1 44:-1 46:-0.5 47:1 48:-1 
7.151736489175608 0 1:0.111112 2:-1 3:0.777778 4:-1 5:-1 6:-1 7:-1 8:-1 9:-1 10:-1 11:-1 12:-1 13:-1 14:-1 15:-1 16:-0.777778 17:-1 18:-1 19:-1 20:-1 21:-1 22:0.333334 24:-1 25:-1 26:-1 27:-1 28:-1 29:-1 30:0.932038 32:-1 33:-1 34:-1 35:-1 37:-1 38:-1 39:1 40:0.030304 41:-1 42:-1 43:-1 44:-1 45:0.265152 47:-1 48:-1 
0 15.90707665001748 1:-0.466666 2:-0.733334 3:0.066666 4:-0.6 5:-1 6:-1 7:-0.733334 8:-1 9:-1 10:-1 11:-0.866667 12:-1 13:-1 14:-0.733334 15:-0.866667 16:-0.866667 17:-1 18:-1 19:-1 20:-1 21:-1 22:-0.333334 24:-1 25:-1 26:-1 27:-1 28:-0.733334 29:-0.466666 30:-0.963746 32:-1 33:-1 34:-1 35:-1 37:-1 38:-1 39:1 40:-0.5 41:-1 42:-1 43:-1 44:-1 47:-1 48:-1 
1.060890200892003 0 1:1 2:1 3:1 4:-1 5:-1 6:-1 7:-1 8:-1 9:-1 10:-1 11:-1 12:-1 13:-1 14:-1 15:-1 16:-1 17:-1 18:-1 19:-1 20:-1 21:-1 24:-1 25:-1 26:-1 27:-1 28:1 29:-1 30:-0.915408 32:1 33:-1 34:-1 35:-1 37:-1 38:-1 39:1 40:-0.25 41:-1 42:-1 43:-1 44:-1 45:0.0905172 47:-1 48:1 
0 16.94494377489633 1:-0.5 2:-1 3:0.5 4:-1 5:-1 6:-1 7:-1 8:-1 9:-1 10:-1 11:-0.5 12:-1 13:-1 14:-1 15:-0.5 16:-1 17:-1 18:-1 19:-1 20:-1 21:-1 24:-1 25:-1 26:-1 27:-1 28:-1 29:-1 30:-0.8429 32:-1 33:-1 34:-1 35:-1 37:-1 38:-1 39:1 41:-1 42:-1 43:-1 44:-1 47:-1 48:-1 
1.532260628471813 0 1:-0.333334 2:-1 3:1 4:-1 5:-1 6:-1 7:-1 8:-1 9:-1 10:-1 11:-1 12:-1 13:-1 14:-1 15:-1 16:-1 17:-1 18:-1 19:-1 20:-1 21:-1 22:1 24:-1 25:-1 26:-1 27:-1 28:1 29:-1 30:-0.812689 32:-1 33:-1 34:-1 35:-1 37:-1 38:-1 39:-1 40:0.26087 41:-1 42:-1 43:-1 44:-1 45:0.255435 46:0.380435 47:1 48:1 
0 6.114725055631814 2:-1 3:1 4:-1 5:-1 6:-1 7:-1 8:-1 9:-1 10:-1 11:-1 12:-1 13:-1 14:-1 15:-1 17:-1 18:-1 19:-1 20:-1 21:-1 24:-1 25:-1 26:-1 27:-1 28:1 29:-1 30:-0.49849 32:-1 33:-1 34:-1 35:-1 37:-1 38:-1 39:1 40:0.26087 41:-1 42:-1 43:-1 44:-1 45:0.255435 46:0.380435 47:1 48:-1 
11.09965364575813 0 2:-1 3:1 4:-1 5:-1 6:-1 7:-1 8:-1 9:-1 10:-1 11:-1 12:-1 13:-1 14:-1 15:-1 17:-1 18:-1 19:-1 20:-1 21:-1 24:-1 25:-1 26:-1 27:-1 28:1 29:-1 30:-0.063444 32:-1 33:-1 34:-1 35:-1 37:-1 38:-1 39:1 40:0.26087 41:-1 42:-1 43:-1 44:-1 45:0.130435 46:0.380435 47:-1 48:-1 
20.88021748338313 0 2:-1 3:1 4:-1 5:-1 6:-1 7:-1 8:-1 9:-1 10:-1 11:-1 12:-1 13:-1 14:-1 15:-1 16:-1 17:-1 18:-1 19:-1 20:-1 21:-1 24:-1 25:-1 26:-1 27:-1 28:1 29:-1 30:0.522658 32:-1 33:-1 34:-1 35:-1 37:-1 38:-1 39:1 40:0.26087 41:-1 42:-1 43:-1 44:-1 45:0.380435 46:0.380435 47:-1 48:-1 
2.516124870861302 0 2:-0.5 3:1 4:-1 5:-1 6:-1 7:-0.5 8:-1 9:-1 10:-1 11:-1 12:-1 13:-1 14:-1 15:-0.5 16:-1 17:-1 18:-1 19:-1 20:-1 21:-1 22:0.5 24:-1 25:-1 26:-1 27:-1 28:1 29:-1 30:0.861028 32:-1 33:-1 34:-1 35:-1 37:-1 38:-1 39:1 40:0.26087 41:-1 42:-1 43:-1 44:-1 45:0.255435 46:0.380435 47:1 48:-1 
27.99586148338257 0 1:1 2:1 3:1 4:-1 5:-1 6:-1 7:-1 8:-1 9:-1 10:-1 11:-1 12:-1 13:-1 14:-1 15:-1 16:-1 17:-1 18:-1 19:-1 20:-1 21:-1 22:1 24:-1 25:-1 26:-1 27:-1 28:1 29:-1 30:-0.973684 32:1 33:-1 34:-1 35:-1 37:-1 38:-1 39:-1 41:-1 42:-1 43:-1 44:-1 45:0.5 47:-1 48:1 
0.03858744633432347 0 1:1 2:1 3:1 4:-1 5:-1 6:-1 7:-1 8:-1 9:-1 10:-1 11:-1 12:-1 13:-1 14:-1 15:-1 16:-1 17:-1 18:-1 19:-1 20:-1 21:-1 22:1 24:-1 25:-1 26:-1 27:-1 28:1 29:-1 30:-0.960526 32:1 33:-1 34:-1 35:-1 37:-1 38:-1 39:-1 41:-1 42:-1 43:-1 44:1 46:-0.5 47:1 48:-1 
0 0.9220974717569288 1:-0.5 2:-1 3:0.5 4:-1 5:-1 6:-1 7:-1 8:-1 9:-1 10:-1 11:-1 12:-1 13:-1 14:-0.5 15:-0.75 16:-1 17:-1 18:-1 19:-1 20:-1 21:-1 22:-0.75 24:-1 25:-1 26:-1 27:-1 28:-1 30:-0.486842 32:-1 33:-1 34:-1 35:-1 37:-1 38:-1 39:1 41:-1 42:-1 43:-1 44:-1 47:-1 48:-1 
0 32 1:-0.555556 2:-1 3:0.555556 4:-1 5:-1 6:-1 7:-1 8:-1 9:-1 10:-1 11:-1 12:-1 13:-1 14:-0.555556 15:-0.777778 16:-1 17:-1 18:-1 19:-1 20:-1 21:-1 22:-0.777778 24:-1 25:-1 26:-1 27:-1 28:-1 29:-0.111112 30:-0.473684 32:-1 33:-1 34:-1 35:-1 37:-1 38:-1 39:1 41:-1 42:-1 43:-1 44:-1 46:0.25 47:-1 48:-1 
0 5.236357009336207 1:-1 2:-1 3:-1 4:-1 5:-1 6:-1 7:-1 8:-1 9:-1 10:-1 11:-1 12:0.333334 13:-1 14:-0.333334 15:-1 16:-1 17:-1 18:-1 19:-1 20:-1 21:-1 22:-1 24:-1 25:-1 26:-1 27:-1 28:-1 29:-1 30:-0.85567 32:-1 33:-1 34:-1 35:-1 37:-1 38:-1 39:1 40:-0.5 41:-1 42:-1 43:1 44:-1 46:-0.25 47:-1 48:-1 
32 0 1:0.6 2:-1 3:1 4:-1 5:-1 6:-1 7:-1 8:-1 9:-1 10:-1 11:-1 12:-1 13:-1 14:-1 15:-1 16:-1 17:-1 18:-1 19:-1 20:-1 21:-1 22:0.6 24:-1 25:-1 26:-1 27:-1 28:-1 29:-1 30:0.422536 32:-1 33:-1 34:-1 35:-1 37:-1 38:-1 39:1 40:0.181818 41:-1 42:-1 43:-1 44:-1 45:0.0909091 47:-1 48:-1 
4.113477566929922 0 1:1 2:-1 3:1 4:-1 5:-1 6:-1 7:-1 8:-1 9:-1 10:-1 11:-1 12:-1 13:-1 14:-1 15:-1 16:-1 17:-1 18:-1 19:-1 20:-1 21:-1 22:1 24:-1 25:-1 26:-1 27:-1 28:-1 29:-1 30:-0.97351 32:1 33:-1 34:-1 35:-1 37:-1 38:-1 39:-1 40:0.583334 41:-1 42:-1 43:-1 44:1 45:0.541667 46:-0.208333 47:1 48:-1 
0.8011996793567128 0 1:0.5 2:-1 3:1 4:-1 5:-1 6:-1 7:-1 8:-1 9:-1 10:-1 11:-1 12:-1 13:-1 14:-1 15:-1 16:-1 17:-1 18:-1 19:-1 20:-1 21:-1 22:1 24:-1 25:-1 26:-1 27:-1 28:-1 29:-1 30:0.827814 32:-1 33:-1 34:-1 35:-1 37:-1 38:-1 39:-1 40:0.083334 41:-1 42:-1 43:-1 44:-1 45:0.291667 46:0.0416667 47:-1 48:-1 
0 13.89488413289175 4:-1 5:-1 6:-1 7:-1 8:-1 9:-1 10:-1 12:-1 13:-1 14:-1 15:-1 16:-1 17:-1 18:-1 19:-1 20:-1 21:-1 22:-1 24:-1 25:-1 26:-1 27:-1 28:-1 29:-1 30:-0.978723 32:-1 33:-1 34:-1 35:-1 37:-1 38:-1 39:1 40:0.111112 41:-1 42:1 43:-1 44:-1 45:-0.444444 47:-1 48:1 
4.715104283979811 0.8545151493105957 1:1 2:1 3:1 4:-1 5:-1 6:-1 7:-1 8:-1 9:-1 10:-1 11:-1 12:-1 13:-1 14:-1 16:-1 17:-1 18:-1 19:-1 20:-1 21:-1 24:-1 25:-1 26:-1 27:-1 28:-1 29:-1 30:-0.957447 32:1 33:-1 34:-1 35:-1 37:-1 38:-1 39:1 40:0.077778 41:-1 42:-1 43:-1 44:-1 45:-0.0166667 46:-0.0166667 47:1 48:1 
2.733554880441615 0 1:0.5 2:-1 3:1 4:-1 5:-1 6:-1 7:-1 8:-1 9:-1 10:-1 11:-1 12:-1 13:-1 14:-1 15:-1 16:-0.5 17:-1 18:-1 19:-1 20:-1 21:-1 24:-1 25:-1 26:-1 27:-1 28:-1 29:-1 30:-0.071038 32:-1 33:-1 34:-1 35:-1 37:-1 38:-1 39:1 40:-0.125 41:-1 42:-1 43:-1 44:-1 46:-0.0625 47:-1 48:1 
32 0 1:-0.333334 2:-1 3:0.466666 4:-1 5:-1 6:-1 7:-1 8:-1 9:-1 10:-1 11:-0.733334 12:-1 13:-1 14:-0.866667 15:-1 16:-0.6 17:-1 18:-1 19:-1 20:-1 21:-1 22:-0.066666 24:-1 25:-1 26:-1 27:-1 28:-1 29:-1 30:-0.112244 32:-1 33:-1 34:-1 35:-1 37:-1 38:-1 39:1 40:0.5 41:-1 42:-1 43:-1 44:-1 45:0.45 46:0.45 47:-1 48:-1 
32 20.59974508049361 1:-0.333334 2:-1 3:0.466666 4:-1 5:-1 6:-1 7:-1 8:-1 9:-1 10:-1 11:-0.733334 12:-1 13:-1 14:-0.866667 15:-1 16:-0.6 17:-1 18:-1 19:-1 20:-1 21:-1 22:-0.066666 24:-1 25:-1 26:-1 27:-1 28:-1 29:-1 30:1 32:-1 33:-1 34:-1 35:-1 37:-1 38:-1 39:1 40:0.5 41:-1 42:-1 43:-1 44:-1 45:0.25 47:-1 48:-1 
0 25.09424981792633 1:-0.294118 2:-0.647058 3:-0.17647 4:-0.647058 5:-0.882353 6:-1 7:-0.764706 8:-1 9:-1 10:-0.882353 11:-1 12:-1 13:-1 14:-0.764706 15:-0.882353 16:-0.882353 17:-1 18:-1 19:-1 20:-1 21:-1 22:-0.529412 24:-1 25:-1 26:-1 27:-1 28:1 29:-0.882353 30:-0.882353 32:-1 33:-1 34:-1 35:-1 37:-1 38:-1 39:1 40:-0.2 41:-1 42:-1 43:-1 44:-1 47:-1 48:-1 
0.4881325045130993 0 1:0.727272 2:0.727272 3:0.772728 4:-1 5:-1 6:-1 7:0.681818 8:-1 9:-1 10:-1 11:-0.954545 12:-1 13:-1 14:-0.954545 15:-1 16:-1 17:-1 18:-1 19:-1 20:-1 21:-1 22:0.727272 24:-1 25:-1 26:-1 27:-1 28:-1 29:-1 30:-0.971292 32:-1 33:-1 34:-1 35:-1 37:-1 38:-1 39:1 41:-1 42:1 43:-1 44:-1 45:-0.5 47:-1 48:1 
5.353885015499467 3.324724825353769 2:-1 3:1 4:-1 5:-1 6:-1 7:-1 8:-1 9:-1 10:-1 11:-1 12:-1 13:-1 14:-1 16:-1 17:-1 18:-1 19:-1 20:-1 21:-1 24:-1 25:-1 26:-1 27:-1 28:-1 29:-1 30:-0.952607 32:-1 33:-1 34:-1 35:-1 37:-1 38:-1 39:1 40:0.285714 41:-1 42:-1 43:-1 44:1 45:0.392857 46:-0.357143 47:-1 48:-1 
0.7624165204737136 0 1:1 2:1 3:1 4:-1 5:-1 6:-1 7:-1 8:-1 9:-1 10:-1 11:-1 12:-1 13:-1 14:-1 15:-1 16:-1 17:-1 18:-1 19:-1 20:-1 21:-1 22:1 24:-1 25:-1 26:-1 27:-1 28:1 29:-1 30:-0.876289 32:1 33:-1 34:-1 35:-1 37:-1 38:-1 39:-1 40:0.166666 41:-1 42:-1 43:-1 44:-1 45:-0.0833334 46:0.0833333 47:1 48:-1 
0 6.937673690753104 2:-1 4:-1 5:-1 6:-1 7:-1 9:-1 10:-1 11:-1 12:-1 13:-1 14:-1 15:-1 16:-1 17:-1 18:-1 19:-1 20:-1 21:-1 22:-1 24:-1 25:-1 26:-1 27:-1 28:-1 29:-1 30:0.444444 32:-1 33:-1 34:-1 35:-1 37:-1 38:-1 39:1 40:-0.4 41:-1 42:-1 43:-1 44:-1 47:-1 48:-1 
0 1.951884443241067 2:-0.5 3:1 4:-1 5:-1 6:-1 7:-0.5 8:-1 9:-1 10:-1 11:-1 12:-1 13:-1 14:-1 16:-1 17:-1 18:-1 19:-1 20:-1 21:-1 22:-0.5 24:-1 25:-1 26:-1 27:-1 28:-1 30:0.011236 32:-1 33:-1 34:-1 35:-1 37:-1 38:-1 39:1 40:-0.5 41:-1 42:-1 43:-1 44:-1 47:-1 48:-1 
0 4.142030377447099 1:0.636364 2:0.636364 3:0.818182 4:-1 5:-1 6:-1 7:-0.09091 8:-1 9:-1 10:-1 11:-0.818182 12:-1 13:-1 14:-0.818182 15:-1 16:-1 17:-1 18:-1 19:-1 20:-1 21:-1 22:0.454546 24:-1 25:-1 26:-1 27:-1 28:-1 29:-1 30:-0.917949 32:-1 33:-1 34:-1 35:-1 37:-1 38:-1 39:1 40:-0.225806 41:-1 42:-1 43:-1 44:-1 45:-0.145161 46:-0.0129032 47:1 48:-1 
16.91666801347348 0 2:-1 3:1 4:-1 5:-1 6:-1 7:-1 8:-1 9:-1 10:-1 11:-1 12:-1 13:-1 14:-1 15:-1 17:-1 18:-1 19:-1 20:-1 21:-1 24:-1 25:-1 26:-1 27:-1 28:-1 29:-1 30:-0.973684 32:-1 33:-1 34:-1 35:-1 37:-1 38:-1 39:1 40:0.285714 41:-1 42:-1 43:-1 44:1 45:0.392857 46:-0.357143 47:-1 48:-1 
32 3.389845474869638 1:0.6 2:-1 3:1 4:-1 5:-1 6:-1 7:-1 8:-1 9:-1 10:-1 11:-1 12:-1 13:-1 14:-1 15:-1 16:-1 17:-1 18:-1 19:-1 20:-1 21:-1 22:0.2 24:-1 25:-1 26:-1 27:-0.6 28:1 29:-1 30:-1 32:-1 33:-1 34:-1 35:-1 37:-1 38:-1 39:1 40:1 41:-1 42:-1 43:-1 44:-1 46:0.5 47:-1 48:-1 
0 25.80015908586877 1:1 2:-1 3:1 4:-1 5:-1 6:-1 7:-1 8:-1 9:-1 10:-1 11:-1 12:-1 13:-1 14:-1 17:-1 18:-1 19:-1 20:-1 21:-1 22:-1 24:-1 25:-1 26:-1 27:-1 28:-1 29:-1 30:-0.59322 32:1 33:-1 34:-1 35:-1 37:-1 38:-1 39:1 40:-0.666666 41:-1 42:-1 43:-1 44:-1 47:-1 48:-1 
0 0.7437269559183447 1:-1 2:-1 3:-0.333334 4:-0.333334 5:-1 6:-1 7:-1 8:-1 9:-1 10:-1 11:-1 12:-1 13:-1 14:-1 15:-1 16:-1 17:-1 18:-1 19:-1 20:-1 21:-1 22:-1 24:-1 25:-1 26:-1 27:-1 28:-1 29:-1 30:-0.947598 32:-1 33:-1 34:-1 35:-1 37:-1 38:-1 39:1 40:0.007214 41:1 42:-1 43:1 44:-1 45:-0.00645938 46:-0.00920581 47:-1 48:1 
0 32 1:0.166666 2:-0.666666 3:0.166666 4:-0.833333 5:-0.833333 6:-1 7:-0.833333 8:-1 9:-1 10:-1 11:-1 12:-1 13:-1 14:-0.5 15:-0.666666 16:-0.666666 17:-1 18:-1 19:-1 20:-1 21:-1 22:-0.5 24:-1 25:-1 26:-1 27:-1 28:-1 29:-1 30:-0.722222 32:-1 33:-1 34:-1 35:-1 37:-1 38:-1 39:1 41:-1 42:-1 43:-1 44:-1 47:-1 48:-1 
0.5108594758803645 0 1:-1 2:-1 3:-1 4:-1 5:-1 6:-1 7:-1 8:-1 9:-1 10:-1 11:-1 12:-1 13:-1 14:-1 15:-1 16:-1 17:-1 18:-1 19:-1 20:-1 21:-1 22:-1 24:-1 25:-1 26:-1 27:-1 28:-1 29:-1 30:0.35865 32:-1 33:-1 34:-1 35:-1 37:-1 38:-1 39:1 40:1 41:-1 42:-1 43:-1 44:-1 45:0.5 47:-1 48:-1 
32 0.3082199345703956 2:-1 3:0.333334 4:-1 5:-1 6:-1 7:-1 8:-1 9:-1 10:-1 11:-1 12:-1 13:-1 15:-1 16:-1 17:-1 18:-1 19:-1 20:-1 21:-1 22:0.333334 24:-1 25:-1 26:-1 27:-1 28:1 29:-1 30:-1 32:-1 33:-1 34:-1 35:-1 37:-1 38:-1 39:1 40:1 41:-1 42:-1 43:-1 44:1 47:-1 48:-1 
25.40820052676824 0 2:-1 3:1 4:-1 5:-1 6:-1 7:-1 8:-1 9:-1 10:-1 11:-1 12:-1 13:-1 14:-1 15:-1 16:-1 17:-1 18:-1 19:-1 20:-1 21:-1 22:1 24:-1 25:-1 26:-1 27:-1 28:1 29:-1 30:-0.984962 32:-1 33:-1 34:-1 35:-1 37:-1 38:-1 39:-1 40:1 41:-1 42:1 43:-1 44:-1 46:0.3 47:-1 48:-1 
32 0 1:1 2:-1 3:1 4:-1 5:-1 6:-1 7:-1 8:-1 9:-1 10:-1 11:-1 12:-1 13:-1 14:-1 15:-1 16:-1 17:-1 18:-1 19:-1 20:-1 21:-1 22:1 24:-1 25:-1 26:-1 27:-1 28:-1 29:-1 30:-0.969925 32:1 33:-1 34:-1 35:-1 37:-1 38:-1 39:-1 40:0.4 41:-1 42:1 43:-1 44:-1 45:-0.3 46:0.2 47:-1 48:-1 
32 0 2:-1 3:1 4:-1 5:-1 6:-1 7:-1 8:-1 9:-1 10:-1 11:-1 12:-1 13:-1 14:-1 15:-1 16:-1 17:-1 18:-1 19:-1 20:-1 21:-1 22:1 24:-1 25:-1 26:-1 27:-1 28:-1 29:-1 30:-0.974843 32:-1 33:-1 34:-1 35:-1 37:-1 38:-1 39:-1 40:0.428572 41:-1 42:-1 43:-1 44:1 45:0.464286 46:-0.285714 47:-1 48:-1 
19.90305165630491 0 1:0.142858 2:-1 3:1 4:-1 5:-1 6:-1 7:-1 8:-1 9:-1 10:-1 11:-1 12:-1 13:-1 14:-1 15:-1 16:-1 17:-1 18:-1 19:-1 20:-1 21:-1 22:0.714286 24:-1 25:-1 26:-1 27:-1 28:-1 29:-1 30:-1 32:-1 33:-1 34:-1 35:-1 37:-1 38:-1 39:1 40:0.1875 41:-1 42:-1 43:-1 44:-1 47:-1 48:-1 
8.344218405450874 0 1:0.2 2:-1 3:1 4:-1 5:-1 6:-1 7:-1 8:-1 9:-1 10:-1 11:-1 12:-1 13:-1 14:-1 15:-1 16:-0.6 17:-1 18:-1 19:-1 20:-1 21:-1 22:0.6 24:-1 25:-1 26:-1 27:-1 28:-1 29:-1 30:-1 32:-1 33:-1 34:-1 35:-1 37:-1 38:-1 39:1 40:0.133334 41:-1 42:-1 43:1 44:-1 47:-1 48:1 
0 14.60236105671777 2:-0.333334 4:-1 5:-1 6:-1 7:-0.333334 8:-1 9:-1 10:-1 11:-0.333334 12:-1 13:-1 14:-1 15:-1 16:-1 17:-1 18:-1 19:-1 20:-1 21:-1 22:-0.333334 24:-1 25:-1 26:-1 27:-1 28:-1 29:-1 30:-0.990291 32:-1 33:-1 34:-1 35:-1 37:-1 38:-1 39:1 41:-1 42:1 43:1 44:-1 45:-0.5 46:0.075 47:-1 48:-1 
0.2089078713264835 0 1:-0.8 2:-1 3:0.8 4:-1 5:-1 6:-1 7:-1 8:-1 9:-1 10:-1 11:-1 12:-1 13:-1 14:-0.8 15:-1 16:-0.6 17:-1 18:-1 19:-1 20:-1 21:-1 22:0.4 24:-1 25:-1 26:-1 27:-1 28:-1 29:-1 30:-0.650486 32:-1 33:-1 34:-1 35:-1 37:-1 38:-1 39:1 41:-1 42:-1 43:1 44:-1 45:0.125 47:1 48:-1 
0 32 1:0.333334 2:-1 3:0.333334 4:-1 5:-1 6:-1 7:-1 8:-1 9:-1 10:-1 11:-1 12:-1 13:-1 14:-1 15:-0.333334 16:-1 17:-1 18:-1 19:-1 20:-1 21:-1 22:-1 24:-1 25:-1 26:-1 27:-1 28:-1 29:-1 30:-0.640776 32:-1 33:-1 34:-1 35:-1 37:-1 38:-1 39:1 41:-1 42:-1 43:-1 44:-1 47:-1 48:-1 
0 0.5759557274791341 1:0.09091 2:-0.818182 3:0.454546 4:-0.818182 5:-1 6:-1 7:-1 8:-1 9:-1 10:-1 11:-1 12:-1 13:-1 14:-0.454546 15:-1 16:-1 17:-1 18:-1 19:-1 20:-0.454545 21:-1 22:-0.09091 24:-1 25:-0.818182 26:-1 27:-1 28:-1 29:-1 30:-0.923077 32:-1 33:-1 34:-1 35:-1 37:-1 38:-1 39:1 40:0.333334 41:1 42:-1 43:-1 44:-1 47:-1 48:-1 
0 8.990908413105135 1:-1 2:-1 4:-1 5:-1 6:-1 7:-1 8:-1 9:-1 10:-1 11:-0.8 12:-1 13:-1 14:-0.6 15:-1 16:-1 17:-1 18:-1 19:-1 20:-1 21:-1 22:-1 24:-1 25:-1 26:-1 27:-1 28:-1 29:-1 30:-0.897436 32:-1 33:-1 34:-1 35:-1 37:-1 38:-1 39:1 40:0.333334 41:-1 42:-1 43:-1 44:-1 46:0.166667 47:-1 48:1 
1.026732239379163 0 1:-0.454546 2:-0.818182 3:0.636364 4:-0.818182 5:-1 6:-1 7:-0.818182 8:-1 9:-1 10:-1 11:-1 12:-1 13:-1 14:-1 15:-1 16:-1 17:-1 18:-1 19:-1 20:-1 21:-1 22:0.454546 24:-1 25:-1 26:-1 27:-1 28:-1 29:-1 30:0.875648 32:-1 33:-1 34:-1 35:-1 37:-1 38:-1 39:1 41:-1 42:-1 43:-1 44:-1 47:1 48:1 
0 2.954122149416254 1:0.333334 2:-0.888889 3:0.333334 4:-1 5:-1 6:-1 7:-1 8:-0.888889 9:-1 10:-1 11:-1 12:-1 13:-1 14:-0.555556 15:-0.888889 16:-0.666666 17:-1 18:-1 19:-1 20:-1 21:-1 22:-0.555556 24:-1 25:-0.888889 26:-1 27:-1 28:-1 29:-1 30:-0.917695 32:-1 33:-1 34:-1 35:-1 37:-1 38:-1 39:1 40:0.05 41:-1 42:-1 43:-1 44:-1 46:-0.025 47:1 48:-1 
0 11.42633380557478 1:-0.2 2:-1 3:-0.2 4:-0.6 5:-1 6:-1 7:-1 8:-0.6 9:-1 10:-1 11:-0.6 12:-1 13:-1 14:-1 15:-1 16:-0.2 17:-1 18:-1 19:-1 20:-1 21:-1 22:-1 24:-1 25:-1 26:-1 27:-1 28:-1 29:-1 30:-0.44033 32:-1 33:-1 34:-1 35:-1 37:-1 38:-1 39:1 40:0.05 41:-1 42:-1 43:-1 44:-1 45:-0.025 46:0.025 47:-1 48:-1 
0.8538678225476356 0 2:-1 3:1 4:-1 5:-1 6:-1 7:-1 8:-1 9:-1 10:-1 11:-1 12:-1 13:-1 14:-1 15:-1 17:-1 18:-1 19:-1 20:-1 21:-1 22:-1 24:-1 25:-1 26:-1 27:-1 28:-1 29:-1 30:0.13245 32:-1 33:-1 34:-1 35:-1 37:-1 38:-1 39:1 40:-0.2 41:-1 42:-1 43:-1 44:-1 45:-0.1 46:-0.1 47:1 48:1 
0 0.2470784628149937 1:0.5 2:-1 3:1 4:-1 5:-1 6:-1 7:-1 8:-1 9:-1 10:-1 11:-1 12:-1 13:-1 14:-1 15:-1 16:-1 17:-1 18:-1 19:-1 20:-1 21:-1 22:0.5 24:-1 25:-1 26:-1 27:-0.5 28:-1 29:-1 30:-0.846154 32:-1 33:-1 34:-1 35:-1 37:-1 38:-1 39:1 40:1 41:-1 42:-1 43:-1 44:-1 45:1 46:1 47:1 48:-1 
15.13914319055436 0 1:1 2:1 3:1 4:-1 5:-1 6:-1 7:-0.166666 8:-1 9:-1 10:-1 11:-1 12:-1 13:-1 14:-1 15:-1 16:-1 17:-1 18:-1 19:-1 20:-1 21:-1 22:0.166666 24:-1 25:-1 26:-1 27:-1 28:-1 29:-1 30:-0.179488 32:1 33:-1 34:-1 35:-1 37:-1 38:-1 39:1 40:0.380614 41:-1 42:-1 43:-1 44:-1 45:0.190307 46:-0.00329536 47:-1 48:1 
0.8156856504041871 0 1:1 2:1 3:1 4:-1 5:-1 6:-1 7:-0.272728 8:-1 9:-1 10:-1 11:-1 12:-1 13:-1 14:-1 15:-1 16:-1 17:-1 18:-1 19:-1 20:-1 21:-1 22:0.272728 24:-1 25:-1 26:-1 27:-1 28:-1 29:-1 30:-0.153846 32:1 33:-1 34:-1 35:-1 37:-1 38:-1 39:1 40:0.387206 41:-1 42:-1 43:-1 44:-1 45:0.00329536 46:0.026936 47:1 48:1 
0 13.6832773591344 1:0.142858 2:-0.857143 3:0.285714 4:-0.857143 5:-1 6:-1 7:-1 8:-1 9:-1 10:-1 11:-1 12:-1 13:-1 14:-0.428572 15:-0.714286 16:-0.857143 17:-1 18:-1 19:-1 20:-1 21:-1 22:-0.571428 24:-1 25:-1 26:-1 27:-1 28:-1 29:0.714286 30:-0.931373 32:-1 33:-1 34:-1 35:-1 37:-1 38:-1 39:1 40:-0.333334 41:-1 42:-1 43:-1 44:-1 47:-1 48:-1 
0 26.3149245582434 1:0.5 2:0.25 3:0.75 4:-1 5:-1 6:-1 7:-0.25 8:-1 9:-1 10:-1 11:-1 12:-1 13:-1 14:-0.75 15:-0.875 16:-1 17:-1 18:-1 19:-1 20:-1 21:-1 24:-1 25:-1 26:-1 27:-1 28:-1 29:-1 30:-0.846154 32:-1 33:-1 34:-1 35:-1 37:-1 38:-1 39:1 40:-0.294444 41:-1 42:1 43:-1 44:-1 45:-0.647222 46:0.352778 47:-1 48:-1 
0 32 2:-1 5:-1 6:-1 7:-1 8:-1 9:-1 10:-1 11:-1 12:-1 13:-1 14:-1 15:-1 16:-1 17:-1 18:-1 19:-1 20:-1 21:-1 22:-1 24:-1 25:-1 26:-1 27:-1 28:-1 29:-1 30:-0.932692 32:-1 33:-1 34:-1 35:-1 37:-1 38:-1 39:1 40:-0.318182 41:1 42:-1 43:-1 44:-1 45:-0.136132 46:-0.0340909 47:-1 48:-1 
0 7.547254082228769 1:0.428572 2:0.428572 3:0.428572 4:-1 5:-1 6:-1 7:-0.714286 8:-1 9:-1 10:-1 11:-0.428572 12:-1 13:-1 14:-1 15:-0.142858 16:-1 17:-1 18:-1 19:-1 20:-1 21:-1 22:-0.714286 24:-1 25:-1 26:-1 27:-1 28:1 29:-1 30:-0.39726 32:-1 33:-1 34:-1 35:-1 37:-1 38:-1 39:1 40:-0.4 41:-1 42:-1 43:-1 44:-1 45:-0.1 46:-0.2 47:-1 48:1 
0 14.7763802023983 1:1 2:-1 3:1 4:-1 5:-1 6:-1 7:-1 8:-1 9:-1 10:-1 11:-1 12:-1 13:-1 14:-1 15:-0.333334 16:-0.333334 17:-1 18:-1 19:-1 20:-1 21:-1 22:-0.333334 24:-1 25:-1 26:-1 27:-1 28:-1 29:-1 30:-0.542858 32:1 33:-1 34:-1 35:-1 37:-1 38:-1 39:1 41:-1 42:-1 43:-1 44:-1 47:-1 48:-1 
32 0 1:0.666666 2:-1 3:0.666666 4:-1 5:-1 6:-1 7:-1 8:-1 9:-1 10:-0.666666 11:-1 12:-1 13:-1 14:-1 15:-1 16:-1 17:-1 18:-1 19:-1 20:-1 21:-1 22:0.666666 24:-1 25:-1 26:-1 27:-1 28:-1 29:-1 30:0.314286 32:-1 33:-1 34:-1 35:-1 37:-1 38:-1 39:1 40:0.125 41:-1 42:-1 43:-1 44:-1 45:0.0625 47:-1 48:-1 
0 1.419186225675438 1:0.333334 2:-1 3:1 4:-1 5:-1 6:-1 7:-1 8:-1 9:-1 10:-1 11:-1 12:-1 13:-1 14:-1 15:-1 16:-1 17:-1 18:-1 19:-1 20:-1 21:-1 22:0.333334 24:-1 25:-1 26:-1 27:-0.333334 28:-1 29:1 30:-1 32:-1 33:-1 34:-1 35:-1 37:-1 38:-1 39:1 41:-1 42:-1 43:-1 44:-1 47:-1 48:-1 
32 8.951334505414097 1:0.333334 2:-1 3:0.333334 4:-1 5:-1 6:-1 7:-1 8:-1 9:-1 10:-1 11:-1 12:-1 13:-1 14:-0.333334 15:-1 16:-1 17:-1 18:-1 19:-1 20:-1 21:-1 22:0.333334 24:-1 25:-1 26:-1 27:-1 28:-1 29:-1 30:-0.835616 32:-1 33:-1 34:-1 35:-1 37:-1 38:-1 39:1 40:1 41:-1 42:-1 43:-1 44:-1 45:0.5 46:0.5 47:1 48:-1 
2.872934894075399 0 1:-1 2:-1 3:1 4:-1 5:-1 6:-1 7:-1 8:-1 9:-1 10:-1 11:-1 12:-1 13:-1 14:-1 15:-1 16:-1 17:-1 18:-1 19:-1 20:-1 21:-1 22:0.333334 24:-1 25:-0.333334 26:-1 27:-1 28:-1 29:-1 30:-0.726028 32:-1 33:-1 34:-1 35:-1 37:-1 38:-1 39:1 40:0.4 41:-1 42:-1 43:-1 44:-1 46:0.228571 47:-1 48:-1 
0 32 1:0.142858 2:-1 3:0.714286 4:-1 5:-1 6:-1 7:-1 8:-1 9:-1 10:-1 11:-1 12:-1 13:-1 14:-1 15:-0.428572 16:-0.428572 17:-1 18:-1 19:-1 20:-1 21:-1 22:-0.428572 24:-1 25:-1 26:-1 27:-1 28:-1 29:-1 30:-0.671232 32:-1 33:-1 34:-1 35:-1 37:-1 38:-1 39:1 40:-0.071428 41:-1 42:-1 43:-1 44:-1 45:-0.00714286 46:0.464286 47:-1 48:-1 
18.50432677356237 0 1:1 2:-1 3:1 4:-1 5:-1 6:-1 7:-1 8:-1 9:-1 10:-1 11:-1 12:-1 13:-1 14:-1 15:-1 16:-1 17:-1 18:-1 19:-1 20:-1 21:-1 22:-1 24:-1 25:-1 26:-1 27:-1 28:-1 29:-1 30:0.041096 32:1 33:-1 34:-1 35:-1 37:-1 38:-1 39:1 40:0.3 41:-1 42:-1 43:-1 44:-1 47:-1 48:-1 
0.682130382632205 0 1:0.111112 2:-1 3:0.333334 4:-1 5:-1 6:-1 7:-1 8:-1 9:-1 10:-1 11:-1 12:-1 13:-1 14:-0.333334 15:-1 16:-0.777778 17:-1 18:-1 19:-1 20:-1 21:-1 22:-0.111112 24:-1 25:-0.777778 26:-1 27:-1 28:-1 29:-1 30:0.09589 32:-1 33:-1 34:-1 35:-1 37:-1 38:-1 39:1 40:0.1 41:-1 42:-1 43:1 44:-1 45:-0.1 46:-0.1 47:-1 48:-1 
0 14.81923303332207 1:0.111112 2:-1 3:0.333334 4:-1 5:-1 6:-1 7:-1 8:-1 9:-1 10:-1 11:-1 12:-1 13:-1 14:-0.333334 15:-1 16:-0.777778 17:-1 18:-1 19:-1 20:-1 21:-1 22:-0.555556 24:-1 25:-0.777778 26:-1 27:-1 28:-1 29:-1 30:0.150684 32:-1 33:-1 34:-1 35:-1 37:-1 38:-1 39:1 40:0.1 41:1 42:-1 43:1 44:-1 45:-0.1 46:-0.1 47:-1 48:-1 
0 32 1:0.2 2:-0.6 3:0.2 4:-1 5:-1 6:-1 7:-0.6 8:-1 9:-1 10:-1 11:-1 12:-0.6 13:-1 14:-1 15:-0.6 16:-0.6 17:-1 18:-1 19:-1 20:-1 21:-1 22:-0.6 24:-1 25:-1 26:-1 27:-1 28:-1 29:-1 30:-0.834395 32:-1 33:-1 34:-1 35:-1 37:-1 38:-1 39:1 40:-0.5 41:-1 42:-1 43:-1 44:-1 47:-1 48:-1 
20.84421995568511 0 1:0.333334 2:-1 3:1 4:-1 5:-1 6:-1 7:-1 8:-1 9:-1 10:-1 11:-1 12:-1 13:-1 14:-0.333334 15:-1 16:-1 17:-1 18:-1 19:-1 20:-1 21:-1 22:-0.333334 24:-1 25:-0.333334 26:-1 27:-1 28:-1 29:-1 30:-1 32:-1 33:-1 34:-1 35:-1 37:-1 38:-1 39:1 40:1 41:-1 42:-1 43:-1 44:1 47:-1 48:-1 
3.425739248918573 0 1:1 2:-1 3:1 4:-1 5:-1 6:-1 7:-1 8:-1 9:-1 10:-1 11:-1 12:-1 13:-1 14:-1 15:-1 16:-1 17:-1 18:-1 19:-1 20:-1 21:-1 22:1 24:-1 25:-1 26:-1 27:-1 28:-1 29:-1 30:-0.957447 32:1 33:-1 34:-1 35:-1 37:-1 38:-1 39:-1 40:1 41:-1 42:-1 43:-1 44:-1 46:0.5 47:-1 48:-1 
32 8.027568427916757 1:-0.8 2:-1 3:1 4:-1 5:-1 6:-1 7:-1 8:-1 9:-1 10:-1 11:-1 12:-1 13:-1 14:-1 15:-0.6 16:-0.8 17:-1 18:-1 19:-1 20:-1 21:-1 22:0.2 24:-1 25:-1 26:-1 27:-1 28:-1 29:-1 30:-0.829787 32:-1 33:-1 34:-1 35:-1 37:-1 38:-1 39:1 40:0.5 41:-1 42:-1 43:-1 44:-1 45:0.25 46:0.25 47:-1 48:-1 
0 27.59964830869194 1:-0.058824 2:-0.764706 3:-0.058824 4:-0.647058 5:-1 6:-1 7:-0.764706 8:-1 9:-1 10:-1 11:-0.764706 12:-1 13:-1 14:-0.647058 15:-0.647058 16:-1 17:-1 18:-1 19:-1 20:-1 21:-1 22:-0.647058 24:-1 25:-1 26:-1 27:-1 28:-1 29:-1 30:0.446808 32:-1 33:-1 34:-1 35:-1 37:-1 38:-1 39:1 40:-0.315218 41:-1 42:1 43:-1 44:-1 45:-0.532609 46:-0.0326087 47:-1 48:-1 
2.11581519918748 0 1:1 2:1 3:1 4:-1 5:-1 6:-1 7:-1 8:-1 9:-1 10:-1 11:-1 12:-1 13:-1 14:-1 15:-1 16:-1 17:-1 18:-1 19:-1 20:-1 21:-1 22:1 24:-1 25:-1 26:-1 27:-1 28:1 29:-1 30:-1 32:1 33:-1 34:-1 35:-1 37:-1 38:-1 39:-1 40:1 41:-1 42:-1 43:-1 44:1 47:-1 48:-1 
0 3.611163299264623 1:-1 2:-1 4:-1 5:-1 6:-1 7:-1 8:-1 9:-1 10:-1 11:-1 12:-1 13:-1 14:-1 15:-1 16:-1 17:-1 18:-1 19:-1 20:-1 21:-1 22:-1 24:-1 25:-1 26:-1 27:-1 28:-1 29:-1 30:-0.949749 32:-1 33:-1 34:-1 35:-1 37:-1 38:-1 39:1 40:0.25 41:1 42:-1 43:1 44:-1 47:-1 48:-1 
1.601930095057329 0 1:-1 2:-1 3:-1 4:-1 5:-1 6:-1 7:-1 8:-1 9:-1 10:-1 11:-1 12:-1 13:-1 14:-1 15:-1 16:-1 17:-1 18:-1 19:-1 20:-1 21:-1 22:-1 24:-1 25:-1 26:-1 27:-1 28:-1 29:-1 30:-0.993311 32:-1 33:-1 34:-1 35:-1 37:-1 38:-1 39:1 40:1 41:-1 42:1 43:-1 44:1 45:0.1875 46:0.0625 47:-1 48:-1 
0 32 1:-0.25 2:-0.75 3:-0.25 4:-0.75 5:-1 6:-1 7:-0.75 8:-1 9:-1 10:-1 11:-0.75 12:-1 13:-1 14:-0.5 15:-1 16:-0.75 17:-1 18:-1 19:-1 20:-1 21:-1 22:-1 24:-1 25:-1 26:-1 27:-1 28:-1 29:-1 30:-0.93311 32:-1 33:-1 34:-1 35:-1 37:-1 38:-1 39:1 40:-0.4 41:-1 42:-1 43:-1 44:-1 47:-1 48:-1 
0.3902032673827178 0 1:-1 2:-1 3:1 4:-1 5:-1 6:-1 7:-1 8:-1 9:-1 10:-1 11:-1 12:-1 13:-1 14:-1 15:-1 16:-1 17:-1 18:-1 19:-1 20:-1 21:-1 22:1 24:-1 25:-1 26:-1 27:-1 28:1 29:-1 30:-1 32:-1 33:-1 34:-1 35:-1 37:-1 38:-1 39:-1 40:0.31579 41:-1 42:-1 43:-1 44:1 46:-0.342105 47:-1 48:-1 
0 32 1:-0.454546 2:-1 3:-0.272728 4:-0.454546 5:-1 6:-0.818182 7:-1 8:-1 9:-1 10:-1 11:-1 12:-1 13:-1 14:-0.818182 15:-0.454546 16:-1 17:-1 18:-1 19:-1 20:-1 21:-1 22:-0.818182 24:-1 25:-1 26:-1 27:-1 28:-0.636364 29:-0.818182 30:-0.821229 32:-1 33:-1 34:-1 35:-1 37:-1 38:-1 39:1 41:-1 42:-1 43:-1 44:-1 47:-1 48:-1 
0 28.05017542374099 1:-0.666666 2:-1 3:0.666666 4:-1 5:-1 6:-1 7:-1 8:-1 9:-1 10:-1 11:-0.666666 12:-1 13:-1 14:-1 15:-0.333334 16:-1 17:-1 18:-1 19:-1 20:-1 21:-1 22:-0.333334 24:-1 25:-1 26:-1 27:-1 28:-1 29:-1 30:-0.564246 32:-1 33:-1 34:-1 35:-1 37:-1 38:-1 39:1 41:-1 42:-1 43:-1 44:-1 47:-1 48:-1 
1.216874223057937 0 1:-0.714286 2:-0.714286 3:0.714286 4:-1 5:-1 6:-1 7:-0.714286 8:-1 9:-1 10:-1 11:-0.714286 12:-1 13:-1 14:-1 15:-0.714286 16:-1 17:-1 18:-1 19:-1 20:-1 21:-1 22:0.428572 24:-1 25:-1 26:-1 27:-1 28:-1 29:-1 30:-0.307262 32:-1 33:-1 34:-1 35:-1 37:-1 38:-1 39:1 41:-1 42:-1 43:1 44:-1 46:0.166667 47:-1 48:-1 
4.324616342782142 32 2:-1 4:-1 5:-1 6:-1 7:-1 8:-1 9:-1 10:-1 11:-1 12:-1 13:-1 14:-1 15:-0.5 16:-1 17:-1 18:-1 19:-1 20:-1 21:-1 22:-1 24:-1 25:-1 26:-1 27:-1 28:-1 29:-1 30:-0.967568 32:-1 33:-1 34:-1 35:-1 37:-1 38:-1 39:1 40:0.428572 41:-1 42:1 43:1 44:-1 45:-0.285714 47:-1 48:-1 
4.062756002939187 0 1:0.2 2:-1 3:0.6 4:-1 5:-1 6:-1 7:-1 8:-1 9:-1 10:-1 11:-1 12:-1 13:-1 14:-0.8 15:-0.6 16:-0.8 17:-1 18:-1 19:-1 20:-1 21:-1 22:-0.4 24:-1 25:-1 26:-1 27:-1 28:-1 29:-1 30:-0.019608 32:-1 33:-1 34:-1 35:-1 37:-1 38:-1 39:1 41:-1 42:-1 43:-1 44:-1 45:0.5 47:-1 48:-1 
32 0 2:-1 3:1 4:-1 5:-1 6:-1 7:-1 8:-1 9:-1 10:-1 11:-1 12:-1 13:-1 14:-1 15:-1 16:-1 17:-1 18:-1 19:-1 20:-1 21:-1 22:1 24:-1 25:-1 26:-1 27:-1 28:-1 29:-1 30:-0.971564 32:-1 33:-1 34:-1 35:-1 37:-1 38:-1 39:-1 40:0.272728 41:-1 42:-1 43:-1 44:1 45:0.136364 46:-0.363636 47:-1 48:-1 
0 32 1:-1 2:-1 3:-0.333334 4:-1 5:-1 6:-1 7:-1 8:-1 9:-1 10:-1 11:-1 12:-1 13:-1 14:-0.333334 15:-1 16:-1 17:-1 18:-1 19:-1 20:-1 21:-1 22:-0.333334 24:-1 25:-1 26:-1 27:-1 28:-1 29:-1 30:-0.961353 32:-1 33:-1 34:-1 35:-1 37:-1 38:-1 39:1 40:0.333334 41:-1 42:1 43:1 44:-1 45:-0.333333 46:-0.0598958 47:-1 48:-1 
0 4.859498351764697 1:-0.333334 2:-0.666666 3:-0.333334 4:-0.333334 5:-0.833333 6:-1 7:-0.666666 8:-1 9:-1 10:-0.833333 11:-1 12:-1 13:-1 14:-1 15:-1 16:-1 17:-1 18:-1 19:-1 20:-1 21:-1 22:-0.666666 24:-1 25:-1 26:-1 27:-1 28:-1 29:-1 30:-1 32:-1 33:-1 34:-1 35:-1 37:-1 38:-1 39:1 40:-0.4 41:-1 42:-1 43:-1 44:-1 47:-1 48:1 
2.077096185310195 0 1:1 2:1 3:1 4:-1 5:-1 6:-1 7:0.833334 8:-1 9:-1 10:-1 11:-1 12:-1 13:-1 14:-1 15:-1 16:-1 17:-1 18:-1 19:-1 20:-1 21:-1 22:0.833334 24:-1 25:-1 26:-1 27:-1 28:-1 29:-1 30:-0.981651 32:1 33:-1 34:-1 35:-1 37:-1 38:-1 39:1 41:-1 42:-1 43:1 44:-1 45:0.2 47:-1 48:1 
0.5505143772264123 0 1:0.666666 2:-0.333334 3:1 4:-1 5:-1 6:-1 7:-0.333334 8:-1 9:-1 10:-1 11:-1 12:-1 13:-1 14:-1 15:-1 16:-1 17:-1 18:-1 19:-1 20:-1 21:-1 22:0.333334 24:-1 25:-1 26:-1 27:-1 28:-1 29:-1 30:-0.697248 32:-1 33:-1 34:-1 35:-1 37:-1 38:-1 39:1 41:-1 42:-1 43:-1 44:-1 47:1 48:-1 
0 5.545667357696285 1:0.5 2:-0.5 3:0.5 4:-1 5:-1 6:-1 7:-0.5 8:-1 9:-1 10:-1 11:-1 12:-1 13:-1 14:-1 15:-1 16:-1 17:-1 18:-1 19:-1 20:-1 21:-1 22:-0.5 24:-1 25:-1 26:-1 27:-1 28:-1 29:1 30:-0.929577 32:-1 33:-1 34:-1 35:-1 37:-1 38:-1 39:1 40:-0.5 41:-1 42:-1 43:-1 44:-1 45:0.25 47:-1 48:-1 
0 32 1:0.333334 2:-1 3:0.333334 4:-1 5:-1 6:-1 7:-1 8:-1 9:-1 10:-1 11:-1 12:-1 13:-1 14:-1 15:-0.333334 16:-1 17:-1 18:-1 19:-1 20:-1 21:-1 22:-1 24:-1 25:-1 26:-1 27:-1 28:-1 29:1 30:-0.875 32:-1 33:-1 34:-1 35:-1 37:-1 38:-1 39:1 41:-1 42:1 43:-1 44:-1 45:-0.5 47:-1 48:-1 
0 3.108930942564503 1:-0.142858 2:-1 3:0.714286 4:-1 5:-1 6:-1 7:-1 8:-1 9:-1 10:-1 11:-1 12:-1 13:-1 14:-0.714286 15:-0.714286 16:-0.714286 17:-1 18:-1 19:-1 20:-1 21:-1 22:0.142858 24:-1 25:-1 26:-1 27:-1 28:1 29:-1 30:0.003278 32:-1 33:-1 34:-1 35:-1 37:-1 38:-1 39:1 40:0.071428 41:-1 42:-1 43:-1 44:-1 45:-0.345238 47:1 48:-1 
14.8204379894942 0 1:0.5 2:-1 3:1 4:-1 5:-1 6:-1 7:-1 8:-1 9:-1 10:-1 11:-1 12:-1 13:-1 14:-0.5 15:-1 16:-1 17:-1 18:-1 19:-1 20:-1 21:-1 22:1 24:-1 25:-1 26:-1 27:-1 28:-1 29:-1 30:-0.824074 32:-1 33:-1 34:-1 35:-1 37:-1 38:-1 39:-1 40:0.333334 41:-1 42:-1 43:-1 44:-1 45:0.166667 46:0.166667 47:-1 48:1 
32 0 1:0.5 2:-1 3:1 4:-1 5:-1 6:-1 7:-1 8:-1 9:-1 10:-1 11:-1 12:-1 13:-1 14:-1 15:-1 16:-1 17:-1 18:-1 19:-1 20:-1 21:-1 22:1 24:-1 25:-1 26:-1 27:-1 28:-1 29:-1 30:-0.939394 32:-1 33:-1 34:-1 35:-1 37:-1 38:-1 39:-1 40:1 41:-1 42:-1 43:-1 44:-1 45:1 46:0.416667 47:-1 48:-1 
0 11.70654443094598 1:-0.636364 2:-1 3:0.09091 4:-1 5:-1 6:-1 7:-1 8:-1 9:-1 10:-0.818182 11:-0.818182 12:-0.818182 13:-1 14:-1 15:-1 16:-1 17:-1 18:-1 19:-1 20:-1 21:-1 22:0.09091 24:-0.818182 25:-1 26:-1 27:-1 28:-1 29:-1 30:-0.757576 32:-1 33:-1 34:-1 35:-1 37:-1 38:-1 39:1 41:1 42:-1 43:-1 44:-1 46:0.5 47:-1 48:-1 
0 32 1:-0.2 2:-0.6 3:0.6 4:-1 5:-1 6:-1 7:-1 8:-1 9:-1 10:-1 11:-0.6 12:-1 13:-1 14:-1 15:-0.6 16:-0.6 17:-1 18:-1 19:-1 20:-1 21:-1 22:-1 24:-1 25:-1 26:-1 27:-1 28:-1 29:0.2 30:-0.272728 32:-1 33:-1 34:-1 35:-1 37:-1 38:-1 39:1 41:-1 42:-1 43:-1 44:-1 46:-0.0833333 47:-1 48:-1 
0 32 1:-1 2:-1 3:-0.333334 4:-0.333334 5:-1 6:-1 7:-1 8:-1 9:-1 10:-1 11:-1 12:-1 13:-1 14:-1 15:-0.333334 16:-1 17:-1 18:-1 19:-1 20:-1 21:-1 22:-1 24:-1 25:-1 26:-1 27:-1 28:-1 29:-1 30:-0.944444 32:-1 33:-1 34:-1 35:-1 37:-1 38:-1 39:1 40:-0.015624 41:-1 42:-1 43:1 44:-1 45:-0.0390625 46:-0.0222356 47:-1 48:-1 
0 0.4072009509430304 1:-0.2 2:-0.866667 3:0.066666 4:-0.6 5:-1 6:-1 7:-1 8:-1 9:-1 10:-1 11:-0.866667 12:-1 13:-1 14:-0.466666 15:-0.866667 16:-0.866667 17:-1 18:-1 19:-1 20:-1 21:-1 22:-0.466666 24:-1 25:-1 26:-1 27:-1 28:-1 29:-1 30:-0.632432 32:-1 33:-1 34:-1 35:-1 37:-1 38:-1 39:1 41:-1 42:-1 43:-1 44:-1 47:-1 48:-1 
0 11.13132423903887 1:-0.333334 2:-0.333334 3:-0.333334 4:-0.666666 5:-1 6:-1 7:-0.666666 8:-1 9:-1 10:-1 11:-0.666666 12:-1 13:-1 14:-0.666666 15:-1 16:-1 17:-1 18:-1 19:-1 20:-1 21:-1 22:-0.333334 24:-1 25:-1 26:-1 27:-1 28:0.666666 29:-1 30:-0.950311 32:-1 33:-1 34:-1 35:-1 37:-1 38:-1 39:1 40:-0.114286 41:-1 42:1 43:1 44:-1 45:-0.557143 46:-0.0397516 47:-1 48:-1 
0 11.24588826344424 1:-0.5 2:-0.5 3:-0.5 4:-0.5 5:-1 6:-1 7:-1 8:-1 9:-1 10:-1 11:-1 12:-1 13:-1 14:-0.5 15:-1 16:-1 17:-1 18:-1 19:-1 20:-1 21:-1 22:-1 24:-1 25:-1 26:-1 27:-1 28:0.5 29:-1 30:-0.925466 32:-1 33:-1 34:-1 35:-1 37:-1 38:-1 39:1 40:-0.133334 41:1 42:-1 43:-1 44:-1 45:-0.0492754 46:-0.0666667 47:-1 48:1 
0 2.009550809290764 2:-1 3:-1 4:-1 5:-1 6:-1 7:-1 8:-1 9:-1 10:-1 11:-1 12:-1 13:-1 14:-1 15:-1 16:-1 17:-1 18:-1 19:-1 20:-1 21:-1 22:-1 24:-1 25:-1 26:-1 27:-1 28:1 29:-1 30:-0.888199 32:-1 33:-1 34:-1 35:-1 37:-1 38:-1 39:1 41:-1 42:-1 43:-1 44:-1 45:0.4 47:-1 48:-1 
2.111174803916887 0 1:0.5 2:0.5 3:0.5 4:-1 5:-1 6:-1 7:-0.5 8:-1 9:-1 10:-1 11:-0.5 12:-1 13:-1 14:-1 15:-0.5 16:-1 17:-1 18:-1 19:-1 20:-1 21:-1 24:-1 25:-1 26:-1 27:-1 28:1 29:-1 30:-0.863354 32:-1 33:-1 34:-1 35:-1 37:-1 38:-1 39:1 40:-0.225 41:-1 42:-1 43:-1 44:-1 45:-0.1125 46:0.3875 47:-1 48:-1 
0 0.6511487304366295 1:-1 2:-1 4:-1 5:-1 6:-1 7:-1 8:-1 9:-1 10:-1 11:-0.5 12:-1 13:-1 14:-1 15:-0.5 16:-1 17:-1 18:-1 19:-1 20:-1 21:-1 22:-1 24:-1 25:-1 26:-1 27:-1 28:1 29:-1 30:0.043478 32:-1 33:-1 34:-1 35:-1 37:-1 38:-1 39:1 40:-0.2 41:-1 42:-1 43:-1 44:-1 46:0.1 47:-1 48:-1 
0 22.34657548014746 1:0.5 2:-1 3:0.5 4:-1 5:-1 6:-1 7:-1 8:-1 9:-1 10:-1 11:-1 12:-1 13:-1 14:-1 15:-1 16:-1 17:-1 18:-1 19:-1 20:-1 21:-1 22:-1 24:-1 25:-1 26:-1 27:-1 28:-1 29:-1 30:-1 32:-1 33:-1 34:-1 35:-1 37:-1 38:-1 39:1 40:0.17647 41:-1 42:-1 43:-1 44:-1 46:0.143791 47:-1 48:-1 
7.635102439163126 0 1:-0.333334 2:-1 3:-1 4:-0.333334 5:-0.333334 6:-1 7:-1 8:-1 9:-1 10:-1 11:-1 12:-1 13:-1 14:-1 15:-1 16:-1 17:-1 18:-1 19:-1 20:-1 21:-1 22:-1 24:-1 25:-1 26:-1 27:-1 28:-1 29:-1 30:-0.960784 32:-1 33:-1 34:-1 35:-1 37:-1 38:-1 39:1 40:-0.111112 41:-1 42:-1 43:1 44:-1 46:-0.0715842 47:-1 48:1 
0 32 2:-1 3:0.2 4:-0.8 5:-1 6:-1 7:-1 8:-1 9:-1 10:-1 11:-1 12:-1 13:-1 14:-0.8 15:-1 16:-1 17:-1 18:-1 19:-1 20:-1 21:-1 22:-0.8 24:-1 25:-1 26:-1 27:-1 28:-1 29:-1 30:-0.908497 32:-1 33:-1 34:-1 35:-1 37:-1 38:-1 39:1 40:0.05475 41:-1 42:-1 43:-1 44:-1 45:-0.00203656 46:0.0829308 47:-1 48:-1 
0 4.504953478507332 1:1 2:-1 3:1 4:-1 5:-1 6:-1 7:-1 8:-1 9:-1 10:-1 11:-1 12:-1 13:-1 14:-1 15:-1 16:-1 17:-1 18:-1 19:-1 20:-1 21:-1 22:-1 24:-1 25:-1 26:-1 27:-1 28:-1 29:-1 30:-0.895425 32:1 33:-1 34:-1 35:-1 37:-1 38:-1 39:1 40:-0.111112 41:-1 42:-1 43:-1 44:-1 45:-0.0829308 47:-1 48:1 
0 32 1:0.2 2:-0.6 3:0.2 4:-1 5:-1 6:-1 7:-0.6 8:-1 9:-1 10:-1 11:-0.6 12:-1 13:-1 14:-0.6 15:-1 16:-1 17:-1 18:-1 19:-1 20:-1 21:-1 22:-0.6 24:-1 25:-1 26:-1 27:-1 28:-1 29:-1 30:-0.882353 32:-1 33:-1 34:-1 35:-1 37:-1 38:-1 39:1 40:-0.111112 41:-1 42:-1 43:-1 44:-1 47:-1 48:1 
0 1.025963772923681 2:-0.666666 3:0.333334 4:-1 5:-1 6:-1 7:-0.666666 8:-1 9:-1 10:-1 11:-0.666666 12:-1 13:-1 14:-0.666666 15:-1 16:-1 17:-0.666666 18:-1 19:-1 20:-1 21:-1 22:-0.333334 24:-1 25:-1 26:-1 27:-1 28:-1 29:-1 30:-0.869281 32:-1 33:-1 34:-1 35:-1 37:-1 38:-1 39:1 40:-0.111112 41:-1 42:-1 43:-1 44:-1 47:-1 48:1 
0 32 1:0.2 2:-0.6 3:0.2 4:-1 5:-1 6:-1 7:-0.6 8:-1 9:-1 10:-1 11:-0.6 12:-1 13:-1 14:-0.6 15:-1 16:-0.6 17:-1 18:-1 19:-1 20:-1 21:-1 22:-0.6 24:-1 25:-1 26:-1 27:-1 28:-1 29:-1 30:-0.830065 32:-1 33:-1 34:-1 35:-1 37:-1 38:-1 39:1 40:-0.111112 41:-1 42:-1 43:-1 44:-1 47:-1 48:-1 
0 19.85059053089391 1:-0.166666 2:-1 3:0.333334 4:-1 5:-1 6:-1 7:-1 8:-1 9:-1 10:-1 11:-1 12:-1 13:-1 14:-0.666666 15:-0.833333 16:-1 17:-0.833333 18:-1 19:-1 20:-1 21:-1 22:-1 24:-1 25:-1 26:-1 27:-1 28:-1 29:-1 30:0.803922 32:-1 33:-1 34:-1 35:-1 37:-1 38:-1 39:1 41:-1 42:-1 43:-1 44:-1 47:-1 48:-1 
0 32 1:0.5 2:-1 3:0.5 4:-1 5:-1 6:-1 7:-1 8:-1 9:-1 10:-1 11:-1 12:-1 13:-1 14:-1 15:-1 16:-1 17:-1 18:-1 19:-1 20:-1 21:-1 22:-1 24:-1 25:-1 26:-1 27:-1 28:-1 29:-1 30:-1 32:-1 33:-1 34:-1 35:-1 37:-1 38:-1 39:1 40:0.166666 41:-1 42:-1 43:-1 44:-1 46:0.25 47:-1 48:-1 
17.35601618898984 32 2:-1 4:-0.5 5:-1 6:-1 7:-1 8:-1 9:-1 10:-0.5 11:-1 12:-1 13:-1 14:-1 15:-1 16:-1 17:-1 18:-1 19:-1 20:-1 21:-1 22:-1 24:-1 25:-1 26:-1 27:-1 28:-1 29:-1 30:-0.767442 32:-1 33:-1 34:-1 35:-1 37:-1 38:-1 39:1 40:0.5 41:-1 42:1 43:-1 44:-1 45:-0.25 46:0.194444 47:-1 48:-1 
2.252821227807896 0 1:0.333334 2:-1 3:1 4:-1 5:-1 6:-1 7:-1 8:-1 9:-1 10:-1 11:-1 12:-1 13:-1 14:-1 15:-1 16:-1 17:-0.333334 18:-1 19:-1 20:-1 21:-1 22:-1 24:-1 25:-1 26:-1 27:-1 28:-1 29:-1 30:0.61628 32:-1 33:-1 34:-1 35:-1 37:-1 38:-1 39:1 40:0.111112 41:-1 42:-1 43:-1 44:-1 45:-0.388889 46:0.0555556 47:1 48:-1 
17.86096146574245 0 1:1 2:-1 3:-1 4:-1 5:-1 6:-1 7:-1 8:-1 9:-1 10:-1 11:-1 12:-1 13:-1 14:-1 15:-1 16:-1 17:-1 18:-1 19:-1 20:-1 21:-1 22:-1 24:-1 25:-1 26:-1 27:-1 28:-1 29:-1 30:0.976744 32:-1 33:-1 34:-1 35:-1 37:-1 38:-1 39:1 41:-1 42:-1 43:-1 44:-1 46:-0.0833333 47:-1 48:-1 
0 0.490025252289118 1:-1 2:-1 3:-1 4:-1 5:-1 6:-1 7:-1 8:-1 9:-1 10:-1 11:-1 12:1 13:-1 14:-1 15:-1 16:-1 17:-1 18:-1 19:-1 20:-1 21:-1 22:-1 24:-1 25:-1 26:-1 27:-1 28:-1 29:-1 30:-0.92233 32:-1 33:-1 34:-1 35:-1 37:-1 38:-1 39:1 41:-1 42:-1 43:1 44:-1 45:0.0454545 46:0.0416667 47:-1 48:-1 
0 32 1:0.142858 2:-0.714286 3:0.142858 4:-1 5:-1 6:-1 7:-1 8:-1 9:-1 10:-1 11:-0.714286 12:-1 13:-1 14:-0.714286 15:-0.428572 16:-1 17:-1 18:-1 19:-1 20:-1 21:-1 22:-0.714286 24:-1 25:-0.714286 26:-1 27:-1 28:-1 29:-1 30:-0.669902 32:-1 33:-1 34:-1 35:-1 37:-1 38:-1 39:1 41:-1 42:-1 43:-1 44:-1 46:0.5 47:-1 48:-1 
0 11.403034721448 2:-1 4:-1 5:-1 6:-1 7:-1 8:-1 9:-1 10:-1 11:-0.5 12:-1 13:-1 14:-0.5 15:-1 16:-1 17:-1 18:-1 19:-1 20:-1 21:-1 22:-1 24:-1 25:-0.5 26:-1 27:-1 28:-1 29:-1 30:-0.965909 32:-1 33:-1 34:-1 35:-1 37:-1 38:-1 39:1 40:0.4 41:-1 42:-1 43:-1 44:-1 45:0.7 47:-1 48:-1 
9.187909201998012 0 1:0.333334 2:-1 3:0.333334 4:-0.333334 5:-1 6:-1 7:-1 8:-1 9:-1 10:-1 11:-1 12:-1 13:-1 14:-1 15:-1 16:-1 17:-1 18:-1 19:-1 20:-1 21:-1 22:0.333334 24:-1 25:-1 26:-1 27:-1 28:-1 29:-1 30:0.056818 32:-1 33:-1 34:-1 35:-1 37:-1 38:-1 39:1 40:0.4 41:-1 42:-1 43:-1 44:-1 45:0.2 46:0.2 47:-1 48:-1 
27.69227600669182 0 1:-0.793104 2:-0.793104 3:0.931034 4:-1 5:-1 6:-1 7:-0.793104 8:-1 9:-1 10:-1 11:-1 12:-1 13:-1 14:-1 15:-1 16:-1 17:-1 18:-1 19:-1 20:-1 21:-1 22:0.931034 24:-1 25:-1 26:-1 27:-1 28:-1 29:-0.37931 30:-0.944444 32:-1 33:-1 34:-1 35:-1 37:-1 38:-1 39:1 40:0.666666 41:-1 42:-1 43:-1 44:1 45:0.833333 46:-0.166667 47:-1 48:-1 
0 9.835942043678747 1:-1 2:-1 4:-1 5:-1 6:-1 7:-1 8:-1 9:-1 10:-1 11:-0.5 12:-1 13:-1 14:-0.5 15:-0.5 16:-1 17:-1 18:-1 19:-1 20:-1 21:-1 22:-0.5 24:-1 25:-1 26:-1 27:-1 28:-1 29:-1 30:-0.825397 32:-1 33:-1 34:-1 35:-1 37:-1 38:-1 39:1 40:-0.25 41:-1 42:-1 43:-1 44:-1 46:0.0714286 47:-1 48:1 
3.399418757481647 0 1:-1 2:-1 3:1 4:-1 5:-1 6:-1 7:-1 8:-1 9:-1 10:-1 11:-1 12:-1 13:-1 15:-1 16:-1 17:-1 18:-1 19:-1 20:-1 21:-1 22:1 24:-1 25:-1 26:-1 27:-1 28:-1 29:-1 30:1 32:-1 33:-1 34:-1 35:-1 37:-1 38:-1 39:-1 41:-1 42:-1 43:-1 44:-1 47:-1 48:-1 
4.752055666211347 0 2:-1 3:1 4:-1 5:-1 6:-1 7:-1 8:-1 9:-1 10:-1 11:-1 12:-1 13:-1 14:-1 15:-1 16:-1 17:-1 18:-1 19:-1 20:-1 21:-1 24:-1 25:-1 26:-1 27:-1 28:-1 29:-1 30:0.71282 32:-1 33:-1 34:-1 35:-1 37:-1 38:-1 39:1 41:-1 42:-1 43:-1 44:-1 45:0.375 46:0.375 47:-1 48:-1 
0 22.43351256798946 1:-0.142858 2:-1 3:0.142858 4:-0.714286 5:-1 6:-1 7:-1 8:-1 9:-1 10:-1 11:-1 12:-1 13:-1 14:-0.428572 15:-0.714286 16:-1 17:-1 18:-1 19:-1 20:-1 21:-1 22:-0.142858 24:-1 25:-1 26:-1 27:-1 28:-1 29:-1 30:-0.518518 32:-1 33:-1 34:-1 35:-1 37:-1 38:-1 39:1 41:-1 42:-1 43:-1 44:-1 47:-1 48:1 
0 32 1:0.333334 2:-0.333334 3:0.333334 4:-1 5:-1 6:-1 7:-1 8:-1 9:-1 10:-1 11:-1 12:-1 13:-1 14:-0.333334 15:-0.333334 16:-1 17:-1 18:-1 19:-1 20:-1 21:-1 22:-1 24:-1 25:-1 26:-1 27:-1 28:-1 29:-1 30:0.12963 32:-1 33:-1 34:-1 35:-1 37:-1 38:-1 39:1 41:-1 42:-1 43:-1 44:-1 47:-1 48:-1 
12.27620370140739 0 1:-1 2:-1 3:1 4:-1 5:-1 6:-1 7:-1 8:-1 9:-1 10:-1 11:-1 12:-1 13:-1 14:-1 15:-1 16:-1 17:-1 18:-1 19:-1 20:-1 21:-1 22:1 24:-1 25:-1 26:-1 27:-1 28:-1 29:-1 30:-1 32:-1 33:-1 34:-1 35:-1 37:-1 38:-1 39:-1 40:0.75 41:-1 42:-1 43:-1 44:-1 46:0.208333 47:-1 48:-1 
23.17872115575508 32 1:-0.333334 2:-1 3:0.5 4:-1 5:-1 6:-1 7:-1 8:-1 9:-1 10:-1 11:-0.833333 12:-1 13:-1 14:-1 15:-1 16:-0.833333 17:-1 18:-1 19:-1 20:-1 21:-1 22:0.166666 24:-1 25:-1 26:-1 27:-1 28:-1 29:-1 30:-0.997286 32:-1 33:-1 34:-1 35:-1 37:-1 38:-1 39:1 40:0.333334 41:-1 42:1 43:-1 44:-1 45:-0.208333 46:0.00617284 47:-1 48:-1 
0 32 1:-0.428572 2:-1 3:0.571428 4:-0.857143 5:-1 6:-1 7:-1 8:-1 9:-1 10:-1 11:-0.857143 12:-1 13:-1 14:-0.857143 15:-0.714286 16:-1 17:-1 18:-1 19:-1 20:-1 21:-1 22:0.142858 24:-1 25:-1 26:-1 27:-1 28:-1 29:-1 30:-0.94844 32:-1 33:-1 34:-1 35:-1 37:-1 38:-1 39:1 40:0.333334 41:-1 42:-1 43:-1 44:-1 46:0.00574713 47:-1 48:-1 
0 32 1:-0.36 2:-0.76 3:-0.2 4:-0.68 5:-0.92 6:-0.92 7:-0.76 8:-1 9:-1 10:-1 11:-0.52 12:-1 13:-1 14:-0.84 15:-1 16:-0.92 17:-1 18:-1 19:-1 20:-1 21:-1 22:-0.6 24:-1 25:-1 26:-1 27:-1 28:-1 29:-1 30:-0.932157 32:-1 33:-1 34:-1 35:-1 37:-1 38:-1 39:1 41:-1 42:-1 43:1 44:-1 47:-1 48:-1 
0 32 1:-0.25 2:-0.75 3:-0.25 4:-0.75 5:-1 6:-1 7:-0.75 8:-1 9:-1 10:-1 11:-0.5 12:-1 13:-1 14:-0.5 15:-1 16:-1 17:-1 18:-1 19:-1 20:-1 21:-1 22:-0.75 24:-1 25:-1 26:-1 27:-1 28:-1 29:-1 30:-0.929444 32:-1 33:-1 34:-1 35:-1 37:-1 38:-1 39:1 41:-1 42:-1 43:-1 44:-1 47:-1 48:-1 
0 32 1:-0.133334 2:-0.533334 3:-0.066666 4:-0.933333 5:-1 6:-1 7:-0.533334 8:-1 9:-1 10:-1 11:-0.666666 12:-1 13:-1 14:-0.6 15:-1 16:-0.866667 17:-1 18:-1 19:-1 20:-1 21:-1 22:-0.333334 24:-1 25:-1 26:-1 27:-1 28:-1 29:-1 30:-0.92673 32:-1 33:-1 34:-1 35:-1 37:-1 38:-1 39:1 41:1 42:-1 43:-1 44:-1 47:-1 48:-1 
0 32 1:-0.304348 2:-0.652174 3:0.130434 4:-0.913043 5:-1 6:-1 7:-0.652174 8:-1 9:-1 10:-1 11:-0.565218 12:-1 13:-1 14:-0.652174 15:-0.913043 16:-0.826087 17:-1 18:-1 19:-1 20:-1 21:-1 22:-0.217392 24:-1 25:-1 26:-1 27:-1 28:-1 29:-1 30:-0.913161 32:-1 33:-1 34:-1 35:-1 37:-1 38:-1 39:1 41:-1 42:-1 43:-1 44:-1 47:-1 48:-1 
0 32 1:-0.419354 2:-0.741936 3:0.16129 4:-0.935484 5:-1 6:-1 7:-0.741936 8:-1 9:-1 10:-1 11:-0.612904 12:-1 13:-1 14:-0.741936 15:-0.870968 16:-0.870968 17:-1 18:-1 19:-1 20:-1 21:-1 22:-0.225806 24:-1 25:-1 26:-1 27:-1 28:-1 29:-1 30:-0.90502 32:-1 33:-1 34:-1 35:-1 37:-1 38:-1 39:1 41:-1 42:-1 43:-1 44:-1 47:-1 48:-1 
0 32 1:-0.333334 2:-0.62963 3:0.111112 4:-0.925926 5:-1 6:-1 7:-0.62963 8:-1 9:-1 10:-1 11:-0.407408 12:-1 13:-1 14:-0.703704 15:-0.925926 16:-0.851852 17:-1 18:-1 19:-1 20:-1 21:-1 22:-0.25926 24:-1 25:-1 26:-1 27:-1 28:-1 29:-1 30:-0.899593 32:-1 33:-1 34:-1 35:-1 37:-1 38:-1 39:1 41:-1 42:-1 43:-1 44:-1 47:-1 48:-1 
0 14.60596689169513 1:-0.310344 2:-0.586206 3:0.103448 4:-0.931034 5:-1 6:-1 7:-0.586206 8:-1 9:-1 10:-1 11:-0.586206 12:-1 13:-1 14:-0.655172 15:-0.931034 16:-0.931034 17:-1 18:-1 19:-1 20:-1 21:-1 22:-0.103448 24:-1 25:-1 26:-1 27:-1 28:-1 29:-1 30:-0.888738 32:-1 33:-1 34:-1 35:-1 37:-1 38:-1 39:1 41:-1 42:-1 43:-1 44:-1 47:-1 48:-1 
0 21.05644834751155 1:-0.368422 2:-1 3:-0.157894 4:-0.578948 5:-0.68421 6:-0.894737 7:-1 8:-1 9:-1 10:-1 11:-0.68421 12:-1 13:-1 14:-0.894737 15:-0.894737 16:-1 17:-1 18:-1 19:-1 20:-1 21:-1 22:-0.789474 24:-1 25:-1 26:-1 27:-1 28:-1 29:-1 30:-0.850746 32:-1 33:-1 34:-1 35:-1 37:-1 38:-1 39:1 41:-1 42:-1 43:1 44:-1 47:-1 48:1 
0 32 1:-0.142858 2:-0.428572 3:0.142858 4:-1 5:-1 6:-1 7:-0.428572 8:-1 9:-1 10:-1 11:-0.714286 12:-1 13:-1 14:-0.428572 15:-1 16:-1 17:-1 18:-1 19:-1 20:-1 21:-1 22:-0.714286 24:-1 25:-1 26:-1 27:-1 28:-1 29:-1 30:-0.848033 32:-1 33:-1 34:-1 35:-1 37:-1 38:-1 39:1 41:-1 42:-1 43:-1 44:-1 47:-1 48:1 
0 32 1:-0.272728 2:-0.636364 3:0.454546 4:-1 5:-1 6:-1 7:-0.636364 8:-1 9:-1 10:-1 11:-0.818182 12:-1 13:-1 14:-0.636364 15:-1 16:-1 17:-0.818182 18:-1 19:-1 20:-1 21:-1 22:-0.272728 24:-1 25:-1 26:-1 27:-1 28:-1 29:-1 30:-0.845319 32:-1 33:-1 34:-1 35:-1 37:-1 38:-1 39:1 41:1 42:-1 43:-1 44:-1 47:-1 48:-1 
0 32 1:-0.2 2:-0.542858 3:-0.028572 4:-0.942857 5:-1 6:-0.942857 7:-0.542858 8:-1 9:-1 10:-1 11:-0.657142 12:-1 13:-1 14:-0.6 15:-0.885714 16:-1 17:-1 18:-1 19:-1 20:-1 21:-1 22:-0.371428 24:-1 25:-1 26:-1 27:-1 28:-1 29:-1 30:-0.818182 32:-1 33:-1 34:-1 35:-1 37:-1 38:-1 39:1 41:-1 42:-1 43:-1 44:-1 46:0.0357143 47:-1 48:-1 
0 32 2:-0.421052 4:-0.947368 5:-1 6:-0.947368 7:-0.421052 8:-1 9:-1 10:-1 11:-0.526316 12:-1 13:-1 14:-0.68421 15:-0.894737 16:-0.894737 17:-1 18:-1 19:-1 20:-1 21:-1 22:-0.31579 24:-1 25:-1 26:-1 27:-1 28:-1 29:-1 30:-0.8019 32:-1 33:-1 34:-1 35:-1 37:-1 38:-1 39:1 41:-1 42:-1 43:-1 44:-1 47:-1 48:-1 
0 6.977010372318645 1:-0.428572 2:-0.809524 3:-0.333334 4:-0.619048 5:-0.904762 6:-1 7:-0.809524 8:-1 9:-1 10:-1 11:-0.428572 12:-1 13:-1 14:-0.904762 15:-0.904762 16:-1 17:-1 18:-1 19:-1 20:-1 21:-1 22:-0.809524 24:-1 25:-1 26:-1 27:-1 28:-1 29:-1 30:-0.742198 32:-1 33:-1 34:-1 35:-1 37:-1 38:-1 39:1 41:-1 42:-1 43:-1 44:-1 47:-1 48:1 
0 32 1:-0.5 2:-0.7 3:0.5 4:-1 5:-1 6:-1 7:-0.7 8:-1 9:-1 10:-1 11:-0.8 12:-1 13:-1 14:-0.9 15:-0.9 16:-0.9 17:-1 18:-1 19:-1 20:-1 21:-1 22:-0.6 24:-1 25:-1 26:-1 27:-1 28:-1 29:-1 30:-0.739484 32:-1 33:-1 34:-1 35:-1 37:-1 38:-1 39:1 41:-1 42:-1 43:-1 44:-1 47:-1 48:-1 
6.347095286213084 0 1:0.23077 2:-1 3:0.692308 4:-1 5:-1 6:-1 7:-1 8:-1 9:-1 10:-1 11:-1 12:-1 13:-1 14:-0.692308 15:-1 16:-1 17:-1 18:-1 19:-1 20:-1 21:-1 22:0.384616 24:-1 25:-0.846154 26:-1 27:-1 28:-1 29:-1 30:-0.712348 32:-1 33:-1 34:-1 35:-1 37:-1 38:-1 39:1 40:0.083334 41:-1 42:-1 43:-1 44:-1 45:0.0116667 47:-1 48:1 
0 32 1:-0.333334 2:-0.333334 3:0.333334 4:-1 5:-1 6:-1 7:-0.333334 8:-1 9:-1 10:-1 11:-1 12:-1 13:-1 14:-1 15:-1 16:-1 17:-1 18:-1 19:-1 20:-1 21:-1 22:-1 24:-1 25:-1 26:-1 27:-1 28:-1 29:-1 30:-0.709634 32:-1 33:-1 34:-1 35:-1 37:-1 38:-1 39:1 40:0.083334 41:-1 42:-1 43:-1 44:-1 47:-1 48:-1 
0 5.230267427019747 1:-0.333334 2:-0.333334 3:0.333334 4:-1 5:-1 6:-1 7:-0.333334 8:-1 9:-1 10:-1 11:-0.333334 12:-1 13:-1 14:-1 15:-1 16:-1 17:-1 18:-1 19:-1 20:-1 21:-1 22:-1 24:-1 25:-1 26:-1 27:-1 28:-1 29:-1 30:-0.704206 32:-1 33:-1 34:-1 35:-1 37:-1 38:-1 39:1 40:0.083334 41:-1 42:-1 43:-1 44:-1 47:-1 48:-1 
0 2.636823641244001 3:1 4:-1 5:-1 6:-1 8:-1 9:-1 10:-1 11:-1 12:-1 13:-1 14:-1 15:-1 16:-1 17:-1 18:-1 19:-1 20:-1 21:-1 22:-1 24:-1 25:-1 26:-1 27:-1 28:-1 29:-1 30:-0.68521 32:-1 33:-1 34:-1 35:-1 37:-1 38:-1 39:1 40:0.25 41:-1 42:1 43:1 44:-1 45:-0.333333 47:-1 48:1 
0 32 1:-0.111112 2:-0.555556 3:0.111112 4:-1 5:-1 6:-1 7:-0.555556 8:-1 9:-1 10:-1 11:-0.777778 12:-1 13:-1 14:-0.555556 15:-0.777778 16:-1 17:-1 18:-1 19:-1 20:-1 21:-1 22:-0.555556 24:-1 25:-1 26:-1 27:-1 28:-1 29:-1 30:-0.682496 32:-1 33:-1 34:-1 35:-1 37:-1 38:-1 39:1 40:0.25 41:-1 42:-1 43:1 44:-1 47:-1 48:-1 
0 20.90392364530669 1:-0.066666 2:-1 3:0.066666 4:-1 5:-1 6:-1 7:-1 8:-0.866667 9:-1 10:-1 11:-1 12:-1 13:-1 14:-0.6 15:-1 16:-0.6 17:-1 18:-1 19:-1 20:-1 21:-1 22:-0.6 24:-1 25:-0.866667 26:-1 27:-1 28:-1 29:-1 30:-0.671642 32:-1 33:-1 34:-1 35:-1 37:-1 38:-1 39:1 40:0.166666 41:1 42:-1 43:-1 44:-1 45:-0.0416667 47:-1 48:-1 
4.44417819038569 0 1:-0.111112 2:-1 3:0.555556 4:-1 5:-1 6:-1 7:-1 8:-1 9:-1 10:-1 11:-1 12:-1 13:-1 14:-0.777778 15:-1 16:-0.777778 17:-1 18:-1 19:-1 20:-1 21:-1 22:-0.111112 24:-1 25:-1 26:-1 27:-1 28:-1 29:-1 30:-0.59023 32:-1 33:-1 34:-1 35:-1 37:-1 38:-1 39:1 40:0.333334 41:-1 42:-1 43:-1 44:-1 46:0.00833333 47:-1 48:-1 
32 0 1:-0.4 2:-0.8 3:1 4:-1 5:-1 6:-1 7:-1 8:-1 9:-1 10:-1 11:-1 12:-1 13:-1 14:-1 15:-1 16:-0.8 17:-1 18:-1 19:-1 20:-1 21:-1 22:0.6 24:-1 25:-1 26:-1 27:-1 28:-1 29:-1 30:-0.503392 32:-1 33:-1 34:-1 35:-1 37:-1 38:-1 39:1 40:0.333334 41:-1 42:-1 43:-1 44:-1 47:-1 48:-1 
0 5.351412716752864 1:1 2:1 3:1 4:-1 5:-1 6:-1 7:-1 8:-1 9:-1 10:-1 11:-1 12:-1 13:-1 14:-1 15:-1 16:-1 17:-1 18:-1 19:-1 20:-1 21:-1 22:-1 24:-1 25:-1 26:-1 27:-1 28:-1 29:-1 30:-1 32:1 33:-1 34:-1 35:-1 37:-1 38:-1 39:1 40:0.846154 41:-1 42:-1 43:-1 44:-1 46:0.589744 47:-1 48:1 
0 1.179602380757402 1:1 2:1 3:1 4:-1 5:-1 6:-1 7:-1 8:-1 9:-1 10:-1 11:-1 12:-1 13:-1 14:-1 15:-1 16:-1 17:-1 18:-1 19:-1 20:-1 21:-1 22:-1 24:-1 25:-1 26:-1 27:-1 28:-1 29:-1 30:-0.987421 32:1 33:-1 34:-1 35:-1 37:-1 38:-1 39:1 40:-0.333334 41:-1 42:-1 43:-1 44:1 45:-0.589744 46:-0.666667 47:1 48:-1 
0 1.566208001500987 1:-0.666666 2:-1 3:1 4:-1 5:-1 6:-1 7:-1 8:-1 9:-1 10:-1 11:-1 12:-1 13:-1 14:-1 15:-0.666666 16:-0.666666 17:-1 18:-1 19:-1 20:-1 21:-1 24:-1 25:-1 26:-1 27:-1 28:-1 29:-1 30:-0.949686 32:-1 33:-1 34:-1 35:-1 37:-1 38:-1 39:1 41:-1 42:1 43:-1 44:-1 45:-0.5 47:-1 48:-1 
0 32 2:-1 3:1 4:-1 5:-1 6:-1 7:-1 8:-1 9:-1 10:-1 11:-1 12:-1 13:-1 14:-1 16:-1 17:-1 18:-1 19:-1 20:-1 21:-1 22:-1 24:-1 25:-1 26:-1 27:-1 28:-1 29:-1 30:-0.496856 32:-1 33:-1 34:-1 35:-1 37:-1 38:-1 39:1 41:-1 42:-1 43:-1 44:-1 47:-1 48:-1 
32 0 1:0.333334 2:-1 3:1 4:-1 5:-1 6:-1 7:-1 8:-1 9:-1 10:-1 11:-1 12:-1 13:-1 14:-1 15:-1 16:-1 17:-1 18:-1 19:-1 20:-1 21:-1 22:1 24:-1 25:-1 26:-1 27:-1 28:-1 29:-1 30:0.207548 32:-1 33:-1 34:-1 35:-1 37:-1 38:-1 39:-1 40:0.23077 41:-1 42:-1 43:-1 44:-1 45:0.282051 46:0.115385 47:1 48:-1 
0 10.52142849503696 1:1 2:-1 3:1 4:-1 5:-1 6:-1 7:-1 8:-1 9:-1 10:-1 11:-1 12:-1 13:-1 14:-1 15:1 16:-1 17:-1 18:-1 19:-1 20:-1 21:-1 22:-1 24:-1 25:-1 26:-1 27:-1 28:-1 29:-1 30:-0.028038 32:1 33:-1 34:1 35:-1 37:-1 38:-1 39:-1 41:-1 42:-1 43:-1 44:-1 47:-1 48:-1 
32 0 2:-1 3:1 4:-1 5:-1 6:-1 7:-1 8:-1 9:-1 10:-1 11:-1 12:-1 13:-1 14:-1 15:-1 16:-1 17:-1 18:-1 19:-1 20:-1 21:-1 22:1 24:-1 25:-1 26:-1 27:-1 28:-1 29:-1 30:0.6974 32:-1 33:-1 34:-1 35:-1 37:-1 38:-1 39:-1 40:0.310344 41:-1 42:-1 43:-1 44:-1 45:0.280172 46:0.280172 47:-1 48:-1 
0 31.43469885281271 1:0.5 2:-1 3:0.5 4:-1 5:-1 6:-1 7:-1 8:-1 9:-1 10:-1 11:-1 12:-1 13:-1 14:-0.5 15:-0.5 16:-1 17:-1 18:-1 19:-1 20:-1 21:-1 22:-0.5 24:-1 25:-1 26:-1 27:-1 28:-1 29:-1 30:-0.953488 32:-1 33:-1 34:-1 35:-1 37:-1 38:-1 39:1 40:-0.333334 41:-1 42:-1 43:-1 44:-1 45:0.00520833 46:-0.0833333 47:-1 48:1 
3.325316991449755 0 2:-1 3:1 4:-1 5:-1 6:-1 7:-1 8:-1 9:-1 10:-1 11:-1 12:-1 13:-1 14:-1 15:-1 17:-1 18:-1 19:-1 20:-1 21:-1 24:-1 25:-1 26:-1 27:-1 28:-1 29:-1 30:0.6 32:-1 33:-1 34:-1 35:-1 37:-1 38:-1 39:1 40:-0.833333 41:-1 42:-1 43:-1 44:-1 47:-1 48:1 
0 5.230288137168072 1:-0.030304 2:-0.69697 3:0.09091 4:-0.878788 5:-1 6:-1 7:-0.757576 8:-1 9:-1 10:-1 11:-0.757576 12:-1 13:-1 14:-0.69697 15:-0.878788 16:-0.878788 17:-1 18:-1 19:-1 20:-1 21:-1 22:-0.333334 24:-1 25:-0.818182 26:-1 27:-1 28:-1 29:-1 30:-0.980296 32:-1 33:-1 34:-1 35:-1 37:-1 38:-1 39:1 40:-0.4 41:1 42:-1 43:-1 44:-1 45:-0.188462 46:0.00217391 47:-1 48:-1 
29.09994024625921 0 1:1 2:-1 3:1 4:-1 5:-1 6:-1 7:-1 8:-1 9:-1 10:-1 11:-1 12:-1 13:-1 14:-1 15:-1 16:-1 17:-1 18:-1 19:-1 20:-1 21:-1 22:1 24:-1 25:-1 26:-1 27:-1 28:-1 29:-1 30:-0.988636 32:1 33:-1 34:-1 35:-1 37:-1 38:-1 39:-1 40:1 41:-1 42:-1 43:-1 44:-1 45:0.75 47:-1 48:-1 
0.5017265849159426 0 1:1 2:-1 3:1 4:-1 5:-1 6:-1 7:-1 8:-1 9:-1 10:-1 11:-1 12:-1 13:-1 14:-1 15:-1 16:-1 17:-1 18:-1 19:-1 20:-1 21:-1 22:-1 24:-1 25:1 26:-1 27:-1 28:-1 29:-1 30:-0.977273 32:1 33:-1 34:-1 35:-1 37:-1 38:1 39:-1 40:1 41:-1 42:1 43:-1 44:-1 46:0.75 47:-1 48:-1 
0 32 1:0.037038 2:-0.333334 3:0.111112 4:-1 5:-1 6:-1 7:-0.333334 8:-1 9:-1 10:-1 11:-0.333334 12:-1 13:-1 14:-0.703704 15:-1 16:-0.925926 17:-1 18:-1 19:-1 20:-1 21:-1 22:-0.185186 24:-1 25:-1 26:-1 27:-1 28:-1 29:-1 30:-0.899281 32:-1 33:-1 34:-1 35:-1 37:-1 38:-1 39:1 40:0.142858 41:-1 42:-1 43:-1 44:-1 47:-1 48:-1 
0 32 1:0.058824 2:-0.294118 3:0.17647 4:-1 5:-1 6:-1 7:-0.294118 8:-1 9:-1 10:-1 11:-0.294118 12:-1 13:-1 14:-0.764706 15:-0.882353 16:-0.764706 17:-1 18:-1 19:-1 20:-1 21:-1 22:-0.17647 24:-1 25:-1 26:-1 27:-1 28:-1 29:-1 30:-0.841727 32:-1 33:-1 34:-1 35:-1 37:-1 38:-1 39:1 40:0.142858 41:-1 42:-1 43:-1 44:-1 47:-1 48:1 
0 32 1:-0.571428 2:-0.857143 3:-0.571428 4:-0.428572 5:-0.857143 6:-0.857143 7:-0.857143 8:-1 9:-1 10:-1 11:-0.857143 12:-1 13:-1 14:-0.714286 15:-1 16:-1 17:-1 18:-1 19:-1 20:-1 21:-0.857143 22:-0.857143 24:-1 25:-1 26:-1 27:-1 28:-1 29:-1 30:-0.827338 32:-1 33:-1 34:-1 35:-1 37:-1 38:-1 39:1 40:0.142858 41:1 42:-1 43:-1 44:-1 47:-1 48:-1 
0 1.920487620116996 1:0.272728 2:-1 3:0.454546 4:-1 5:-1 6:-1 7:-1 8:-1 9:-1 10:-1 11:-1 12:-1 13:-1 14:-0.454546 15:-1 16:-1 17:-1 18:-1 19:-1 20:-1 21:-1 22:0.272728 24:-1 25:-1 26:-1 27:-1 28:-1 29:-1 30:-0.784172 32:-1 33:-1 34:-1 35:-1 37:-1 38:-1 39:1 40:0.142858 41:-1 42:-1 43:1 44:-1 47:-1 48:1 
0 23.73756048132739 1:0.076924 2:-0.23077 3:0.23077 4:-1 5:-1 6:-1 7:-0.23077 8:-1 9:-1 10:-1 11:-0.23077 12:-1 13:-1 14:-0.846154 15:-0.846154 16:-0.846154 17:-1 18:-1 19:-1 20:-1 21:-1 22:-0.076924 24:-1 25:-1 26:-1 27:-1 28:-1 29:-1 30:-0.769784 32:-1 33:-1 34:-1 35:-1 37:-1 38:-1 39:1 40:0.142858 41:-1 42:-1 43:-1 44:-1 47:-1 48:1 
0 32 1:-0.571428 2:-0.857143 3:-0.571428 4:-0.428572 5:-0.857143 6:-0.857143 7:-0.857143 8:-1 9:-1 10:-1 11:-0.857143 12:-1 13:-1 14:-0.714286 15:-1 16:-1 17:-1 18:-1 19:-1 20:-1 21:-0.857143 22:-0.857143 24:-1 25:-1 26:-1 27:-1 28:-1 29:-1 30:-0.755396 32:-1 33:-1 34:-1 35:-1 37:-1 38:-1 39:1 40:0.142858 41:1 42:-1 43:-1 44:-1 47:-1 48:-1 
0 32 1:0.04762 2:-0.333334 3:0.142858 4:-1 5:-1 6:-1 7:-0.333334 8:-1 9:-1 10:-1 11:-0.333334 12:-1 13:-1 14:-0.714286 15:-0.904762 16:-0.809524 17:-1 18:-1 19:-1 20:-1 21:-1 22:-0.238096 24:-1 25:-1 26:-1 27:-1 28:-1 29:-1 30:-0.640288 32:-1 33:-1 34:-1 35:-1 37:-1 38:-1 39:1 40:0.142858 41:-1 42:-1 43:-1 44:-1 47:-1 48:1 
0 32 1:0.125 2:0.125 3:0.125 4:-1 5:-1 6:-1 7:-0.375 8:-1 9:-1 10:-1 11:-0.375 12:-1 13:-1 14:-0.75 15:-0.875 16:-0.875 17:-1 18:-1 19:-1 20:-1 21:-1 22:-0.25 24:-1 25:-1 26:-1 27:-1 28:-1 29:-1 30:-0.381294 32:-1 33:-1 34:-1 35:-1 37:-1 38:-1 39:1 41:-1 42:1 43:-1 44:-1 45:-0.5 47:-1 48:-1 
0 15.52194817537333 1:0.052632 2:-0.789474 3:0.263158 4:-1 5:-1 6:-1 7:-0.789474 8:-1 9:-1 10:-1 11:-0.789474 12:-1 13:-1 14:-0.578948 15:-1 16:-1 17:-1 18:-0.894737 19:-1 20:-1 21:-1 22:-0.368422 24:-1 25:-0.894737 26:-1 27:-1 28:-1 29:1 30:-0.366906 32:-1 33:-1 34:-1 35:-1 37:-1 38:-1 39:1 41:-1 42:-1 43:-1 44:-1 47:1 48:-1 
0 0.1855371739824089 4:-1 5:-1 6:-1 7:-1 8:-1 9:-1 10:-1 12:-1 13:-1 14:-1 16:-1 17:-1 18:-1 19:-1 20:-1 21:-1 22:-1 24:-1 25:-1 26:-1 27:-1 28:-1 29:-1 30:-0.223022 32:-1 33:-1 34:-1 35:-1 37:-1 38:-1 39:1 41:-1 42:-1 43:-1 44:-1 47:-1 48:1 
13.15310756983107 0 1:0.333334 2:-1 3:0.777778 4:-1 5:-1 6:-1 7:-1 8:-1 9:-1 10:-0.777778 11:-1 12:-1 13:-1 14:-1 15:-1 16:-1 17:-1 18:-1 19:-1 20:-1 21:-1 22:0.777778 24:-1 25:-1 26:-1 27:-1 28:-1 29:-1 30:-0.093526 32:-1 33:-1 34:-1 35:-1 37:-1 38:-1 39:1 41:-1 42:-1 43:-1 44:-1 47:-1 48:1 
1.081369276399077 0 1:1 2:1 3:1 4:-1 5:-1 6:-1 8:-1 9:-1 10:-1 11:-1 12:-1 13:-1 14:-1 15:-1 16:-1 17:-1 18:-1 19:-1 20:-1 21:-1 24:-1 25:-1 26:-1 27:-1 28:1 29:-1 30:-0.924528 32:1 33:-1 34:-1 35:-1 37:-1 38:-1 39:1 40:0.5 41:-1 42:-1 43:1 44:-1 45:0.75 46:0.0227273 47:-1 48:-1 
8.133972244663642 0 1:1 2:1 3:1 4:-1 5:-1 6:-1 7:-1 8:-1 9:-1 10:-1 11:-1 12:-1 13:-1 14:-1 15:-1 16:-1 17:-1 18:-1 19:-1 20:-1 21:-1 22:1 24:-1 25:-1 26:-1 27:-1 28:1 29:-1 30:-0.528302 32:1 33:-1 34:-1 35:-1 37:-1 38:-1 39:-1 40:0.09091 41:-1 42:-1 43:-1 44:-1 46:0.0454546 47:-1 48:1 
1.99868076014072 0 1:1 2:1 3:1 4:-1 5:-1 6:-1 7:1 8:-1 9:-1 10:-1 11:-1 12:-1 13:-1 14:-1 15:-1 16:-1 17:-1 18:-1 19:-1 20:-1 21:-1 22:1 24:-1 25:-1 26:-1 27:-1 28:1 29:-1 30:-0.808696 32:1 33:1 34:-1 35:-1 37:-1 38:-1 39:-1 40:1 41:-1 42:-1 43:-1 44:-1 45:0.761905 46:0.5 47:1 48:1 
0 0.9859806566140542 1:-1 2:-1 4:-1 5:-1 6:-1 7:-1 8:-1 9:-1 10:-1 11:-1 12:-1 13:-1 14:-1 15:-1 16:-1 17:-1 18:-1 19:-1 20:-1 21:-1 22:-1 24:-1 25:-1 26:-1 27:-1 28:-1 29:-1 30:-0.954338 32:-1 33:-1 34:-1 35:-1 37:-1 38:-1 39:1 40:-0.2 41:1 42:-1 43:-1 44:-1 46:0.2 47:-1 48:-1 
6.334080668522664 0 1:0.428572 2:-1 3:1 4:-1 5:-1 6:-1 7:-1 8:-1 9:-1 10:-1 11:-1 12:-1 13:-1 14:-1 15:-1 16:-0.714286 17:-1 18:-1 19:-1 20:-1 21:-1 22:0.714286 24:-1 25:-1 26:-1 27:-1 28:-1 29:-1 30:-1 32:-1 33:-1 34:-1 35:-1 37:-1 38:-1 39:1 40:0.133334 41:-1 42:-1 43:1 44:-1 47:-1 48:1 
3.699059047910975 0 2:-1 3:1 4:-1 5:-1 6:-1 7:-1 8:-1 9:-1 10:-1 11:-1 12:-1 13:-1 14:-1 15:-1 16:-1 17:-1 18:-1 19:-1 20:-1 21:-1 22:1 24:-1 25:-1 26:-1 27:-1 28:-1 29:-1 30:-0.450778 32:-1 33:-1 34:-1 35:-1 37:-1 38:-1 39:-1 41:-1 42:-1 43:-1 44:-1 47:1 48:-1 
32 0 1:-1 2:-1 3:1 4:-1 5:-1 6:-1 7:-1 8:-1 9:-1 10:-1 11:-1 12:-1 13:-1 14:-1 15:-1 16:-1 17:-1 18:-1 19:-1 20:-1 21:-1 22:1 24:-1 25:-1 26:-1 27:-1 28:-1 29:-1 30:-1 32:-1 33:-1 34:-1 35:-1 37:-1 38:-1 39:-1 40:0.75 41:-1 42:-1 43:-1 44:-1 46:0.333333 47:-1 48:-1 
0 23.6492284309688 1:-0.333334 2:-1 3:-0.333334 4:-0.333334 5:-1 6:-1 7:-1 8:-1 9:-1 10:-1 11:-0.333334 12:-1 13:-1 14:-1 15:-1 16:-1 17:-1 18:-1 19:-1 20:-1 21:-1 22:-1 24:-1 25:-1 26:-1 27:-1 28:-1 29:-1 30:-0.77591 32:-1 33:-1 34:-1 35:-1 37:-1 38:-1 39:1 41:-1 42:-1 43:-1 44:-1 47:-1 48:-1 
4.93264330851403 0 1:-1 2:-1 3:-1 4:-1 5:-1 6:-1 7:-1 8:-1 9:-1 10:-1 11:-1 12:-1 13:-1 14:-1 15:-1 16:-1 17:-1 18:-1 19:-1 20:-1 21:-1 22:-1 24:-1 25:-1 26:-1 27:-1 28:-1 29:-1 30:-0.439776 32:-1 33:-1 34:-1 35:-1 37:-1 38:-1 39:1 40:1 41:-1 42:-1 43:-1 44:1 45:0.458333 46:0.0416667 47:-1 48:-1 
0.7579426007479242 0 1:0.2 2:-1 3:0.2 4:-0.866667 5:-1 6:-1 7:-1 8:-0.866667 9:-1 10:-1 11:-1 12:-1 13:-1 14:-0.6 15:-1 16:-0.6 17:-1 18:-1 19:-1 20:-1 21:-1 22:-0.333334 24:-1 25:-0.866667 26:-1 27:-1 28:-1 29:-1 30:-0.411764 32:-1 33:-1 34:-1 35:-1 37:-1 38:-1 39:1 40:0.166666 41:-1 42:-1 43:-1 44:-1 47:1 48:1 
20.00214532261687 0 1:-0.6 2:-1 3:0.6 4:-1 5:-1 6:-1 7:-1 8:-1 9:-1 10:-1 11:-1 12:-1 13:-1 14:-1 15:-0.8 16:-1 17:-1 18:-1 19:-1 20:-1 21:-1 22:0.2 24:-1 25:-1 26:-1 27:-1 28:-1 29:-1 30:0.518208 32:-1 33:-1 34:-1 35:-1 37:-1 38:-1 39:1 40:0.333334 41:-1 42:-1 43:-1 44:-1 47:-1 48:-1 
1.858127808297756 0 1:-0.538462 2:-1 3:0.692308 4:-1 5:-1 6:-1 7:-1 8:-1 9:-1 10:-1 11:-1 12:-1 13:-1 14:-0.692308 15:-1 16:-1 17:-1 18:-1 19:-1 20:-1 21:-1 22:0.538462 24:-1 25:-1 26:-1 27:-1 28:-1 29:-1 30:0.529412 32:-1 33:-1 34:-1 35:-1 37:-1 38:-1 39:1 40:0.333334 41:-1 42:-1 43:-1 44:-1 47:-1 48:-1 
32 0 1:-0.272728 2:-1 3:0.636364 4:-1 5:-1 6:-1 7:-1 8:-1 9:-1 10:-1 11:-1 12:-1 13:-1 14:-0.818182 15:-1 16:-1 17:-1 18:-1 19:-1 20:-1 21:-1 22:0.454546 24:-1 25:-1 26:-1 27:-1 28:-1 29:-1 30:0.591036 32:-1 33:-1 34:-1 35:-1 37:-1 38:-1 39:1 40:0.333334 41:-1 42:-1 43:-1 44:-1 47:-1 48:-1 
0 3.397581895645574 1:-1 2:-1 3:1 4:-1 5:-1 6:-1 7:-1 8:-1 9:-1 10:-1 11:-1 12:-1 13:-1 14:-0.75 15:-1 16:-1 17:-1 18:-1 19:-1 20:-1 21:-1 22:0.5 24:-1 25:-1 26:-1 27:-0.75 28:-1 29:-1 30:0.79832 32:-1 33:-1 34:-1 35:-1 37:-1 38:-1 39:1 40:0.333334 41:-1 42:-1 43:-1 44:-1 45:0.0300546 47:-1 48:-1 
14.40959689879624 0 1:0.333334 2:-1 3:0.333334 4:-1 5:-1 6:-1 7:-1 8:-1 9:-1 10:-1 11:-1 12:-1 13:-1 14:-1 15:-1 16:-1 17:-1 18:-1 19:-1 20:-1 21:-1 22:-1 24:-1 25:-1 26:-1 27:-1 28:-1 29:-1 30:0.89916 32:-1 33:-1 34:-1 35:-1 37:-1 38:-1 39:1 40:0.083334 41:-1 42:-1 43:-1 44:-1 47:-1 48:-1 
3.385110632670777 0 1:1 2:-1 3:1 4:-1 5:-1 6:-1 7:-1 8:-1 9:-1 10:-1 11:-1 12:-1 13:-1 14:-1 15:-1 16:-1 17:-1 18:-1 19:-1 20:-1 21:-1 22:1 24:-1 25:-1 26:-1 27:-1 28:-1 29:-1 30:0.943978 32:1 33:-1 34:-1 35:-1 37:-1 38:-1 39:-1 40:0.166666 41:-1 42:-1 43:-1 44:-1 45:0.0416666 47:1 48:-1 
0 12.0931161881784 1:-0.619048 2:-1 3:0.238096 4:-0.809524 5:-1 6:-1 7:-1 8:-1 9:-1 10:-1 11:-0.904762 12:-1 13:-1 14:-0.714286 15:-1 16:-1 17:-1 18:-1 19:-1 20:-1 21:-1 22:-0.333334 24:-1 25:-1 26:-1 27:-1 28:-1 29:-1 30:0.966386 32:-1 33:-1 34:-1 35:-1 37:-1 38:-1 39:1 40:0.166666 41:-1 42:-1 43:-1 44:-1 47:-1 48:-1 
0 32 4:-1 5:-1 6:-1 7:-1 8:-1 9:-1 10:-1 12:-1 13:-1 14:-1 16:-1 17:-1 18:-1 19:-1 20:-1 21:-1 22:-1 24:-1 25:-1 26:-1 27:-1 28:-1 29:-1 30:-0.137056 32:-1 33:-1 34:-1 35:-1 37:-1 38:-1 39:1 41:-1 42:-1 43:-1 44:-1 47:-1 48:-1 
32 6.007645472660211 1:1 2:-1 3:1 4:-1 5:-1 6:-1 7:-1 8:-1 9:-1 10:-1 11:-1 12:-1 13:-1 14:-1 15:-1 17:-1 18:-1 19:-1 20:-1 21:-1 24:-1 25:-1 26:-1 27:-1 28:-1 29:-1 30:-0.989011 32:1 33:-1 34:-1 35:-1 37:-1 38:-1 39:1 40:0.818182 41:-1 42:-1 43:-1 44:-1 45:0.409091 46:0.409091 47:-1 48:1 
2.630876906207859 0 1:1 2:-1 3:1 4:-1 5:-1 6:-1 7:-1 8:-1 9:-1 10:-1 11:-1 12:-1 13:-1 14:-1 16:-1 17:-1 18:-1 19:-1 20:-1 21:-1 24:-1 25:-1 26:-1 27:-1 28:-1 29:-1 30:-0.967033 32:1 33:-1 34:-1 35:-1 37:-1 38:-1 39:1 40:0.181818 41:-1 42:-1 43:-1 44:1 45:0.0909091 46:-0.409091 47:-1 48:-1 
8.175022466218305 0 1:1 2:-1 3:1 4:-1 5:-1 6:-1 7:-1 8:-1 9:-1 10:-1 11:-1 12:-1 13:-1 14:-1 15:-1 17:-1 18:-1 19:-1 20:-1 21:-1 24:-1 25:-1 26:-1 27:-1 28:-1 29:-1 30:-0.23077 32:1 33:-1 34:-1 35:-1 37:-1 38:-1 39:1 40:0.818182 41:-1 42:-1 43:-1 44:-1 45:0.363636 46:0.409091 47:-1 48:1 
0 32 1:1 2:-1 3:1 4:-1 5:-1 6:-1 7:-1 8:-1 9:-1 10:-1 11:-1 12:-1 13:-1 14:-1 15:-1 16:1 17:-1 18:-1 19:-1 20:-1 21:-1 22:-1 24:-1 25:-1 26:-1 27:-1 28:-1 29:-1 30:-0.957627 32:1 33:-1 34:-1 35:1 37:-1 38:-1 39:-1 40:0.166666 41:-1 42:1 43:-1 44:-1 45:-0.416667 47:-1 48:-1 
0 6.506540187443853 1:-0.333334 2:-1 3:0.333334 4:-1 5:-1 6:-1 7:-1 8:-1 9:-1 10:-1 11:-1 12:-1 13:-1 14:-1 15:-1 16:-1 17:-1 18:-1 19:-1 20:-1 21:-1 22:-1 24:-1 25:-1 26:-1 27:-1 28:-1 29:-1 30:-0.940678 32:-1 33:-1 34:-1 35:-1 37:-1 38:-1 39:1 40:0.166666 41:-1 42:-1 43:-1 44:-1 46:0.208333 47:-1 48:-1 
32 0 1:-1 2:-1 3:1 4:-1 5:-1 6:-1 7:-1 8:-1 9:-1 10:-1 11:-1 12:-1 13:-1 14:-1 15:-1 16:-1 17:-1 18:-1 19:-1 20:-1 21:-1 22:1 24:-1 25:-1 26:-1 27:-1 28:-1 29:-1 30:-0.955224 32:-1 33:-1 34:-1 35:-1 37:-1 38:-1 39:-1 40:0.333334 41:-1 42:-1 43:1 44:-1 46:0.138889 47:-1 48:-1 
0 4.924315878941497 1:-0.142858 2:-1 3:0.428572 4:-0.714286 5:-1 6:-1 7:-1 8:-1 9:-1 10:-1 11:-1 12:-1 13:-1 14:-0.714286 15:-0.714286 16:-0.714286 17:-1 18:-1 19:-0.428572 20:-1 21:-1 22:-0.714286 24:-1 25:-1 26:-1 27:-1 28:-1 29:-1 30:-0.552238 32:-1 33:-1 34:-1 35:-1 37:-1 38:-1 39:1 40:0.03304 41:-1 42:-1 43:-1 44:-1 45:0.00284525 46:0.51652 47:-1 48:-1 
0 3.35781408703575 1:1 3:1 4:-1 5:-1 6:-1 7:-1 8:-1 9:-1 10:-1 11:-1 12:-1 13:-1 14:-1 15:-1 16:-1 17:-1 18:-1 19:-1 20:-1 21:-1 22:-1 24:-1 25:-1 26:-1 27:-1 28:-1 29:1 30:-0.946154 32:1 33:-1 34:-1 35:-1 37:-1 38:-1 39:1 41:-1 42:-1 43:-1 44:-1 47:-1 48:-1 
11.32321881699766 0 1:-0.6 2:-0.8 3:0.6 4:-1 5:-1 6:-1 7:-1 8:-1 9:-1 10:-1 11:-1 12:-1 13:-1 14:-1 15:-1 16:-1 17:-1 18:-1 19:-1 20:-1 21:-1 22:0.6 24:-1 25:-1 26:-1 27:-1 28:-1 29:-1 30:-0.715384 32:-1 33:-1 34:-1 35:-1 37:-1 38:-1 39:1 41:-1 42:-1 43:-1 44:-1 47:1 48:1 
3.219018588503735 0 1:-1 2:-1 3:0.428572 4:-0.714286 5:-0.714286 6:-1 7:-1 8:-1 9:-1 10:-1 11:-0.714286 12:-1 13:-1 14:-1 15:-1 16:-1 17:-1 18:-1 19:-1 20:-1 21:-1 22:0.428572 24:-1 25:-1 26:-1 27:-1 28:-1 29:-1 30:0.707692 32:-1 33:-1 34:-1 35:-1 37:-1 38:-1 39:1 40:-0.75 41:-1 42:-1 43:-1 44:-1 47:-1 48:1 
9.287527607031342 0 1:-1 2:-1 4:-1 5:-1 6:-1 7:-1 8:-1 9:-1 10:-1 12:-1 13:-1 14:-1 15:-1 16:-1 17:-1 18:-1 19:-1 20:-1 21:-1 24:-1 25:-1 26:-1 27:-1 28:-1 29:-1 30:0.976924 32:-1 33:-1 34:-1 35:-1 37:-1 38:-1 39:1 40:-0.75 41:-1 42:-1 43:-1 44:-1 47:-1 48:1 
0 31.41810434541834 1:0.5 2:0.5 3:0.5 4:-1 5:-1 6:-1 7:-0.5 8:-1 9:-1 10:-1 11:-0.5 12:-1 13:-1 14:-1 15:-0.5 16:-1 17:-1 18:-1 19:-1 20:-1 21:-1 22:-0.5 24:-1 25:-1 26:-1 27:-1 28:-1 29:-1 30:-0.971631 32:-1 33:-1 34:-1 35:-1 37:-1 38:-1 39:1 40:-0.666666 41:-1 42:-1 43:-1 44:-1 45:-0.333333 46:-0.25 47:-1 48:-1 
1.550145796383103 0 2:-1 6:-1 7:-1 8:-1 9:-1 10:-1 11:-1 12:-1 13:-1 14:-1 16:-1 17:-1 18:-1 19:-1 20:-1 21:-1 22:-1 24:-1 25:-1 26:-1 27:-1 28:-1 29:-1 30:-1 32:-1 33:-1 34:-1 35:-1 37:-1 38:-1 39:1 41:-1 42:-1 43:-1 44:-1 46:0.166667 47:-1 48:1 
0 2.755633055747738 1:-0.333334 2:-1 3:0.333334 4:-1 5:-1 6:-1 7:-1 8:-1 9:-1 10:-1 11:-1 12:-1 13:-1 14:-1 15:-1 16:-1 17:-1 18:-1 19:-1 20:-1 21:-1 22:-0.333334 24:-1 25:-1 26:-1 27:-1 28:-1 29:-1 30:-0.941463 32:-1 33:-1 34:-1 35:-1 37:-1 38:-1 39:1 41:1 42:-1 43:-1 44:-1 47:-1 48:-1 
0 22.40299840242704 1:-0.333334 2:-1 3:-0.333334 4:-0.333334 5:-1 6:-1 7:-1 8:-1 9:-1 10:-1 11:-0.333334 12:-1 13:-1 14:-1 15:-1 16:-1 17:-1 18:-1 19:-1 20:-1 21:-1 22:-0.333334 24:-1 25:-1 26:-1 27:-1 28:-1 29:-1 30:-0.86 32:-1 33:-1 34:-1 35:-1 37:-1 38:-1 39:1 40:0.4 41:-1 42:-1 43:-1 44:-1 45:0.45 46:0.2 47:-1 48:-1 
32 0 1:1 2:-1 3:1 4:-1 5:-1 6:-1 7:-1 8:-1 9:-1 10:-1 11:-1 12:-1 13:-1 14:-1 15:-1 16:-1 17:-1 18:-1 19:-1 20:-1 21:-1 22:1 24:-1 25:-1 26:-1 27:-1 28:-1 29:-1 30:0.63 32:1 33:-1 34:-1 35:-1 37:-1 38:-1 39:-1 40:0.4 41:-1 42:-1 43:-1 44:-1 46:0.2 47:-1 48:-1 
32 4.510378891708503 1:0.333334 2:-1 3:0.777778 4:-0.777778 5:-1 6:-1 7:-1 8:-1 9:-1 10:-1 11:-1 12:-1 13:-1 14:-1 15:-1 16:-0.777778 17:-1 18:-1 19:-1 20:-1 21:-1 22:0.333334 24:-1 25:-1 26:-1 27:-1 28:-1 29:-1 30:-0.95122 32:-1 33:-1 34:-1 35:-1 37:-1 38:-1 39:1 40:0.166666 41:-1 42:1 43:1 44:-1 45:-0.416667 46:0.0833333 47:-1 48:-1 
4.190308889619613 0 1:-0.142858 2:-1 3:1 4:-1 5:-1 6:-1 7:-1 8:-1 9:-1 10:-1 11:-1 12:-1 13:-1 14:-1 15:-1 16:-1 17:-1 18:-1 19:-1 20:-0.142857 21:-1 22:0.714286 24:-1 25:-1 26:-1 27:-1 28:-1 29:-1 30:-0.707318 32:-1 33:-1 34:-1 35:-1 37:-1 38:-1 39:1 41:-1 42:-1 43:-1 44:-1 47:-1 48:-1 
32 0 1:-0.333334 2:-1 3:1 4:-1 5:-1 6:-1 7:-1 8:-1 9:-1 10:-1 11:-1 12:-1 13:-1 14:-1 15:-1 16:-1 17:-1 18:-1 19:-1 20:-1 21:-1 22:1 24:-1 25:-1 26:-1 27:-1 28:-1 29:-1 30:-0.414634 32:-1 33:-1 34:-1 35:-1 37:-1 38:-1 39:-1 40:0.666666 41:-1 42:-1 43:-1 44:-1 45:0.333333 46:0.333333 47:-1 48:-1 
0 32 1:1 2:-1 3:1 4:-1 5:-1 6:-1 7:-1 8:-1 9:-1 10:-1 11:-1 12:-1 13:-1 14:-1 16:-1 17:-1 18:-1 19:-1 20:-1 21:-1 22:-1 24:-1 25:-1 26:-1 27:-1 28:-1 29:-1 30:-0.690608 32:1 33:-1 34:-1 35:-1 37:-1 38:-1 39:1 40:0.066666 41:-1 42:1 43:-1 44:-1 45:-0.466667 46:0.0333334 47:-1 48:-1 
20.13649527868846 0 1:0.6 2:-1 3:1 4:-1 5:-1 6:-1 7:-1 8:-1 9:-1 10:-1 11:-1 12:-1 13:-1 14:-0.6 15:-1 16:-1 17:-1 18:-1 19:-1 20:-1 21:-1 22:0.6 24:-1 25:-1 26:-1 27:-1 28:-1 29:-1 30:-0.756756 32:-1 33:-1 34:-1 35:-1 37:-1 38:-1 39:1 41:-1 42:-1 43:-1 44:-1 47:-1 48:1 
0 0.8524170010369492 1:0.142858 2:-0.714286 3:0.142858 4:-0.714286 5:-0.857143 6:-1 7:-1 8:-1 9:-1 10:-1 11:-1 12:-1 13:-1 14:-0.428572 15:-0.857143 16:-0.857143 17:-1 18:-0.857143 19:-1 20:-1 21:-1 22:-0.285714 24:-1 25:-1 26:-1 27:-1 28:-1 29:-1 30:-0.925926 32:-1 33:-1 34:-1 35:-1 37:-1 38:-1 39:1 41:-1 42:-1 43:-1 44:-1 45:0.5 47:-1 48:1 
0 18.34425221270686 1:1 2:1 3:1 4:-1 5:-1 6:-1 7:-1 8:-1 9:-1 10:-1 11:-1 12:-1 13:-1 14:-1 15:-1 16:-1 17:-1 18:-1 19:-1 20:-1 21:-1 22:-1 24:-1 25:-1 26:-1 27:-1 28:-1 29:-1 30:-0.351852 32:1 33:-1 34:-1 35:-1 37:-1 38:-1 39:1 41:-1 42:-1 43:-1 44:-1 47:1 48:-1 
0 6.361829472541918 1:0.333334 2:-1 3:0.333334 4:-1 5:-1 6:-1 7:-1 8:-1 9:-1 10:-1 11:-1 12:-1 13:-1 14:-0.333334 15:-0.333334 16:-0.333334 17:-1 18:-1 19:-1 20:-1 21:-1 22:-1 24:-1 25:-1 26:-1 27:-1 28:-1 29:-1 30:-0.725118 32:-1 33:-1 34:-1 35:-1 37:-1 38:-1 39:1 40:-0.5 41:-1 42:-1 43:-1 44:-1 46:-0.295455 47:-1 48:-1 
0 32 1:0.076924 2:-1 3:0.23077 4:-0.846154 5:-1 6:-1 7:-1 8:-1 9:-1 10:-1 11:-0.846154 12:-1 13:-1 14:-0.384616 15:-0.692308 16:-1 17:-1 18:-1 19:-1 20:-1 21:-1 22:-0.384616 24:-1 25:-0.846154 26:-1 27:-1 28:-1 29:-1 30:-0.932039 32:-1 33:-1 34:-1 35:-1 37:-1 38:-1 39:1 41:-1 42:-1 43:-1 44:-1 45:0.00787402 46:-0.0384616 47:-1 48:-1 
0 6.488047726796531 1:0.333334 2:-1 3:0.333334 4:-1 5:-1 6:-1 7:-1 8:-1 9:-1 10:-1 11:-1 12:-1 13:-1 14:-1 15:-1 16:-1 17:-1 18:-1 19:-1 20:-1 21:-1 22:-0.333334 24:-1 25:-1 26:-1 27:-1 28:-1 29:-1 30:-0.990476 32:-1 33:-1 34:-1 35:-1 37:-1 38:-1 39:1 40:0.133334 41:-1 42:-1 43:1 44:-1 47:-1 48:-1 
12.32396133871728 0 1:0.333334 2:-1 3:0.333334 4:-1 5:-1 6:-1 7:-1 8:-1 9:-0.666666 10:-1 11:-1 12:-1 13:-1 14:-1 15:-1 16:-1 17:-1 18:-1 19:-1 20:-1 21:-1 22:0.333334 24:-1 25:-1 26:-1 27:-1 28:1 29:-1 30:-0.799044 32:-1 33:-1 34:-1 35:-1 37:-1 38:-1 39:1 41:-1 42:-1 43:-1 44:-1 45:0.25 47:-1 48:-1 
5.167484665488028 0 1:-1 2:-1 4:-1 5:-1 6:-1 7:-1 8:-1 9:-1 10:-1 11:-1 12:-1 13:-1 14:-1 15:-1 16:-1 17:-1 18:-1 19:-1 20:-1 21:-1 22:-1 24:-1 25:-1 26:-1 27:-1 28:-1 29:-1 30:0.68421 32:-1 33:-1 34:-1 35:-1 37:-1 38:-1 39:1 40:-1 41:-1 42:-1 43:-1 44:-1 45:-0.5 46:-0.5 47:-1 48:1 
0.9833857042156947 0 1:-1 2:-1 3:1 4:-1 5:-1 6:-1 7:-1 8:-1 9:-1 10:-1 11:-1 12:-1 13:-1 14:-1 15:-1 16:-1 17:-1 18:-1 19:-1 20:-1 21:-1 24:-1 25:-1 26:-1 27:-1 28:-1 29:-1 30:0.78355 32:-1 33:-1 34:-1 35:-1 37:-1 38:-1 39:1 40:-0.6 41:-1 42:-1 43:-1 44:-1 45:-0.1 47:-1 48:1 
0 15.01651856164151 1:1 2:-1 3:1 4:-1 5:-1 6:-1 7:-1 8:-1 9:-1 10:-1 11:-1 12:-1 13:-1 14:-1 15:-1 16:1 17:-1 18:-1 19:-1 20:-1 21:-1 22:-1 24:-1 25:-1 26:-1 27:-1 28:-1 29:-1 30:-0.814208 32:1 33:-1 34:-1 35:1 37:-1 38:-1 39:-1 41:-1 42:-1 43:-1 44:-1 47:-1 48:-1 
32 0 1:0.428572 2:-1 3:1 4:-1 5:-1 6:-1 7:-1 8:-1 9:-1 10:-1 11:-1 12:-1 13:-1 14:-1 15:-1 16:-1 17:-1 18:-1 19:-1 20:-1 21:-1 22:1 24:-1 25:-1 26:-1 27:-1 28:-1 29:-1 30:-1 32:-1 33:-1 34:-1 35:-1 37:-1 38:-1 39:-1 40:0.1875 41:-1 42:-1 43:1 44:-1 47:-1 48:-1 
0 32 1:0.5 2:-0.5 3:0.5 4:-1 5:-1 6:-1 7:-0.5 8:-1 9:-1 10:-1 11:-0.5 12:-1 13:-1 14:-1 15:-0.5 16:-0.5 17:-1 18:-1 19:-1 20:-1 21:-1 22:-0.5 24:-1 25:-1 26:-1 27:-1 28:-1 29:-1 30:0.53 32:-1 33:-1 34:-1 35:-1 37:-1 38:-1 39:1 40:0.0625 41:-1 42:-1 43:-1 44:-1 45:-0.203125 47:-1 48:-1 
19.04949712230057 0 1:0.6 2:-1 3:1 4:-1 5:-1 6:-1 7:-1 8:-1 9:-1 10:-1 11:-1 12:-1 13:-1 14:-1 15:-1 16:-0.6 17:-1 18:-1 19:-1 20:-1 21:-1 22:0.6 24:-1 25:-1 26:-1 27:-1 28:-1 29:-1 30:0.83 32:-1 33:-1 34:-1 35:-1 37:-1 38:-1 39:1 40:0.0625 41:-1 42:-1 43:-1 44:-1 47:-1 48:-1 
0 32 1:1 2:-1 3:1 4:-1 5:-1 6:-1 7:-1 8:-1 9:-1 10:-1 11:-1 12:-1 13:-1 14:-1 15:1 16:-1 17:-1 18:-1 19:-1 20:-1 21:-1 22:-1 24:-1 25:-1 26:-1 27:-1 28:-1 29:-1 30:-0.945055 32:1 33:-1 34:1 35:-1 37:-1 38:-1 39:-1 40:0.5 41:-1 42:-1 43:-1 44:-1 46:0.416667 47:-1 48:-1 
0 32 1:0.066666 2:-1 3:0.333334 4:-0.866667 5:-1 6:-0.866667 7:-1 8:-1 9:-1 10:-1 11:-1 12:-1 13:-1 14:-0.6 15:-0.6 16:-0.733334 17:-1 18:-1 19:-1 20:-1 21:-1 22:-1 24:-1 25:-1 26:-1 27:-1 28:-1 29:-1 30:-0.934066 32:-1 33:-1 34:-1 35:-1 37:-1 38:-1 39:1 40:-0.333334 41:1 42:-1 43:-1 44:-1 45:-0.416667 47:-1 48:-1 
0.8047377572977876 0 1:-0.714286 2:-1 3:1 4:-1 5:-1 6:-1 7:-1 8:-1 9:-1 10:-1 11:-1 12:-1 13:-1 14:-1 15:-1 16:-1 17:-1 18:-1 19:-1 20:-1 21:-1 22:1 24:-1 25:-1 26:-1 27:-1 28:-1 29:-1 30:0.956044 32:-1 33:-1 34:-1 35:-1 37:-1 38:-1 39:-1 40:0.125 41:-1 42:-1 43:-1 44:-1 47:-1 48:-1 
24.85099339877204 0 1:1 2:1 3:1 4:-1 5:-1 6:-1 7:-1 8:-1 9:-1 10:-1 11:-1 12:-1 13:-1 14:-1 15:-1 16:-1 17:-1 18:-1 19:-1 20:-1 21:-1 22:1 24:-1 25:-1 26:-1 27:-1 28:-1 29:-1 30:-1 32:1 33:-1 34:-1 35:-1 37:-1 38:-1 39:-1 40:1 41:-1 42:-1 43:-1 44:-1 46:0.75 47:-1 48:1 
0 2.1347795070717 1:1 2:1 3:1 4:-1 5:-1 6:-1 7:-1 8:-1 9:-1 10:-1 11:-1 12:-1 13:-1 14:-1 16:-1 17:-1 18:-1 19:-1 20:-1 21:-1 22:-1 24:-1 25:-1 26:-1 27:-1 28:-1 29:-1 30:-0.969231 32:1 33:-1 34:-1 35:-1 37:-1 38:-1 39:1 40:-0.5 41:-1 42:-1 43:-1 44:-1 47:1 48:1 
0 3.985489834298705 1:0.5 2:0.5 3:0.5 4:-1 5:-1 6:-1 7:-0.5 8:-1 9:-1 10:-1 11:-1 12:-1 13:-1 14:-1 15:-0.5 16:-0.5 17:-1 18:-1 19:-1 20:-1 21:-1 22:-0.5 24:-1 25:-1 26:-1 27:-1 28:-1 29:-1 30:-0.584616 32:-1 33:-1 34:-1 35:-1 37:-1 38:-1 39:1 40:-0.5 41:-1 42:-1 43:-1 44:-1 47:1 48:1 
0 10.79188746653729 1:1 2:1 3:1 4:-1 5:-1 6:-1 7:-1 8:-1 9:-1 10:-1 11:-1 12:-1 13:-1 14:-1 17:-1 18:-1 19:-1 20:-1 21:-1 22:-1 24:-1 25:-1 26:-1 27:-1 28:-1 29:-1 30:-0.523076 32:1 33:-1 34:-1 35:-1 37:-1 38:-1 39:1 40:-0.5 41:-1 42:-1 43:-1 44:-1 47:1 48:-1 
32 0 1:-0.5 2:-1 3:1 4:-1 5:-1 6:-1 7:-1 8:-1 9:-1 10:-1 11:-1 12:-1 13:-1 14:-1 15:-1 16:-0.5 17:-1 18:-1 19:-1 20:-1 21:-1 22:0.5 24:-1 25:-1 26:-1 27:-1 28:-1 29:-1 30:-0.276924 32:-1 33:-1 34:-1 35:-1 37:-1 38:-1 39:1 40:0.527778 41:-1 42:-1 43:-1 44:-1 45:0.513889 46:0.263889 47:1 48:-1 
3.318217432545921 6.338127090576438 1:0.12 2:-1 3:0.44 4:-0.92 5:-1 6:-1 7:-1 8:-1 9:-1 10:-1 11:-1 12:-1 13:-1 14:-0.6 15:-0.92 16:-1 17:-1 18:-1 19:-1 20:-1 21:-1 22:-0.2 24:-1 25:-0.84 26:-1 27:-1 28:-1 29:-1 30:-0.952607 32:-1 33:-1 34:-1 35:-1 37:-1 38:-1 39:1 40:0.062788 41:-1 42:-1 43:1 44:-1 45:0.531394 46:-0.00432028 47:-1 48:-1 
0 32 1:0.272728 2:-1 3:0.272728 4:-0.818182 5:-1 6:-1 7:-1 8:-1 9:-1 10:-1 11:-1 12:-1 13:-1 14:-0.454546 15:-0.818182 16:-0.818182 17:-1 18:-0.818182 19:-1 20:-1 21:-1 22:-0.818182 24:-1 25:-1 26:-1 27:-1 28:-1 29:-1 30:-0.943128 32:-1 33:-1 34:-1 35:-1 37:-1 38:-1 39:1 40:0.071428 41:-1 42:-1 43:-1 44:-1 45:0.00432028 46:-0.0357143 47:-1 48:-1 
0 2.14667457950857 1:-0.818182 2:-1 3:0.818182 4:-1 5:-1 6:-1 7:-1 8:-1 9:-1 10:-1 11:-0.909091 12:-1 13:-1 14:-0.909091 15:-1 16:-0.727272 17:-1 18:-1 19:-1 20:-1 21:-1 22:0.545454 24:-1 25:-1 26:-1 27:-1 28:1 29:-1 30:-0.933649 32:-1 33:-1 34:-1 35:-1 37:-1 38:-1 39:1 40:0.142858 41:1 42:-1 43:-1 44:-1 45:0.0357143 47:-1 48:-1 
0 17.70401081991028 1:-0.6 2:-0.6 3:-0.6 4:-0.2 5:-1 6:-1 7:-0.6 8:-1 9:-1 10:-1 11:-1 12:-1 13:-1 14:-1 15:-1 16:-1 17:-1 18:-1 19:-1 20:-1 21:-1 22:-1 24:-1 25:-1 26:-1 27:-1 28:-1 29:-1 30:0.528206 32:-1 33:-1 34:-1 35:-1 37:-1 38:-1 39:1 40:-0.32 41:-1 42:-1 43:-1 44:-1 45:-0.604444 46:-0.16 47:-1 48:-1 
0 11.00819838228546 1:-0.23077 2:-1 3:-0.23077 4:-1 5:-1 6:-1 7:-1 8:-1 9:-1 10:-0.846154 11:-1 12:-0.692308 13:-1 14:-1 15:-0.538462 16:-0.846154 17:-1 18:-1 19:-1 20:-1 21:-1 22:-1 24:-0.846154 25:-1 26:-1 27:-1 28:-1 29:-1 30:-0.850932 32:-1 33:-1 34:-1 35:-1 37:-1 38:-1 39:1 40:-0.5 41:-1 42:-1 43:-1 44:-1 45:0.00227273 47:-1 48:-1 
4.27185507447539 0 1:1 2:1 3:1 4:-1 5:-1 6:-1 7:-1 8:-1 9:-1 10:-1 11:-1 12:-1 13:-1 14:-1 15:-1 16:-1 17:-1 18:-1 19:-1 20:-1 21:-1 22:1 24:-1 25:-1 26:-1 27:-1 28:-1 29:-1 30:-0.979381 32:1 33:-1 34:-1 35:-1 37:-1 38:-1 39:-1 40:1 41:-1 42:-1 43:-1 44:1 45:0.7 46:0.181818 47:-1 48:-1 
0 32 1:0.142858 2:-0.809524 3:0.238096 4:-0.714286 5:-1 6:-0.904762 7:-1 8:-1 9:-1 10:-1 11:-1 12:-1 13:-1 14:-0.52381 15:-1 16:-0.428572 17:-1 18:-0.904762 19:-1 20:-1 21:-1 22:-0.52381 24:-1 25:-0.904762 26:-1 27:-1 28:-1 29:-1 30:-0.95 32:-1 33:-1 34:-1 35:-1 37:-1 38:-1 39:1 41:1 42:-1 43:-1 44:-1 45:-0.125641 46:0.5 47:-1 48:-1 
0 32 1:0.333334 2:-0.333334 3:0.333334 4:-1 5:-1 6:-1 7:-0.333334 8:-1 9:-1 10:-1 11:-0.333334 12:-1 13:-1 14:-1 15:-0.333334 16:-1 17:-1 18:-1 19:-1 20:-1 21:-1 22:-0.333334 24:-1 25:-1 26:-1 27:-1 28:-1 29:-1 30:-0.24 32:-1 33:-1 34:-1 35:-1 37:-1 38:-1 39:1 41:-1 42:-1 43:-1 44:-1 47:-1 48:-1 
0.7698432060422146 0 1:-1 2:-1 4:-1 5:-1 6:-1 7:-1 8:-1 9:-1 11:-1 12:-1 13:-1 14:-1 15:-1 16:-1 17:-1 18:-1 19:-1 20:-1 21:-1 24:-1 25:-1 26:-1 27:-1 28:-1 29:-1 30:-0.158878 32:-1 33:-1 34:-1 35:-1 37:-1 38:-1 39:1 41:-1 42:-1 43:-1 44:-1 46:0.5 47:-1 48:1 
0 20.00746621859031 1:1 2:-1 3:1 4:-1 5:-1 6:-1 7:-1 8:-1 9:-1 10:-1 11:-1 12:-1 13:-1 14:-1 16:-1 17:-1 18:-1 19:-1 20:-1 21:-1 22:-1 24:-1 25:-1 26:-1 27:-1 28:-1 29:-1 30:0.53271 32:1 33:-1 34:-1 35:-1 37:-1 38:-1 39:1 41:-1 42:-1 43:-1 44:-1 47:-1 48:-1 
0 11.89691016835685 1:-0.5 2:-1 4:-1 5:-1 6:-1 7:-1 8:-1 9:-1 10:-1 11:-1 12:-1 13:-1 14:-0.5 15:-1 16:-0.5 17:-1 18:-1 19:-1 20:-1 21:-1 22:-1 24:-1 25:-1 26:-1 27:-1 28:-1 29:-1 30:-0.924528 32:-1 33:-1 34:-1 35:-1 37:-1 38:-1 39:1 41:-1 42:-1 43:-1 44:-1 45:0.5 47:-1 48:-1 
6.481598237700583 0 1:1 2:1 3:1 4:-1 5:-1 6:-1 7:-1 8:-1 9:-1 10:-1 11:-1 12:-1 13:-1 14:-1 15:-1 16:-1 17:-1 18:-1 19:-1 20:-1 21:-1 22:1 24:-1 25:-1 26:-1 27:-1 28:-1 29:-1 30:-0.632076 32:1 33:-1 34:-1 35:-1 37:-1 38:-1 39:-1 41:-1 42:-1 43:-1 44:-1 47:1 48:1 
2.995702483734833 0 1:-0.833333 2:-1 3:0.833334 4:-1 5:-1 6:-1 7:-1 8:-1 9:-1 10:-1 11:-0.833333 12:-1 13:-1 14:-1 15:-1 16:-1 17:-1 18:-1 19:-1 20:-1 21:-1 22:0.833334 24:-1 25:-1 26:-1 27:-1 28:-1 29:-1 30:0.7625 32:-1 33:-1 34:-1 35:-1 37:-1 38:-1 39:1 41:-1 42:-1 43:-1 44:-1 45:0.00765306 47:1 48:1 
0 7.627613566416385 1:1 2:-1 3:1 4:-1 5:-1 6:-1 7:-1 8:-1 9:-1 10:-1 11:-1 12:-1 13:-1 14:-1 15:1 16:-1 17:-1 18:-1 19:-1 20:-1 21:-1 22:-1 24:-1 25:-1 26:-1 27:-1 28:-1 29:-1 30:-0.111112 32:1 33:-1 34:1 35:-1 37:-1 38:-1 39:-1 40:0.2 41:-1 42:-1 43:-1 44:-1 45:0.6 46:0.1 47:-1 48:1 
0 2.129835051565211 1:1 2:-1 3:-1 4:-1 5:-1 6:-1 7:-1 8:1 9:-1 10:-1 11:-1 12:-1 13:-1 14:-1 15:-1 16:-1 17:-1 18:-1 19:-1 20:-1 21:-1 22:-1 24:-1 25:-1 26:-1 27:-1 28:-1 29:-1 30:-0.980952 32:-1 33:-1 34:-1 35:-1 37:-1 38:-1 39:1 40:-1 41:-1 42:-1 43:-1 44:-1 46:-0.5 47:-1 48:-1 
0 1.37082379085722 1:-0.466666 2:-1 3:0.6 4:-0.866667 5:-0.866667 6:-1 7:-1 8:-1 9:-1 10:-0.866667 11:-0.866667 12:-1 13:-1 14:-1 15:-0.866667 16:-0.733334 17:-1 18:-1 19:-1 20:-1 21:-1 22:0.066666 24:-1 25:-1 26:-1 27:-0.866667 28:-1 29:-0.066666 30:-0.931818 32:-1 33:-1 34:-1 35:-1 37:-1 38:-1 39:1 41:-1 42:-1 43:-1 44:-1 45:0.0625 47:1 48:-1 
5.469903907909972 0 1:-1 2:-1 3:0.2 4:-1 5:-1 6:-1 7:-1 8:-1 9:-0.6 10:-1 11:-1 12:-1 13:-1 14:-1 15:-1 16:-1 17:-1 18:-1 19:-1 20:-1 21:-1 22:0.2 24:-1 25:-1 26:-1 27:-1 28:-1 29:-1 30:-0.978022 32:-1 33:-1 34:-1 35:-1 37:-1 38:-1 39:1 40:0.285714 41:-1 42:-1 43:1 44:-1 47:-1 48:-1 
0 32 1:0.2 2:-0.8 3:0.4 4:-0.6 5:-1 6:-1 7:-0.8 8:-1 9:-1 10:-1 11:-0.8 12:-1 13:-1 14:-0.8 15:-0.4 16:-0.6 17:-1 18:-1 19:-1 20:-1 21:-1 22:-0.6 24:-1 25:-1 26:-1 27:-1 28:-1 29:-1 30:-0.516484 32:-1 33:-1 34:-1 35:-1 37:-1 38:-1 39:1 40:0.113998 41:-1 42:1 43:-1 44:-1 45:-0.443001 46:0.223665 47:-1 48:-1 
0 10.74571981703549 2:-1 3:0.5 4:-0.5 5:-1 6:-1 7:-1 8:-1 9:-1 10:-1 11:-1 12:-1 13:-1 14:-1 15:-0.5 16:-1 17:-1 18:-1 19:-1 20:-1 21:-1 24:-1 25:-1 26:-1 27:-1 28:-1 29:-1 30:-0.745856 32:-1 33:-1 34:-1 35:-1 37:-1 38:-1 39:1 40:0.25 41:-1 42:-1 43:-1 44:-1 45:0.375 46:0.125 47:-1 48:-1 
0 6.68244766013107 1:-0.333334 2:-1 4:-0.333334 5:-1 6:-1 7:-1 8:-1 9:-1 10:-1 11:-0.666666 12:-1 13:-1 14:-1 15:-0.666666 16:-0.666666 17:-1 18:-1 19:-1 20:-1 21:-1 22:-0.666666 24:-1 25:-1 26:-1 27:-1 28:-1 29:-1 30:-0.535912 32:-1 33:-1 34:-1 35:-1 37:-1 38:-1 39:1 41:-1 42:-1 43:-1 44:-1 47:-1 48:-1 
0 1.186419907454482 2:-1 4:-1 5:-1 6:-1 7:-1 8:-1 9:-1 10:-1 11:-1 12:-0.5 13:-1 14:-1 15:-0.5 16:-0.5 17:-1 18:-1 19:-1 20:-1 21:-1 22:-1 24:-1 25:-1 26:-1 27:-1 28:-1 29:-1 30:-0.864198 32:-1 33:-1 34:-1 35:-1 37:-1 38:-1 39:1 40:-0.5 41:-1 42:-1 43:-1 44:-1 47:-1 48:-1 
0 32 2:-1 4:-0.5 5:-1 6:-1 7:-1 8:-1 9:-1 10:-1 11:-1 12:-1 13:-1 14:-0.5 15:-0.5 16:-1 17:-1 18:-1 19:-1 20:-1 21:-1 22:-0.5 24:-1 25:-1 26:-1 27:-1 28:-1 29:-1 30:-0.934884 32:-1 33:-1 34:-1 35:-1 37:-1 38:-1 39:1 40:0.071428 41:-1 42:-1 43:-1 44:-1 45:0.00428571 46:-0.0357143 47:-1 48:-1 
0.302382441899727 0 1:-0.789474 2:-1 3:0.894736 4:-1 5:-1 6:-1 7:-1 8:-1 9:-1 10:-1 11:-0.894737 12:-1 13:-1 14:-1 15:-1 16:-1 17:-1 18:-1 19:-1 20:-1 21:-1 22:0.894736 24:-1 25:-1 26:-1 27:-1 28:1 29:-1 30:-0.925581 32:-1 33:-1 34:-1 35:-1 37:-1 38:-1 39:1 40:0.142858 41:1 42:-1 43:-1 44:-1 45:0.0357143 47:-1 48:-1 
26.77140273745716 0 1:-0.6 2:-1 3:0.8 4:-1 5:-1 6:-1 7:-1 8:-1 9:-1 10:-1 11:-0.9 12:-1 13:-1 14:-0.8 15:-1 16:-0.9 17:-1 18:-1 19:-1 20:-1 21:-1 22:0.7 24:-1 25:-1 26:-1 27:-1 28:1 29:-1 30:-0.869767 32:-1 33:-1 34:-1 35:-1 37:-1 38:-1 39:1 40:0.142858 41:-1 42:-1 43:-1 44:-1 47:-1 48:-1 
3.775298091415733 0 1:-0.7 2:-1 3:0.9 4:-1 5:-1 6:-1 7:-1 8:-1 9:-1 10:-1 11:-0.9 12:-1 13:-1 14:-1 15:-1 16:-0.9 17:-1 18:-1 19:-1 20:-1 21:-1 22:0.8 24:-1 25:-1 26:-1 27:-1 28:1 29:-1 30:-0.84186 32:-1 33:-1 34:-1 35:-1 37:-1 38:-1 39:1 40:0.142858 41:-1 42:-1 43:-1 44:-1 47:-1 48:-1 
6.250176832111138 0 1:1 2:1 3:1 4:-1 5:-1 6:-1 7:-1 8:-1 9:-1 10:-1 11:-1 12:-1 13:-1 14:-1 15:-1 16:-0.333334 17:-1 18:-1 19:-1 20:-1 21:-1 22:0.333334 24:-1 25:-1 26:-1 27:-1 28:-1 29:-1 30:-1 32:1 33:-1 34:-1 35:-1 37:-1 38:-1 39:1 40:1 41:-1 42:-1 43:-1 44:-1 46:0.25 47:-1 48:-1 
24.74502707039807 0 1:-1 2:-1 3:1 4:-1 5:-1 6:-1 7:-1 8:-1 9:-1 10:-1 11:-1 12:-1 13:-1 14:-1 15:-1 16:-1 17:-1 18:-1 19:-1 20:-1 21:-1 22:1 24:-1 25:-1 26:-1 27:-1 28:-1 29:-1 30:-0.975 32:-1 33:-1 34:-1 35:-1 37:-1 38:-1 39:-1 40:0.5 41:-1 42:-1 43:-1 44:-1 45:-0.25 47:1 48:-1 
28.73026378540955 0 1:-1 2:-1 3:1 4:-1 5:-1 6:-1 7:-1 8:-1 9:-1 10:-1 11:-1 12:-1 13:-1 14:-1 15:-1 16:-1 17:-1 18:-1 19:-1 20:-1 21:-1 22:1 24:-1 25:-1 26:-1 27:-1 28:-1 29:-1 30:-0.95 32:-1 33:-1 34:-1 35:-1 37:-1 38:-1 39:-1 40:0.5 41:-1 42:-1 43:-1 44:-1 46:0.5 47:-1 48:1 
8.951557302094892 0 1:0.5 2:-1 3:1 4:-1 5:-1 6:-1 7:-1 8:-1 9:-1 10:-1 11:-1 12:-1 13:-1 14:-1 15:-1 16:-1 17:-1 18:-1 19:-1 20:-1 21:-1 22:1 24:-1 25:-1 26:-1 27:-1 28:-1 29:-1 30:0.660516 32:-1 33:-1 34:-1 35:-1 37:-1 38:-1 39:-1 40:0.181818 41:-1 42:-1 43:-1 44:-1 45:0.0909091 46:0.0909091 47:-1 48:1 
0 0.2669645984039985 1:1 2:-1 3:-1 4:-1 5:-1 6:-1 7:-1 8:-1 9:-1 10:-1 11:-1 12:-1 13:-1 14:-1 15:-1 16:-1 17:-1 18:-1 19:-1 20:-1 21:-1 22:-1 24:-1 25:-1 26:-1 27:-1 28:1 29:-1 30:0.703296 32:-1 33:-1 34:-1 35:-1 37:-1 38:-1 39:1 40:-0.4 41:-1 42:-1 43:-1 44:-1 45:-0.194737 47:-1 48:-1 
0 3.844258459106399 1:-0.6 2:-0.6 3:-0.6 4:-0.2 5:-1 6:-1 7:-0.6 8:-1 9:-1 10:-1 11:-1 12:-1 13:-1 14:-1 15:-1 16:-1 17:-1 18:-1 19:-1 20:-1 21:-1 22:-0.6 24:-1 25:-1 26:-1 27:-1 28:-1 29:-1 30:0.747252 32:-1 33:-1 34:-1 35:-1 37:-1 38:-1 39:1 40:-0.48 41:-1 42:-1 43:-1 44:-1 45:0.06 46:-0.0177778 47:-1 48:1 
0 0.6080246973500549 1:0.2 2:-1 3:-0.6 4:-0.6 5:-1 6:-1 7:-1 8:-0.6 9:-1 10:-1 11:-1 12:-1 13:-1 14:-1 15:-1 16:-1 17:-1 18:-1 19:-1 20:-1 21:-1 22:-0.6 24:-1 25:-1 26:-1 27:-1 28:1 29:-1 30:0.802198 32:-1 33:-1 34:-1 35:-1 37:-1 38:-1 39:1 40:-0.436364 41:-1 42:-1 43:-1 44:-1 45:0.0262626 46:-0.0027972 47:1 48:-1 
21.41059289237358 0 1:0.5 2:-1 3:1 4:-1 5:-1 6:-1 7:-1 8:-1 9:-1 10:-1 11:-1 12:-1 13:-1 14:-1 15:-1 16:-1 17:-1 18:-1 19:-1 20:-1 21:-1 22:1 24:-1 25:-1 26:-1 27:-1 28:-1 29:-1 30:0.174604 32:-1 33:-1 34:-1 35:-1 37:-1 38:-1 39:-1 40:0.25 41:-1 42:-1 43:-1 44:-1 45:0.125 46:0.125 47:-1 48:-1 
1.763863561470222 0 1:0.5 2:-0.5 3:1 4:-1 5:-1 6:-1 7:-0.5 8:-1 9:-1 10:-1 11:-1 12:-1 13:-1 14:-1 15:-1 16:-1 17:-1 18:-1 19:-1 20:-1 21:-1 22:1 24:-1 25:-1 26:-1 27:-1 28:-1 29:-1 30:0.798942 32:-1 33:-1 34:-1 35:-1 37:-1 38:-1 39:-1 40:0.25 41:-1 42:-1 43:-1 44:-1 45:0.125 46:0.125 47:-1 48:-1 
0.2793836746756551 0 1:-1 2:-1 3:1 4:-1 5:-1 6:-1 7:-1 8:-1 9:-1 10:-1 11:-1 12:-1 13:-1 14:1 15:-1 16:-1 17:-1 18:-1 19:-1 20:-1 21:-1 22:1 24:-1 25:-1 26:-1 27:-1 28:-1 29:-1 30:0.884956 32:-1 33:-1 34:-1 35:-1 37:1 38:-1 39:-1 41:-1 42:-1 43:-1 44:-1 47:-1 48:-1 
0 26.59571327368747 1:0.333334 2:-0.333334 3:0.333334 4:-1 5:-1 6:-1 7:-0.333334 8:-1 9:-1 10:-1 11:-0.333334 12:-1 13:-1 14:-1 15:-1 16:-1 17:-1 18:-1 19:-1 20:-1 21:-1 22:-0.333334 24:-1 25:-1 26:-1 27:-1 28:1 29:-1 30:-0.935484 32:-1 33:-1 34:-1 35:-1 37:-1 38:-1 39:1 41:-1 42:-1 43:-1 44:-1 47:-1 48:-1 
0.4901617340234742 0 1:-1 2:-1 3:1 4:-1 5:-1 6:-1 7:-1 8:-1 9:-1 10:-1 11:-1 12:-1 13:-1 14:-1 15:-1 16:1 17:-1 18:-1 19:-1 20:-1 21:-1 22:-1 24:-1 25:-1 26:-1 27:-1 28:1 29:-1 30:-0.924731 32:-1 33:-1 34:-1 35:1 37:-1 38:-1 39:-1 41:1 42:-1 43:-1 44:1 46:-0.5 47:-1 48:-1 
0 32 1:-0.333334 2:-1 3:0.333334 4:-1 5:-1 6:-1 7:-1 8:-1 9:-1 10:-1 11:-1 12:-1 13:-1 14:-1 15:-0.666666 16:-1 17:-1 18:-1 19:-1 20:-1 21:-1 22:-0.666666 24:-1 25:-1 26:-1 27:-1 28:-1 29:-0.333334 30:-0.44086 32:-1 33:-1 34:-1 35:-1 37:-1 38:-1 39:1 41:-1 42:-1 43:-1 44:-1 47:-1 48:-1 
0.1020093445925064 27.30667504540877 1:0.5 2:-1 3:1 4:-1 5:-1 6:-1 7:-1 8:-1 9:-1 10:-1 11:-1 12:-1 13:-1 14:-1 15:-1 16:-1 17:-0.5 18:-1 19:-1 20:-1 21:-1 22:-1 24:-1 25:-1 26:-1 27:-1 28:-1 29:-1 30:-0.991398 32:-1 33:-1 34:-1 35:-1 37:-1 38:-1 39:1 40:0.4 41:1 42:-1 43:-1 44:-1 47:-1 48:-1 
