svm_type c_svc
kernel_type rbf
gamma 0.07125
nr_class 3
total_sv 723
rho 0.13758 -6.37348 -3.92633
label -1 2 1
nr_sv 388 148 187
SV
3.249830566207079 0 1:1 2:-1 3:1 4:-1 5:-1 6:-1 7:-1 8:-1 9:-1 10:-1 11:-1 12:-1 13:-1 14:-1 15:-1 16:-1 17:-1 18:-1 19:-1 20:-1 21:-1 22:1 24:-1 25:-1 26:-1 27:-1 28:-1 29:1 30:-0.68254 32:1 33:-1 34:-1 35:-1 37:-1 38:-1 39:-1 40:1 
30.40859558954713 0 1:-0.666666 2:-1 3:0.666666 4:-1 5:-1 6:-1 7:-1 8:-1 9:-1 10:-1 11:-1 12:-1 13:-1 14:-1 15:-1 16:-0.666666 17:-1 18:-1 19:-1 20:-1 21:-1 24:-1 25:-1 26:-1 27:-1 28:-1 29:-1 30:-1 32:-1 33:-1 34:-1 35:-1 37:-1 38:-1 39:1 40:0.285714 
0 32 1:1 2:-1 3:1 4:-1 5:-1 6:-1 7:-1 8:-1 9:-1 10:-1 11:-1 12:-1 13:-1 14:-1 16:-1 17:-1 18:-1 19:-1 20:-1 21:-1 22:-1 24:-1 25:-1 26:-1 27:-1 28:1 29:-1 30:-0.933333 32:1 33:-1 34:-1 35:-1 37:-1 38:-1 39:1 40:0.142858 
5.697439210497991 7.2680335184105 1:-1 2:-1 3:1 4:-1 5:-1 6:-1 7:-1 8:-1 9:-1 10:-1 11:-1 12:-1 13:-1 14:-1 15:-1 16:-1 17:-1 18:-1 19:-1 20:-1 21:-1 22:-1 24:-1 25:-1 26:-1 27:-1 28:1 29:-1 30:-0.925 32:-1 33:-1 34:-1 35:-1 37:-1 38:-1 39:1 40:0.142858 
0 0.3730726628489076 1:0.5 2:-1 4:-1 5:-1 6:-1 7:-1 8:-1 9:-1 10:-1 11:-1 12:-1 13:-1 14:-0.5 15:-1 17:-1 18:-1 19:-1 20:-1 21:-1 22:-1 24:-1 25:-1 26:-1 27:-1 28:-1 29:1 30:-0.964286 32:-1 33:-1 34:-1 35:-1 37:-1 38:-1 39:1 40:-0.25 
0 32 2:-1 5:-1 6:-1 7:-1 8:-1 9:-1 10:-1 11:-1 12:-1 13:-1 14:-1 16:-1 17:-1 18:-1 19:-1 20:-1 21:-1 22:-1 24:-1 25:-1 26:-1 27:-1 28:-1 29:-1 30:-1 32:-1 33:-1 34:-1 35:-1 37:-1 38:-1 39:1 40:-0.5 
0 32 1:0.25 2:-0.5 3:0.25 4:-1 5:-1 6:-1 7:-0.5 8:-1 9:-1 10:-1 11:-0.5 12:-1 13:-1 14:-0.75 15:-0.75 16:-1 17:-1 18:-1 19:-1 20:-1 21:-1 22:-0.25 24:-1 25:-1 26:-1 27:-1 28:-1 29:-1 30:-0.4 32:-1 33:-1 34:-1 35:-1 37:-1 38:-1 39:1 
0.01012815373481029 0 1:1 2:1 3:1 4:-1 5:-1 6:-1 7:-1 8:-1 9:-1 10:-1 11:-1 12:-1 13:-1 14:-1 15:-1 16:-0.333334 17:-1 18:-1 19:-1 20:-1 21:-1 22:0.333334 24:-1 25:-1 26:-1 27:-1 28:-1 29:-1 30:-1 32:1 33:-1 34:-1 35:-1 37:-1 38:-1 39:1 40:1 
0 32 1:-0.142858 2:-1 3:-0.142858 4:-0.857143 5:-0.857143 6:-1 7:-1 8:-1 9:-1 10:-1 11:-1 12:-1 13:-1 14:-0.142858 15:-0.428572 16:-0.857143 17:-1 18:-1 19:-1 20:-1 21:-1 22:-1 24:-1 25:-1 26:-1 27:-1 28:-1 29:-1 30:-0.394286 32:-1 33:-1 34:-1 35:-1 37:-1 38:-1 39:1 
0 32 1:-0.333334 2:-1 3:-0.2 4:-0.866667 5:-0.866667 6:-1 7:-1 8:-1 9:-1 10:-1 11:-1 12:-1 13:-1 14:-0.2 15:-0.333334 16:-1 17:-1 18:-1 19:-1 20:-1 21:-1 22:-0.866667 24:-1 25:-1 26:-1 27:-1 28:-1 29:-1 30:-0.165714 32:-1 33:-1 34:-1 35:-1 37:-1 38:-1 39:1 
0 32 1:1 2:1 3:1 4:-1 5:-1 6:-1 7:-1 8:-1 9:-1 10:-1 11:-1 12:-1 13:-1 14:-1 15:1 16:-1 17:-1 18:-1 19:-1 20:-1 21:-1 22:-1 24:-1 25:-1 26:-1 27:-1 28:-1 29:-1 30:-0.830258 32:1 33:-1 34:1 35:-1 37:-1 38:-1 39:-1 40:-0.2 
0 0.02426683649628705 1:1 2:1 3:1 4:-1 5:-1 6:-1 7:-1 8:-1 9:-1 10:-1 11:-1 12:-1 13:-1 14:-1 15:1 16:-1 17:-1 18:-1 19:-1 20:-1 21:-1 22:-1 24:-1 25:-1 26:-1 27:-1 28:-1 29:-1 30:-0.756458 32:1 33:-1 34:1 35:-1 37:-1 38:-1 39:-1 40:-0.2 
0 32 1:-0.272728 2:-0.454546 3:0.09091 4:-0.09091 5:-1 6:-1 7:-0.636364 8:-1 9:-1 10:-1 11:-1 12:-1 13:-1 14:-1 15:-1 16:-1 17:-1 18:-1 19:-1 20:-1 21:-1 22:-1 24:-1 25:-1 26:-1 27:-1 28:-1 29:-1 30:-0.308642 32:-1 33:-1 34:-1 35:-1 37:-1 38:-1 39:1 40:-0.156862 
0.5120448653461682 0 1:-1 2:-1 3:-1 4:-1 5:-1 6:-1 7:-1 8:-1 9:-1 10:-1 11:-1 12:-1 13:1 14:-1 15:-1 16:-1 17:-1 18:-1 19:-1 20:-1 21:-1 22:-1 24:-1 25:-1 26:-1 27:-1 28:-1 29:-1 30:0.989304 32:-1 33:-1 34:-1 35:-1 37:-1 38:-1 39:1 40:-1 
2.0637118037877 0 1:-0.674418 2:-0.906977 3:0.023256 4:-0.72093 5:-0.860465 6:-0.906977 7:-0.906977 8:-1 9:-1 10:-0.906977 11:-0.674418 12:-1 13:-1 14:-0.906977 15:-0.953488 16:-0.906977 17:-1 18:-1 19:-1 20:-1 21:-1 22:-0.302326 24:-1 25:-1 26:-1 27:-1 28:-1 29:-1 30:1 32:-1 33:-1 34:-1 35:-1 37:-1 38:-1 39:1 40:-1 
32 0 1:0.666666 2:-0.666666 3:1 4:-1 5:-1 6:-1 7:-0.666666 8:-1 9:-1 10:-1 11:-1 12:-1 13:-1 14:-1 15:-1 16:-1 17:-1 18:-1 19:-1 20:-1 21:-1 22:0.666666 24:-1 25:-1 26:-1 27:-1 28:-1 29:-1 30:-1 32:-1 33:-1 34:-1 35:-1 37:-1 38:-1 39:1 40:0.294118 
32 0 1:-0.818182 2:-1 3:1 4:-1 5:-1 6:-1 7:-1 8:-1 9:-1 10:-1 11:-1 12:-1 13:-1 14:-1 15:-1 16:-1 17:-1 18:-1 19:-1 20:-1 21:-1 22:1 24:-1 25:-1 26:-1 27:-1 28:-1 29:-1 30:-0.962617 32:-1 33:-1 34:-1 35:-1 37:-1 38:-1 39:-1 40:0.294118 
29.2848560356074 0 1:-0.25 2:-1 3:0.75 4:-1 5:-1 6:-1 7:-1 8:-1 9:-1 10:-0.75 11:-1 12:-1 13:-1 14:-1 15:-1 16:-1 17:-1 18:-1 19:-1 20:-1 21:-1 22:0.75 24:-1 25:-1 26:-1 27:-1 28:-1 29:-1 30:-0.915888 32:-1 33:-1 34:-1 35:-1 37:-1 38:-1 39:1 40:0.17647 
0 32 1:0.09091 2:-0.818182 3:-0.09091 4:-0.818182 5:-1 6:-1 7:-1 8:-0.818182 9:-1 10:-1 11:-0.818182 12:-1 13:-1 14:-0.636364 15:-0.818182 16:-1 17:-1 18:-1 19:-1 20:-1 21:-1 22:-1 24:-1 25:-1 26:-1 27:-1 28:-1 29:-1 30:0.869158 32:-1 33:-1 34:-1 35:-1 37:-1 38:-1 39:1 40:-0.025 
32 0 1:1 2:-1 3:1 4:-1 5:-1 6:-1 7:-1 8:-1 9:-1 10:-1 11:-1 12:-1 13:-1 14:-1 15:-1 16:-1 17:-1 18:-1 19:-1 20:-1 21:-1 22:1 24:-1 25:-1 26:-1 27:-1 28:-1 29:-1 30:-0.411764 32:1 33:-1 34:-1 35:-1 37:-1 38:-1 39:-1 40:0.6 
32 0 1:1 2:-0.333334 3:1 4:-1 5:-1 6:-1 7:-1 8:-1 9:-1 10:-1 11:-1 12:-1 13:-1 14:-1 15:-1 16:-1 17:-1 18:-1 19:-1 20:-1 21:-1 22:0.333334 24:-1 25:-1 26:-1 27:-1 28:1 29:-1 30:-1 32:1 33:-1 34:-1 35:-1 37:-1 38:-1 39:1 40:1 
0 32 1:-0.04762 2:-0.714286 3:-0.04762 4:-1 5:-1 6:-1 7:-0.714286 8:-1 9:-1 10:-0.904762 11:-1 12:-0.714286 13:-1 14:-1 15:-0.619048 16:-0.904762 17:-1 18:-1 19:-1 20:-1 21:-1 22:-0.714286 24:-0.904762 25:-1 26:-1 27:-1 28:-1 29:-1 30:-0.88535 32:-1 33:-1 34:-1 35:-1 37:-1 38:-1 39:1 40:-0.5 
0 32 1:-0.09091 2:-1 3:-0.636364 4:-0.636364 5:-1 6:-1 7:-1 8:-1 9:-1 10:-1 11:-1 12:-1 13:-1 14:-1 15:-1 16:-0.636364 17:-1 18:-1 19:-1 20:-1 21:-1 22:-1 24:-1 25:-1 26:-1 27:-1 28:-1 29:-0.818182 30:-0.579618 32:-1 33:-1 34:-1 35:-1 37:-1 38:-1 39:1 
0 16.36493915709154 1:-0.2 2:-1 3:-0.466666 4:-0.6 5:-1 6:-1 7:-1 8:-1 9:-1 10:-1 11:-1 12:-1 13:-1 14:-0.866667 15:-1 16:-0.733334 17:-1 18:-1 19:-1 20:-1 21:-1 22:-1 24:-1 25:-1 26:-1 27:-1 28:-1 29:-1 30:-0.541402 32:-1 33:-1 34:-1 35:-1 37:-1 38:-1 39:1 
0 1.98102797158483 1:0.333334 2:-0.333334 3:0.333334 4:-0.333334 5:-1 6:-1 7:-0.333334 8:-1 9:-1 10:-1 11:-1 12:-1 13:-1 14:-1 15:-0.333334 16:-1 17:-1 18:-1 19:-1 20:-1 21:-1 22:-0.333334 24:-1 25:-1 26:-1 27:-1 28:-1 29:-1 30:0.846154 32:-1 33:-1 34:-1 35:-1 37:-1 38:-1 39:1 40:-0.071428 
0 25.24989765405915 1:0.333334 2:-0.333334 3:0.333334 4:-0.333334 5:-1 6:-1 7:-0.333334 8:-1 9:-1 10:-1 11:-1 12:-1 13:-1 14:-1 15:-0.333334 16:-1 17:-1 18:-1 19:-1 20:-1 21:-1 22:-0.333334 24:-1 25:-1 26:-1 27:-1 28:-1 29:-1 30:0.9638 32:-1 33:-1 34:-1 35:-1 37:-1 38:-1 39:1 40:-0.071428 
32 0 1:0.5 2:-1 3:1 4:-1 5:-1 6:-1 7:-1 8:-1 9:-1 10:-1 11:-1 12:-1 13:-1 14:-1 15:-1 16:-1 17:-1 18:-1 19:-1 20:-1 21:-1 22:0.5 24:-1 25:-0.5 26:-1 27:-1 28:1 29:-1 30:-0.991837 32:-1 33:-1 34:-1 35:-1 37:-1 38:-1 39:1 40:1 
32 0 1:0.2 2:-1 3:1 4:-1 5:-1 6:-1 7:-1 8:-1 9:-1 10:-1 11:-1 12:-1 13:-1 14:-1 15:-0.6 16:-1 17:-1 18:-1 19:-1 20:-1 21:-1 22:0.6 24:-1 25:-1 26:-1 27:-1 28:-1 29:-1 30:-0.069388 32:-1 33:-1 34:-1 35:-1 37:-1 38:-1 39:1 40:1 
32 0 1:0.6 2:-1 3:0.6 4:-1 5:-1 6:-1 7:-1 8:-1 9:-1 10:-0.8 11:-1 12:-1 13:-1 14:-1 15:-1 16:-1 17:-1 18:-1 19:-1 20:-1 21:-1 22:0.4 24:-1 25:-1 26:-1 27:-1 28:-1 29:-1 30:0.67347 32:-1 33:-1 34:-1 35:-1 37:-1 38:-1 39:1 40:1 
0 12.29834684645674 1:0.25 2:-1 3:0.5 4:-1 5:-1 6:-1 7:-1 8:-1 9:-1 10:-1 11:-1 12:-1 13:-1 14:-0.25 15:-0.5 16:-1 17:-1 18:-1 19:-1 20:-1 21:-1 22:-0.75 24:-1 25:-1 26:-1 27:-1 28:-1 29:-1 30:0.844898 32:-1 33:-1 34:-1 35:-1 37:-1 38:-1 39:1 
3.652965177919564 0 1:1 2:1 3:1 4:-1 5:-1 6:-1 7:-1 8:-1 9:-1 10:-1 11:-1 12:-1 13:-1 14:-1 15:-1 16:-0.333334 17:-1 18:-1 19:-1 20:-1 21:-1 22:0.333334 24:-1 25:-1 26:-1 27:-1 28:-1 29:-1 30:-1 32:1 33:-1 34:-1 35:-1 37:-1 38:-1 39:1 40:1 
0 32 1:0.333334 2:-0.333334 3:0.333334 4:-1 5:-1 6:-1 7:-0.333334 8:-1 9:-1 10:-1 11:-0.666666 12:-1 13:-1 14:-1 15:-0.666666 16:-1 17:-1 18:-1 19:-1 20:-1 21:-1 22:-0.666666 24:-1 25:-1 26:-1 27:-1 28:-1 29:-1 30:-0.849462 32:-1 33:-1 34:-1 35:-1 37:-1 38:-1 39:1 
0 2.153304064492334 1:-0.5 2:-1 3:0.125 4:-1 5:-1 6:-1 7:-1 8:-1 9:-1 10:-0.875 11:-0.875 12:-1 13:-1 14:-0.375 15:-0.875 16:-1 17:-1 18:-1 19:-1 20:-1 21:-1 22:-0.375 24:-1 25:-1 26:-0.875 27:-1 28:-0.75 29:-0.75 30:-0.840336 32:-1 33:-1 34:-1 35:-1 37:-1 38:-1 39:1 
32 0 1:-0.818182 2:-1 3:0.636364 4:-1 5:-1 6:-1 7:-1 8:-0.818182 9:-1 10:-1 11:-1 12:-1 13:-1 14:-0.636364 15:-1 16:-1 17:-1 18:-1 19:-1 20:-1 21:-1 22:0.636364 24:-1 25:-1 26:-1 27:-1 28:-1 29:-1 30:-0.888889 32:-1 33:-1 34:-1 35:-1 37:-1 38:-1 39:1 40:0.5 
32 0 1:-1 2:-1 3:1 4:-1 5:-1 6:-1 7:-1 8:-1 9:-1 10:-1 11:-1 12:-1 13:-1 14:-1 15:-1 16:-1 17:-1 18:-1 19:-1 20:-1 21:-1 22:0.5 24:-1 25:-1 26:-1 27:-1 28:-1 29:-1 30:-0.861111 32:-1 33:-1 34:-1 35:-1 37:-1 38:-1 39:1 40:0.5 
32 0 1:-1 2:-1 3:0.714286 4:-1 5:-1 6:-1 7:-1 8:-1 9:-1 10:-1 11:-1 12:-1 13:-1 14:-0.714286 15:-1 16:-1 17:-1 18:-1 19:-1 20:-1 21:-1 22:0.714286 24:-1 25:-1 26:-1 27:-1 28:-1 29:-1 30:-0.833333 32:-1 33:-1 34:-1 35:-1 37:-1 38:-1 39:1 40:0.5 
32 0 1:-0.833333 2:-1 3:0.833334 4:-1 5:-1 6:-1 7:-1 8:-1 9:-1 10:-1 11:-0.833333 12:-1 13:-1 14:-1 15:-0.833333 16:-0.833333 17:-1 18:-1 19:-1 20:-1 21:-1 22:0.333334 24:-1 25:-1 26:-1 27:-1 28:-1 29:-1 30:-0.805556 32:-1 33:-1 34:-1 35:-1 37:-1 38:-1 39:1 40:0.5 
32 0 1:-1 2:-1 3:1 4:-1 5:-1 6:-1 7:-1 8:-1 9:-1 10:-1 11:-1 12:-1 13:-1 14:-1 15:-1 16:-0.8 17:-1 18:-1 19:-1 20:-1 21:-1 22:0.8 24:-1 25:-1 26:-1 27:-1 28:-1 29:-1 30:-0.777778 32:-1 33:-1 34:-1 35:-1 37:-1 38:-1 39:1 40:0.490566 
32 0 1:-0.777778 2:-1 3:0.777778 4:-1 5:-1 6:-1 7:-1 8:-1 9:-1 10:-1 11:-1 12:-1 13:-1 14:-0.777778 15:-1 16:-0.777778 17:-1 18:-1 19:-1 20:-1 21:-1 22:0.111112 24:-1 25:-1 26:-1 27:-1 28:-1 29:-1 30:-0.75 32:-1 33:-1 34:-1 35:-1 37:-1 38:-1 39:1 40:0.5 
32 0 1:-1 2:-1 3:0.846154 4:-1 5:-1 6:-1 7:-1 8:-1 9:-1 10:-1 11:-1 12:-1 13:-1 14:-1 15:-1 16:-1 17:-1 18:-1 19:-1 20:-1 21:-1 22:0.692308 24:-1 25:-1 26:-1 27:-1 28:-1 29:-1 30:-0.722222 32:-1 33:-1 34:-1 35:-1 37:-1 38:-1 39:1 40:0.48077 
32 0 1:-0.75 2:-1 3:0.75 4:-1 5:-1 6:-1 7:-1 8:-1 9:-1 10:-1 11:-0.75 12:-1 13:-1 14:-1 15:-1 16:-1 17:-1 18:-1 19:-1 20:-1 21:-1 22:0.5 24:-1 25:-1 26:-1 27:-1 28:-1 29:-1 30:-0.694444 32:-1 33:-1 34:-1 35:-1 37:-1 38:-1 39:1 40:0.5 
32 0 1:-1 2:-1 3:0.833334 4:-1 5:-1 6:-1 7:-1 8:-1 9:-1 10:-1 11:-1 12:-1 13:-1 14:-0.666666 15:-1 16:-0.833333 17:-1 18:-1 19:-1 20:-1 21:-1 22:0.333334 24:-1 25:-1 26:-1 27:-1 28:-1 29:-1 30:-0.666666 32:-1 33:-1 34:-1 35:-1 37:-1 38:-1 39:1 40:0.5 
32 0 1:-1 2:-1 3:0.818182 4:-1 5:-1 6:-1 7:-1 8:-1 9:-1 10:-1 11:-1 12:-1 13:-1 14:-0.818182 15:-1 16:-0.818182 17:-1 18:-1 19:-1 20:-1 21:-1 22:0.454546 24:-1 25:-1 26:-1 27:-1 28:-1 29:-1 30:-0.638888 32:-1 33:-1 34:-1 35:-1 37:-1 38:-1 39:1 40:0.5 
32 0 1:-0.8 2:-1 3:1 4:-1 5:-1 6:-1 7:-1 8:-1 9:-1 10:-1 11:-1 12:-1 13:-1 14:-1 15:-1 16:-0.8 17:-1 18:-1 19:-1 20:-1 21:-1 22:0.6 24:-1 25:-1 26:-1 27:-1 28:-1 29:-1 30:-0.583334 32:-1 33:-1 34:-1 35:-1 37:-1 38:-1 39:1 40:0.5 
32 0 1:-1 2:-1 3:1 4:-1 5:-1 6:-1 7:-1 8:-1 9:-1 10:-1 11:-1 12:-1 13:-1 14:-1 15:-1 16:-0.777778 17:-1 18:-1 19:-1 20:-1 21:-1 22:0.777778 24:-1 25:-1 26:-1 27:-1 28:-1 29:-1 30:-0.444444 32:-1 33:-1 34:-1 35:-1 37:-1 38:-1 39:1 40:0.5 
0.5032320146830795 0 1:-1 2:-1 3:1 4:-1 5:-1 6:-1 7:-1 8:-1 9:-1 10:-1 11:-1 12:-1 13:-1 14:-0.8 15:-1 16:-1 17:-1 18:-1 19:-1 20:-1 21:-1 22:1 24:-1 25:-1 26:-1 27:-1 28:-1 29:-1 30:-0.416666 32:-1 33:-1 34:-1 35:-1 37:-1 38:-1 39:-1 40:0.5 
32 0 1:-0.6 2:-1 3:0.8 4:-1 5:-1 6:-1 7:-1 8:-1 9:-1 10:-1 11:-1 12:-1 13:-1 14:-0.8 15:-1 16:-0.8 17:-1 18:-1 19:-1 20:-1 21:-1 22:0.6 24:-1 25:-1 26:-1 27:-1 28:-1 29:-1 30:-0.361112 32:-1 33:-1 34:-1 35:-1 37:-1 38:-1 39:1 40:0.5 
24.38543602750215 0 1:-1 2:-1 3:1 4:-1 5:-1 6:-1 7:-1 8:-1 9:-1 10:-1 11:-1 12:-1 13:-1 14:-1 15:-0.75 16:-1 17:-1 18:-1 19:-1 20:-1 21:-1 22:0.5 24:-1 25:-1 26:-1 27:-1 28:-1 29:-1 30:-0.25 32:-1 33:-1 34:-1 35:-1 37:-1 38:-1 39:1 40:0.5 
0 32 1:-0.6 2:-0.866667 3:-0.466666 4:-0.6 5:-1 6:-1 7:-1 8:-1 9:-1 10:-1 11:-0.6 12:-1 13:-1 14:-0.866667 15:-1 16:-1 17:-1 18:-1 19:-1 20:-1 21:-1 22:-1 24:-1 25:-1 26:-1 27:-1 28:-1 29:-1 30:-0.917197 32:-1 33:-1 34:-1 35:-1 37:-1 38:-1 39:1 
0 32 1:1 2:-1 3:1 4:-1 5:-1 6:-1 7:-1 8:-1 9:-1 10:-1 11:-1 12:-1 13:-1 14:-1 15:-1 16:1 17:-1 18:-1 19:-1 20:-1 21:-1 22:-1 24:-1 25:-1 26:-1 27:-1 28:-1 29:-1 30:-0.976331 32:1 33:-1 34:-1 35:1 37:-1 38:-1 39:-1 40:0.4 
0 2.577456961922088 1:-1 2:-1 3:-1 4:0.333334 5:-1 6:-1 7:-1 8:-1 9:-1 10:-1 11:-0.333334 12:-1 13:-1 14:-1 15:-1 16:-1 17:-1 18:-1 19:-1 20:-1 21:-1 22:-1 24:-1 25:-1 26:-1 27:-1 28:1 29:-1 30:-1 32:-1 33:-1 34:-1 35:-1 37:-1 38:-1 39:1 40:0.764706 
0 32 1:0.333334 2:-1 3:0.333334 4:-1 5:-1 6:-1 7:-1 8:-1 9:-1 10:-1 11:-1 12:-1 13:-1 14:-1 15:-0.333334 16:-0.333334 17:-1 18:-1 19:-1 20:-1 21:-1 22:-1 24:-1 25:-1 26:-1 27:-1 28:-1 29:-1 30:-0.837838 32:-1 33:-1 34:-1 35:-1 37:-1 38:-1 39:1 
32 0 1:1 2:1 3:1 4:-1 5:-1 6:-1 7:-1 8:-1 9:-1 10:-1 11:-1 12:-1 13:-1 14:-1 15:-1 16:-1 17:-1 18:-1 19:-1 20:-1 21:-1 22:1 24:-1 25:-1 26:-1 27:-1 28:-1 29:-1 30:-1 32:1 33:-1 34:-1 35:-1 37:-1 38:-1 39:-1 40:1 
0 12.72348128960264 1:0.384616 2:-1 3:0.538462 4:-1 5:-1 6:-1 7:-1 8:-1 9:-1 10:-1 11:-1 12:-1 13:-1 14:-0.692308 15:-0.692308 16:-0.846154 17:-1 18:-1 19:-1 20:-1 21:-1 22:-0.23077 24:-1 25:-0.692308 26:-1 27:-1 28:-1 29:1 30:-0.901099 32:-1 33:-1 34:-1 35:-1 37:-1 38:-1 39:1 40:0.111112 
0 10.98413576210085 1:0.333334 2:-1 3:0.333334 4:-1 5:-1 6:-1 7:-1 8:-1 9:-1 10:-1 11:-1 12:-1 13:-1 14:-0.333334 15:-1 16:0.333334 17:-1 18:-1 19:-1 20:-1 21:-1 22:-1 24:-1 25:-1 26:-1 27:-1 28:-1 29:1 30:-0.846154 32:-1 33:-1 34:-1 35:-1 37:-1 38:-1 39:1 40:0.111112 
0 32 2:-1 3:-0.25 4:-1 5:-1 6:-1 7:-1 8:-1 9:-1 10:-1 11:-1 12:-1 13:-1 14:-0.5 15:-1 16:-1 17:-1 18:-0.75 19:-1 20:-1 21:-1 22:-0.75 24:-1 25:-1 26:-1 27:-1 28:-1 29:-1 30:-0.944444 32:-1 33:-1 34:-1 35:-1 37:-1 38:-1 39:1 40:0.25 
0 32 2:-1 3:-0.25 4:-1 5:-1 6:-1 7:-1 8:-1 9:-1 10:-1 11:-1 12:-1 13:-1 14:-0.5 15:-1 16:-1 17:-1 18:-0.75 19:-1 20:-1 21:-1 22:-0.75 24:-1 25:-1 26:-1 27:-1 28:-1 29:-1 30:-0.911111 32:-1 33:-1 34:-1 35:-1 37:-1 38:-1 39:1 40:0.25 
0 32 1:0.09091 2:-0.636364 3:-0.09091 4:-0.818182 5:-1 6:-0.818182 7:-1 8:-0.818182 9:-1 10:-1 11:-1 12:-1 13:-1 14:-0.454546 15:-1 16:-0.818182 17:-1 18:-1 19:-1 20:-1 21:-1 22:-0.818182 24:-1 25:-1 26:-1 27:-1 28:-1 29:-1 30:-0.877778 32:-1 33:-1 34:-1 35:-1 37:-1 38:-1 39:1 40:0.25 
0.09052441591294555 0 2:-1 5:-1 6:-1 7:-1 8:-1 9:-1 10:-1 11:-1 12:-1 13:-1 14:-1 15:-1 16:-1 17:-1 18:-1 19:-1 20:-1 21:-1 24:-1 25:-1 26:-1 27:-1 28:-1 29:-1 30:-0.75 32:-1 33:-1 34:-1 35:-1 37:-1 38:-1 39:1 40:0.4 
32 0 1:0.333334 2:-1 3:0.333334 4:-0.333334 5:-1 6:-1 7:-1 8:-1 9:-1 10:-1 11:-1 12:-1 13:-1 14:-1 15:-1 16:-1 17:-1 18:-1 19:-1 20:-1 21:-1 22:0.333334 24:-1 25:-1 26:-1 27:-1 28:-1 29:-1 30:-0.166666 32:-1 33:-1 34:-1 35:-1 37:-1 38:-1 39:1 40:0.4 
32 0 1:0.6 2:-1 3:0.6 4:-1 5:-1 6:-1 7:-1 8:-1 9:-1 10:-0.6 11:-1 12:-1 13:-1 14:-1 15:-1 16:-1 17:-1 18:-1 19:-1 20:-1 21:-1 22:0.2 24:-1 25:-1 26:-1 27:-1 28:-1 29:-1 30:-1 32:-1 33:-1 34:-1 35:-1 37:-1 38:-1 39:1 40:0.133334 
27.51937317285108 0 1:0.714286 2:-1 3:1 4:-1 5:-1 6:-1 7:-1 8:-1 9:-1 10:-1 11:-1 12:-1 13:-1 14:-1 15:-1 16:-1 17:-1 18:-1 19:-1 20:-1 21:-1 22:1 24:-1 25:-1 26:-1 27:-1 28:-1 29:-1 30:-0.989796 32:-1 33:-1 34:-1 35:-1 37:-1 38:-1 39:-1 40:0.133334 
0 14.6328678861612 1:-0.333334 2:-1 3:0.333334 4:-1 5:-1 6:-1 7:-1 8:-1 9:-1 10:-1 11:-1 12:-1 13:-1 14:-1 15:-0.333334 16:-1 17:-1 18:-1 19:-1 20:-1 21:-1 22:-1 24:-1 25:-1 26:-1 27:-1 28:-1 29:-1 30:0.453552 32:-1 33:-1 34:-1 35:-1 37:-1 38:-1 39:1 
0.02507306553308932 0 1:1 2:-1 3:-1 4:-1 5:-1 6:-1 7:-1 8:1 9:-1 10:-1 11:-1 12:-1 13:-1 14:-1 15:-1 16:-1 17:-1 18:-1 19:-1 20:-1 21:-1 22:-1 24:-1 25:-1 26:-1 27:-1 28:-1 29:-1 30:0.96985 32:-1 33:-1 34:-1 35:-1 37:-1 38:-1 39:1 40:-0.125 
0 1.247740776424641 1:0.333334 2:-1 3:0.333334 4:-1 5:-1 6:-1 7:-1 8:-1 9:-1 10:-1 11:-1 12:-1 13:-1 14:-1 15:-0.333334 16:-0.333334 17:-1 18:-1 19:-1 20:-1 21:-1 22:-1 24:-1 25:-1 26:-1 27:-1 28:-1 29:-1 30:1 32:-1 33:-1 34:-1 35:-1 37:-1 38:-1 39:1 40:-0.4 
26.64610655540323 0 1:0.142858 2:-1 3:0.714286 4:-1 5:-1 6:-1 7:-1 8:-1 9:-1 10:-1 11:-1 12:-1 13:-1 14:-1 15:-1 16:-0.714286 17:-1 18:-1 19:-1 20:-1 21:-1 22:0.142858 24:-1 25:-1 26:-1 27:-1 28:-1 29:-1 30:-1 32:-1 33:-1 34:-1 35:-1 37:-1 38:-1 39:1 40:0.1875 
32 0 1:0.25 2:-1 3:1 4:-1 5:-1 6:-1 7:-1 8:-1 9:-1 10:-1 11:-1 12:-1 13:-1 14:-1 15:-1 16:-0.5 17:-1 18:-1 19:-1 20:-1 21:-1 22:0.5 24:-1 25:-1 26:-1 27:-1 28:-1 29:-1 30:-0.990698 32:-1 33:-1 34:-1 35:-1 37:-1 38:-1 39:1 40:0.1875 
0 32 1:-0.111112 2:-0.555556 3:-0.111112 4:-0.888889 5:-1 6:-1 7:-0.555556 8:-1 9:-1 10:-1 11:-0.444444 12:-1 13:-1 14:-0.555556 15:-1 16:-1 17:-1 18:-1 19:-1 20:-1 21:-1 22:-0.555556 24:-1 25:-1 26:-1 27:-1 28:-1 29:-1 30:-0.767442 32:-1 33:-1 34:-1 35:-1 37:-1 38:-1 39:1 
0 32 1:-0.28 2:-0.6 3:-0.28 4:-0.68 5:-0.84 6:-1 7:-0.6 8:-1 9:-1 10:-1 11:-0.52 12:-1 13:-1 14:-0.68 15:-0.92 16:-1 17:-1 18:-1 19:-1 20:-1 21:-1 22:-0.52 24:-1 25:-1 26:-1 27:-1 28:-1 29:-1 30:-0.748838 32:-1 33:-1 34:-1 35:-1 37:-1 38:-1 39:1 
0 32 1:-0.130434 2:-0.47826 3:-0.130434 4:-0.826087 5:-1 6:-0.826087 7:-0.47826 8:-1 9:-1 10:-1 11:-0.391304 12:-1 13:-1 14:-0.652174 15:-0.913043 16:-0.826087 17:-1 18:-1 19:-1 20:-1 21:-1 22:-0.391304 24:-1 25:-1 26:-1 27:-1 28:-1 29:-1 30:-0.72093 32:-1 33:-1 34:-1 35:-1 37:-1 38:-1 39:1 
0 32 1:-0.04762 2:-0.52381 3:-0.04762 4:-0.904762 5:-1 6:-0.904762 7:-0.52381 8:-1 9:-1 10:-1 11:-0.428572 12:-1 13:-1 14:-0.619048 15:-0.904762 16:-1 17:-1 18:-1 19:-1 20:-1 21:-1 22:-0.428572 24:-1 25:-1 26:-1 27:-1 28:-1 29:-1 30:-0.702326 32:-1 33:-1 34:-1 35:-1 37:-1 38:-1 39:1 
0 32 2:-0.4 4:-1 5:-1 6:-1 7:-0.4 8:-1 9:-1 10:-1 11:-0.4 12:-1 13:-1 14:-0.6 15:-0.9 16:-0.9 17:-1 18:-1 19:-1 20:-1 21:-1 22:-0.4 24:-1 25:-1 26:-1 27:-1 28:-1 29:-1 30:-0.534884 32:-1 33:-1 34:-1 35:-1 37:-1 38:-1 39:1 
0 2.280064951294901 2:-0.416666 4:-1 5:-1 6:-1 7:-0.416666 8:-1 9:-1 10:-1 11:-0.333334 12:-1 13:-1 14:-0.666666 15:-0.75 16:-1 17:-1 18:-1 19:-1 20:-1 21:-1 22:-0.416666 24:-1 25:-1 26:-1 27:-1 28:-1 29:-1 30:-0.376744 32:-1 33:-1 34:-1 35:-1 37:-1 38:-1 39:1 
3.913401419037696 0 1:1 4:-1 5:-1 6:-1 7:-1 8:-1 9:-1 10:-1 11:-1 12:-1 13:-1 14:-1 15:-1 16:-1 17:-1 18:-1 19:-1 20:-1 21:-1 24:-1 25:-1 26:-1 27:-1 28:-1 29:-1 30:-0.885714 32:-1 33:-1 34:-1 35:-1 37:-1 38:-1 39:1 40:0.25 
6.555094342304085 0 2:-1 4:-1 5:-1 6:-1 7:-1 8:-1 9:-1 11:-1 12:-1 13:-1 14:-1 15:-1 16:-1 17:-1 18:-1 19:-1 20:-1 21:-1 24:-1 25:-1 26:-1 27:-1 28:-1 29:-1 30:-0.714286 32:-1 33:-1 34:-1 35:-1 37:-1 38:-1 39:1 40:0.2 
0 32 1:-0.4 2:-0.6 4:-1 5:-1 6:-1 7:-0.6 8:-1 9:-1 10:-1 11:-0.6 12:-1 13:-1 14:-0.6 15:-0.8 16:-1 17:-1 18:-1 19:-1 20:-1 21:-1 22:-0.2 24:-1 25:-1 26:-1 27:-1 28:1 29:-1 30:-0.67347 32:-1 33:-1 34:-1 35:-1 37:-1 38:-1 39:1 40:-0.031578 
0 32 1:0.066666 2:-0.333334 3:0.066666 4:-1 5:-1 6:-1 7:-0.333334 8:-1 9:-1 10:-1 11:-0.333334 12:-1 13:-1 14:-0.866667 15:-1 16:-1 17:-1 18:-1 19:-1 20:-1 21:-1 22:-0.333334 24:-1 25:-1 26:-1 27:-1 28:1 29:-1 30:-0.659864 32:-1 33:-1 34:-1 35:-1 37:-1 38:-1 39:1 
0.06452149041398621 0 1:1 2:1 3:1 4:-1 5:-1 6:-1 7:1 8:-1 9:-1 10:-1 11:-1 12:-1 13:-1 14:-1 15:-1 16:-1 17:-1 18:-1 19:-1 20:-1 21:-1 22:1 24:-1 25:-1 26:-1 27:-1 28:1 29:-1 30:1 32:1 33:1 34:-1 35:-1 37:-1 38:-1 39:-1 40:1 
12.00877269246735 32 1:1 2:-1 3:1 4:-1 5:-1 6:-1 7:-1 8:-1 9:-1 10:-1 11:-1 12:-1 13:-1 14:-1 16:-1 17:-1 18:-1 19:-1 20:-1 21:-1 22:-1 24:-1 25:-1 26:-1 27:-1 28:-1 29:-1 30:-0.885057 32:1 33:-1 34:-1 35:-1 37:-1 38:-1 39:1 40:0.428572 
0 32 1:-0.466666 2:-1 3:-0.2 4:-0.866667 5:-0.866667 6:-1 7:-1 8:-1 9:-1 10:-1 11:-1 12:-1 13:-1 14:-0.333334 15:-0.466666 16:-1 17:-1 18:-1 19:-1 20:-1 21:-1 22:-1 24:-1 25:-1 26:-1 27:-1 28:-1 29:-1 30:-0.586206 32:-1 33:-1 34:-1 35:-1 37:-1 38:-1 39:1 
0 32 1:-0.2 2:-0.6 3:0.2 4:-1 5:-1 6:-1 7:-0.6 8:-1 9:-1 10:-1 11:-0.6 12:-1 13:-1 14:-1 15:-1 16:-1 17:-1 18:-1 19:-1 20:-1 21:-1 22:-0.2 24:-1 25:-1 26:-1 27:-1 28:-1 29:-1 30:-0.959016 32:-1 33:-1 34:-1 35:-1 37:-1 38:-1 39:1 40:0.045454 
16.7821679395595 0 1:0.111112 2:-1 3:0.777778 4:-1 5:-1 6:-1 7:-1 8:-1 9:-1 10:-1 11:-1 12:-1 13:-1 14:-1 15:-1 16:-0.777778 17:-1 18:-1 19:-1 20:-1 21:-1 22:0.333334 24:-1 25:-1 26:-1 27:-1 28:-1 29:-1 30:0.932038 32:-1 33:-1 34:-1 35:-1 37:-1 38:-1 39:1 40:0.030304 
32 0 1:1 2:1 3:1 4:-1 5:-1 6:-1 7:-1 8:-1 9:-1 10:-1 11:-1 12:-1 13:-1 14:-1 15:-1 16:-1 17:-1 18:-1 19:-1 20:-1 21:-1 22:1 24:-1 25:-1 26:-1 27:-1 28:-1 29:-1 30:-0.993958 32:1 33:-1 34:-1 35:-1 37:-1 38:-1 39:-1 40:1 
32 0 1:-0.333334 2:-1 3:1 4:-1 5:-1 6:-1 7:-1 8:-1 9:-1 10:-1 11:-1 12:-1 13:-1 14:-1 15:-1 16:-1 17:-1 18:-1 19:-1 20:-1 21:-1 22:1 24:-1 25:-1 26:-1 27:-1 28:1 29:-1 30:-0.975831 32:-1 33:-1 34:-1 35:-1 37:-1 38:-1 39:-1 40:0.26087 
0 10.04607866559361 1:-0.466666 2:-0.733334 3:0.066666 4:-0.6 5:-1 6:-1 7:-0.733334 8:-1 9:-1 10:-1 11:-0.866667 12:-1 13:-1 14:-0.733334 15:-0.866667 16:-0.866667 17:-1 18:-1 19:-1 20:-1 21:-1 22:-0.333334 24:-1 25:-1 26:-1 27:-1 28:-0.733334 29:-0.466666 30:-0.963746 32:-1 33:-1 34:-1 35:-1 37:-1 38:-1 39:1 40:-0.5 
29.2459514177754 0 1:-0.333334 2:-1 3:1 4:-1 5:-1 6:-1 7:-1 8:-1 9:-1 10:-1 11:-1 12:-1 13:-1 14:-1 15:-1 16:-1 17:-1 18:-1 19:-1 20:-1 21:-1 22:1 24:-1 25:-1 26:-1 27:-1 28:1 29:-1 30:-0.812689 32:-1 33:-1 34:-1 35:-1 37:-1 38:-1 39:-1 40:0.26087 
3.460527382632633 0 1:-0.5 2:-0.5 3:1 4:-1 5:-1 6:-1 7:-0.5 8:-1 9:-1 10:-1 11:-1 12:-1 13:-1 14:-1 15:-1 16:-1 17:-1 18:-1 19:-1 20:-1 21:-1 22:1 24:-1 25:-1 26:-1 27:-1 28:1 29:-1 30:-0.78852 32:-1 33:-1 34:-1 35:-1 37:-1 38:-1 39:-1 40:0.26087 
32 0 2:-1 3:1 4:-1 5:-1 6:-1 7:-1 8:-1 9:-1 10:-1 11:-1 12:-1 13:-1 14:-1 15:-1 16:-1 17:-1 18:-1 19:-1 20:-1 21:-1 22:1 24:-1 25:-1 26:-1 27:-1 28:1 29:-1 30:-0.63142 32:-1 33:-1 34:-1 35:-1 37:-1 38:-1 39:-1 40:0.26087 
32 0 2:-1 3:1 4:-1 5:-1 6:-1 7:-1 8:-1 9:-1 10:-1 11:-1 12:-1 13:-1 14:-1 15:-1 17:-1 18:-1 19:-1 20:-1 21:-1 24:-1 25:-1 26:-1 27:-1 28:1 29:-1 30:-0.49849 32:-1 33:-1 34:-1 35:-1 37:-1 38:-1 39:1 40:0.26087 
22.48894302916597 0 2:-0.5 3:1 4:-1 5:-1 6:-1 7:-0.5 8:-1 9:-1 10:-1 11:-1 12:-1 13:-1 14:-1 15:-0.5 16:-1 17:-1 18:-1 19:-1 20:-1 21:-1 22:0.5 24:-1 25:-1 26:-1 27:-1 28:1 29:-1 30:0.861028 32:-1 33:-1 34:-1 35:-1 37:-1 38:-1 39:1 40:0.26087 
0 25.50122069820141 1:-0.5 2:-1 3:0.5 4:-1 5:-1 6:-1 7:-1 8:-1 9:-1 10:-1 11:-1 12:-1 13:-1 14:-0.5 15:-0.75 16:-1 17:-1 18:-1 19:-1 20:-1 21:-1 22:-0.75 24:-1 25:-1 26:-1 27:-1 28:-1 30:-0.486842 32:-1 33:-1 34:-1 35:-1 37:-1 38:-1 39:1 
32 0 1:0.6 2:-1 3:1 4:-1 5:-1 6:-1 7:-1 8:-1 9:-1 10:-1 11:-1 12:-1 13:-1 14:-1 15:-1 16:-1 17:-1 18:-1 19:-1 20:-1 21:-1 22:0.6 24:-1 25:-1 26:-1 27:-1 28:-1 29:-1 30:0.422536 32:-1 33:-1 34:-1 35:-1 37:-1 38:-1 39:1 40:0.181818 
32 0 1:1 2:-1 3:1 4:-1 5:-1 6:-1 7:-1 8:-1 9:-1 10:-1 11:-1 12:-1 13:-1 14:-1 15:-1 16:-1 17:-1 18:-1 19:-1 20:-1 21:-1 22:1 24:-1 25:-1 26:-1 27:-1 28:-1 29:-1 30:-0.97351 32:1 33:-1 34:-1 35:-1 37:-1 38:-1 39:-1 40:0.583334 
23.96598857179233 0 1:1 2:1 3:1 4:-1 5:-1 6:-1 7:-1 8:-1 9:-1 10:-1 11:-1 12:-1 13:-1 14:-1 16:-1 17:-1 18:-1 19:-1 20:-1 21:-1 24:-1 25:-1 26:-1 27:-1 28:-1 29:-1 30:-0.957447 32:1 33:-1 34:-1 35:-1 37:-1 38:-1 39:1 40:0.077778 
0 32 2:-0.75 4:-1 5:-1 6:-1 7:-1 8:-0.75 9:-1 10:-1 11:-1 12:-1 13:-1 14:-0.5 15:-1 16:-0.5 17:-1 18:-1 19:-1 20:-1 21:-1 22:-0.75 24:-1 25:-1 26:-1 27:-1 28:-1 29:-1 30:-0.914894 32:-1 33:-1 34:-1 35:-1 37:-1 38:-1 39:1 
0 3.62604539351301 1:-0.555556 2:-1 3:0.333334 4:-1 5:-1 6:-1 7:-1 8:-1 9:-1 10:-1 11:-1 12:-1 13:-1 14:-0.333334 15:-0.777778 16:-0.777778 17:-1 18:-1 19:-1 20:-1 21:-1 22:-0.555556 24:-1 25:-1 26:-1 27:-1 28:-1 29:-1 30:1 32:-1 33:-1 34:-1 35:-1 37:-1 38:-1 39:1 
32 21.45153135652669 1:-0.333334 2:-1 3:0.466666 4:-1 5:-1 6:-1 7:-1 8:-1 9:-1 10:-1 11:-0.733334 12:-1 13:-1 14:-0.866667 15:-1 16:-0.6 17:-1 18:-1 19:-1 20:-1 21:-1 22:-0.066666 24:-1 25:-1 26:-1 27:-1 28:-1 29:-1 30:1 32:-1 33:-1 34:-1 35:-1 37:-1 38:-1 39:1 40:0.5 
0 4.342826166341729 1:-0.714286 2:-1 3:0.571428 4:-1 5:-1 6:-1 7:-1 8:-1 9:-1 10:-1 11:-0.857143 12:-1 13:-1 14:-0.857143 15:-0.857143 16:-1 17:-1 18:-1 19:-1 20:-1 21:-1 24:-1 25:-1 26:-1 27:-1 28:1 29:-0.571428 30:-0.898039 32:-1 33:-1 34:-1 35:-1 37:-1 38:-1 39:1 40:-0.2 
0 22.91458533715074 1:-0.294118 2:-0.647058 3:-0.17647 4:-0.647058 5:-0.882353 6:-1 7:-0.764706 8:-1 9:-1 10:-0.882353 11:-1 12:-1 13:-1 14:-0.764706 15:-0.882353 16:-0.882353 17:-1 18:-1 19:-1 20:-1 21:-1 22:-0.529412 24:-1 25:-1 26:-1 27:-1 28:1 29:-0.882353 30:-0.882353 32:-1 33:-1 34:-1 35:-1 37:-1 38:-1 39:1 40:-0.2 
1.652778979838976 0 1:0.727272 2:0.727272 3:0.772728 4:-1 5:-1 6:-1 7:0.681818 8:-1 9:-1 10:-1 11:-0.954545 12:-1 13:-1 14:-0.954545 15:-1 16:-1 17:-1 18:-1 19:-1 20:-1 21:-1 22:0.727272 24:-1 25:-1 26:-1 27:-1 28:-1 29:-1 30:-0.971292 32:-1 33:-1 34:-1 35:-1 37:-1 38:-1 39:1 
0 12.90988322129745 1:1 2:1 3:1 4:-1 5:-1 6:-1 7:-0.333334 8:-1 9:-1 10:-1 11:-1 12:-1 13:-1 14:-1 15:-1 16:-1 17:-1 18:-1 19:-1 20:-1 21:-1 22:-1 24:-1 25:-1 26:-1 27:-1 28:-1 29:-1 30:-0.961722 32:1 33:-1 34:-1 35:-1 37:-1 38:-1 39:1 
7.88556593398846 32 2:-1 3:1 4:-1 5:-1 6:-1 7:-1 8:-1 9:-1 10:-1 11:-1 12:-1 13:-1 14:-1 16:-1 17:-1 18:-1 19:-1 20:-1 21:-1 24:-1 25:-1 26:-1 27:-1 28:-1 29:-1 30:-0.952607 32:-1 33:-1 34:-1 35:-1 37:-1 38:-1 39:1 40:0.285714 
0 32 1:-0.2 2:-0.6 3:-0.2 4:-0.6 5:-1 6:-1 7:-1 8:-1 9:-1 10:-1 11:-1 12:-1 13:-1 14:-0.6 15:-1 16:-1 17:-1 18:-0.6 19:-1 20:-1 21:-1 22:-0.6 24:-1 25:-1 26:-1 27:-1 28:-1 29:-1 30:-0.938144 32:-1 33:-1 34:-1 35:-1 37:-1 38:-1 39:1 40:0.333334 
0 32 1:-0.043478 2:-0.826087 3:0.043478 4:-0.73913 5:-0.913043 6:-1 7:-1 8:-1 9:-1 10:-1 11:-0.913043 12:-1 13:-1 14:-0.47826 15:-1 16:-0.73913 17:-1 18:-1 19:-1 20:-1 21:-1 22:-0.652174 24:-1 25:-0.826087 26:-1 27:-1 28:-1 29:-0.913043 30:-0.917526 32:-1 33:-1 34:-1 35:-1 37:-1 38:-1 39:1 40:0.326316 
5.142906711475493 0 1:1 2:1 3:1 4:-1 5:-1 6:-1 7:-1 8:-1 9:-1 10:-1 11:-1 12:-1 13:-1 14:-1 15:-1 16:-1 17:-1 18:-1 19:-1 20:-1 21:-1 22:1 24:-1 25:-1 26:-1 27:-1 28:1 29:-1 30:-0.876289 32:1 33:-1 34:-1 35:-1 37:-1 38:-1 39:-1 40:0.166666 
0.5924557626260551 0 1:-1 2:-1 3:-1 4:-1 5:-1 6:-1 7:-1 8:-1 9:1 10:-1 11:-1 12:-1 13:-1 14:-1 15:-1 16:-1 17:-1 18:-1 19:-1 20:-1 21:-1 22:-1 24:-1 25:-1 26:-1 27:-1 28:-1 29:-1 30:0.881944 32:-1 33:-1 34:-1 35:-1 37:-1 38:-1 39:1 40:-0.4 
0 0.2103582716998554 1:-0.5 2:-0.916667 3:0.666666 4:-1 5:-1 6:-1 7:-0.916667 8:-1 9:-1 10:-1 11:-0.75 12:-1 13:-1 14:-0.833333 15:-0.75 16:-0.833333 17:-1 18:-1 19:-1 20:-1 21:-1 22:0.166666 24:-1 25:-1 26:-1 27:-1 28:-1 29:-1 30:-0.94152 32:-1 33:-1 34:-1 35:-1 37:-1 38:-1 39:1 40:0.076924 
2.318711854084036 0 1:-1 2:-1 3:-1 4:-1 5:-1 6:-1 7:-1 8:-1 9:-1 10:-1 11:-1 12:-1 13:-1 14:-1 15:-1 16:-1 17:-1 18:-1 19:-1 20:-1 21:-1 22:-1 24:-1 25:-1 26:-1 27:-1 28:-1 29:-1 30:0.948718 32:-1 33:-1 34:-1 35:-1 37:-1 38:-1 39:1 40:1 
32 0 2:-1 3:1 4:-1 5:-1 6:-1 7:-1 8:-1 9:-1 10:-1 11:-1 12:-1 13:-1 14:-1 15:-1 17:-1 18:-1 19:-1 20:-1 21:-1 24:-1 25:-1 26:-1 27:-1 28:-1 29:-1 30:-0.973684 32:-1 33:-1 34:-1 35:-1 37:-1 38:-1 39:1 40:0.285714 
32 0.6461606283056698 1:0.6 2:-1 3:1 4:-1 5:-1 6:-1 7:-1 8:-1 9:-1 10:-1 11:-1 12:-1 13:-1 14:-1 15:-1 16:-1 17:-1 18:-1 19:-1 20:-1 21:-1 22:0.2 24:-1 25:-1 26:-1 27:-0.6 28:1 29:-1 30:-1 32:-1 33:-1 34:-1 35:-1 37:-1 38:-1 39:1 40:1 
0 29.9409496390575 1:1 2:-1 3:1 4:-1 5:-1 6:-1 7:-1 8:-1 9:-1 10:-1 11:-1 12:-1 13:-1 14:-1 17:-1 18:-1 19:-1 20:-1 21:-1 22:-1 24:-1 25:-1 26:-1 27:-1 28:-1 29:-1 30:-0.59322 32:1 33:-1 34:-1 35:-1 37:-1 38:-1 39:1 40:-0.666666 
0 32 1:0.166666 2:-0.666666 3:0.166666 4:-0.833333 5:-0.833333 6:-1 7:-0.833333 8:-1 9:-1 10:-1 11:-1 12:-1 13:-1 14:-0.5 15:-0.666666 16:-0.666666 17:-1 18:-1 19:-1 20:-1 21:-1 22:-0.5 24:-1 25:-1 26:-1 27:-1 28:-1 29:-1 30:-0.722222 32:-1 33:-1 34:-1 35:-1 37:-1 38:-1 39:1 
0 22.40522326364835 1:-0.571428 2:-0.571428 4:-0.571428 5:-1 6:-1 7:-0.571428 8:-1 9:-1 10:-1 11:-1 12:-1 13:-1 14:-0.714286 15:-1 16:-1 17:-1 18:-1 19:-1 20:-1 21:-1 22:-0.285714 24:-1 25:-1 26:-1 27:-1 28:-1 29:-0.714286 30:-0.687764 32:-1 33:-1 34:-1 35:-1 37:-1 38:-1 39:1 40:-0.04327 
32 7.185802132282181 2:-1 3:0.333334 4:-1 5:-1 6:-1 7:-1 8:-1 9:-1 10:-1 11:-1 12:-1 13:-1 15:-1 16:-1 17:-1 18:-1 19:-1 20:-1 21:-1 22:0.333334 24:-1 25:-1 26:-1 27:-1 28:1 29:-1 30:-1 32:-1 33:-1 34:-1 35:-1 37:-1 38:-1 39:1 40:1 
32 0 2:-1 3:1 4:-1 5:-1 6:-1 7:-1 8:-1 9:-1 10:-1 11:-1 12:-1 13:-1 14:-1 15:-1 16:-1 17:-1 18:-1 19:-1 20:-1 21:-1 22:1 24:-1 25:-1 26:-1 27:-1 28:1 29:-1 30:-0.984962 32:-1 33:-1 34:-1 35:-1 37:-1 38:-1 39:-1 40:1 
32 0 2:-1 3:1 4:-1 5:-1 6:-1 7:-1 8:-1 9:-1 10:-1 11:-1 12:-1 13:-1 14:-1 15:-1 16:-1 17:-1 18:-1 19:-1 20:-1 21:-1 22:1 24:-1 25:-1 26:-1 27:-1 28:-1 29:-1 30:-0.974843 32:-1 33:-1 34:-1 35:-1 37:-1 38:-1 39:-1 40:0.428572 
32 0 1:0.142858 2:-1 3:1 4:-1 5:-1 6:-1 7:-1 8:-1 9:-1 10:-1 11:-1 12:-1 13:-1 14:-1 15:-1 16:-1 17:-1 18:-1 19:-1 20:-1 21:-1 22:0.714286 24:-1 25:-1 26:-1 27:-1 28:-1 29:-1 30:-1 32:-1 33:-1 34:-1 35:-1 37:-1 38:-1 39:1 40:0.1875 
32 0 1:1 2:-1 3:1 4:-1 5:-1 6:-1 7:-1 8:-1 9:-1 10:-1 11:-1 12:-1 13:-1 14:-1 15:-1 16:-1 17:-1 18:-1 19:-1 20:-1 21:-1 22:0.333334 24:-1 25:-1 26:-1 27:-1 28:-1 29:-1 30:-0.990099 32:1 33:-1 34:-1 35:-1 37:-1 38:-1 39:1 40:0.1875 
0.1082252538402928 0 1:-1 2:-1 3:-1 4:-1 5:-1 6:-1 7:-1 8:-1 9:-1 10:-1 11:-1 12:1 13:-1 14:-1 15:-1 16:-1 17:-1 18:-1 19:-1 20:-1 21:-1 22:-1 24:-1 25:-1 26:-1 27:-1 28:-1 29:-1 30:0.882352 32:-1 33:-1 34:-1 35:-1 37:-1 38:-1 39:1 40:-1 
0.3321101551712932 0 1:1 2:1 3:1 4:-1 5:-1 6:-1 7:1 8:-1 9:-1 10:-1 11:-1 12:-1 13:-1 14:-1 15:-1 16:-1 17:-1 18:-1 19:-1 20:-1 21:-1 22:1 24:-1 25:-1 26:-1 27:-1 28:-1 29:-1 30:0.92647 32:1 33:1 34:-1 35:-1 37:-1 38:-1 39:-1 40:1 
0 32 2:-0.333334 4:-1 5:-1 6:-1 7:-0.333334 8:-1 9:-1 10:-1 11:-0.333334 12:-1 13:-1 14:-1 15:-1 16:-1 17:-1 18:-1 19:-1 20:-1 21:-1 22:-0.333334 24:-1 25:-1 26:-1 27:-1 28:-1 29:-1 30:-0.990291 32:-1 33:-1 34:-1 35:-1 37:-1 38:-1 39:1 
0 32 1:0.333334 2:-1 3:0.333334 4:-1 5:-1 6:-1 7:-1 8:-1 9:-1 10:-1 11:-1 12:-1 13:-1 14:-1 15:-0.333334 16:-1 17:-1 18:-1 19:-1 20:-1 21:-1 22:-1 24:-1 25:-1 26:-1 27:-1 28:-1 29:-1 30:-0.640776 32:-1 33:-1 34:-1 35:-1 37:-1 38:-1 39:1 
0 32 1:-1 2:-1 4:-1 5:-1 6:-1 7:-1 8:-1 9:-1 10:-1 11:-0.8 12:-1 13:-1 14:-0.6 15:-1 16:-1 17:-1 18:-1 19:-1 20:-1 21:-1 22:-1 24:-1 25:-1 26:-1 27:-1 28:-1 29:-1 30:-0.897436 32:-1 33:-1 34:-1 35:-1 37:-1 38:-1 39:1 40:0.333334 
0 32 1:0.333334 2:-0.888889 3:0.333334 4:-1 5:-1 6:-1 7:-1 8:-0.888889 9:-1 10:-1 11:-1 12:-1 13:-1 14:-0.555556 15:-0.888889 16:-0.666666 17:-1 18:-1 19:-1 20:-1 21:-1 22:-0.555556 24:-1 25:-0.888889 26:-1 27:-1 28:-1 29:-1 30:-0.917695 32:-1 33:-1 34:-1 35:-1 37:-1 38:-1 39:1 40:0.05 
0 0.6376828576947122 1:-0.666666 2:-1 3:0.666666 4:-1 5:-1 6:-1 7:-1 8:-1 9:-1 10:-1 11:-0.666666 12:-1 13:-1 14:-1 15:-1 16:-0.666666 17:-1 18:-1 19:-1 20:-1 21:-1 24:-1 25:-1 26:-1 27:-1 28:1 29:-1 30:-0.927152 32:-1 33:-1 34:-1 35:-1 37:-1 38:-1 39:1 40:-0.2 
2.737305143618399 0 1:-0.333334 2:-1 3:1 4:-1 5:-1 6:-1 7:-1 8:-1 9:-1 10:-1 11:-1 12:-1 13:-1 14:-1 15:-1 16:-1 17:-1 18:-1 19:-1 20:-1 21:-1 22:0.333334 24:-1 25:-1 26:-1 27:-1 28:-1 29:-1 30:0.960264 32:-1 33:-1 34:-1 35:-1 37:-1 38:-1 39:1 
32 0 1:0.5 2:-1 3:1 4:-1 5:-1 6:-1 7:-1 8:-1 9:-1 10:-1 11:-1 12:-1 13:-1 14:-1 15:-1 16:-1 17:-1 18:-1 19:-1 20:-1 21:-1 22:0.5 24:-1 25:-1 26:-1 27:-0.5 28:-1 29:-1 30:-0.846154 32:-1 33:-1 34:-1 35:-1 37:-1 38:-1 39:1 40:1 
3.647422636159181 0 1:1 2:1 3:1 4:-1 5:-1 6:-1 7:-0.272728 8:-1 9:-1 10:-1 11:-1 12:-1 13:-1 14:-1 15:-1 16:-1 17:-1 18:-1 19:-1 20:-1 21:-1 22:0.272728 24:-1 25:-1 26:-1 27:-1 28:-1 29:-1 30:-0.153846 32:1 33:-1 34:-1 35:-1 37:-1 38:-1 39:1 40:0.387206 
0 12.48588011679112 1:0.142858 2:-0.857143 3:0.285714 4:-0.857143 5:-1 6:-1 7:-1 8:-1 9:-1 10:-1 11:-1 12:-1 13:-1 14:-0.428572 15:-0.714286 16:-0.857143 17:-1 18:-1 19:-1 20:-1 21:-1 22:-0.571428 24:-1 25:-1 26:-1 27:-1 28:-1 29:0.714286 30:-0.931373 32:-1 33:-1 34:-1 35:-1 37:-1 38:-1 39:1 40:-0.333334 
0 32 2:-1 5:-1 6:-1 7:-1 8:-1 9:-1 10:-1 11:-1 12:-1 13:-1 14:-1 15:-1 16:-1 17:-1 18:-1 19:-1 20:-1 21:-1 22:-1 24:-1 25:-1 26:-1 27:-1 28:-1 29:-1 30:-0.932692 32:-1 33:-1 34:-1 35:-1 37:-1 38:-1 39:1 40:-0.318182 
0 32 1:0.142858 2:-0.428572 3:0.142858 4:-1 5:-1 6:-1 7:-0.428572 8:-1 9:-1 10:-1 11:-0.142858 12:-1 13:-1 14:-1 15:-1 16:-1 17:-1 18:-1 19:-1 20:-1 21:-1 22:-0.428572 24:-1 25:-1 26:-1 27:-1 28:-1 29:-1 30:-1 32:-1 33:-1 34:-1 35:-1 37:-1 38:-1 39:1 40:-0.25 
32 0 1:1 2:1 3:1 4:-1 5:-1 6:-1 7:-1 8:-1 9:-1 10:-1 11:-1 12:-1 13:-1 14:-1 15:-1 16:-1 17:-1 18:-1 19:-1 20:-1 21:-1 22:1 24:-1 25:-1 26:-1 27:-1 28:1 29:-1 30:-1 32:1 33:-1 34:-1 35:-1 37:-1 38:-1 39:-1 40:0.166666 
0 24.58739555615242 1:0.428572 2:0.428572 3:0.428572 4:-1 5:-1 6:-1 7:-0.714286 8:-1 9:-1 10:-1 11:-0.428572 12:-1 13:-1 14:-1 15:-0.142858 16:-1 17:-1 18:-1 19:-1 20:-1 21:-1 22:-0.714286 24:-1 25:-1 26:-1 27:-1 28:1 29:-1 30:-0.39726 32:-1 33:-1 34:-1 35:-1 37:-1 38:-1 39:1 40:-0.4 
10.00938127787278 0 1:1 2:-0.333334 3:1 4:-1 5:-1 6:-1 7:-1 8:-1 9:-1 10:-1 11:-1 12:-1 13:-1 14:-1 15:-1 16:-1 17:-1 18:-1 19:-1 20:-1 21:-1 22:0.333334 24:-1 25:-1 26:-1 27:-1 28:-1 29:-1 30:-1 32:1 33:-1 34:-1 35:-1 37:-1 38:-1 39:1 40:0.25 
0 0.2867209365248613 1:1 2:-1 3:1 4:-1 5:-1 6:-1 7:-1 8:-1 9:-1 10:-1 11:-1 12:-1 13:-1 14:-1 15:-0.333334 16:-0.333334 17:-1 18:-1 19:-1 20:-1 21:-1 22:-0.333334 24:-1 25:-1 26:-1 27:-1 28:-1 29:-1 30:-0.542858 32:1 33:-1 34:-1 35:-1 37:-1 38:-1 39:1 
0 32 1:0.066666 2:-0.866667 3:0.066666 4:-1 5:-1 6:-1 7:-1 8:-1 9:-1 10:-0.866667 11:-1 12:-1 13:-1 14:-0.6 15:-0.733334 16:-0.866667 17:-1 18:-1 19:-1 20:-1 21:-1 22:-0.466666 24:-1 25:-1 26:-1 27:-1 28:-1 29:-1 30:-0.863014 32:-1 33:-1 34:-1 35:-1 37:-1 38:-1 39:1 
32 32 1:0.333334 2:-1 3:0.333334 4:-1 5:-1 6:-1 7:-1 8:-1 9:-1 10:-1 11:-1 12:-1 13:-1 14:-0.333334 15:-1 16:-1 17:-1 18:-1 19:-1 20:-1 21:-1 22:0.333334 24:-1 25:-1 26:-1 27:-1 28:-1 29:-1 30:-0.835616 32:-1 33:-1 34:-1 35:-1 37:-1 38:-1 39:1 40:1 
0 32 1:0.142858 2:-1 3:0.714286 4:-1 5:-1 6:-1 7:-1 8:-1 9:-1 10:-1 11:-1 12:-1 13:-1 14:-1 15:-0.428572 16:-0.428572 17:-1 18:-1 19:-1 20:-1 21:-1 22:-0.428572 24:-1 25:-1 26:-1 27:-1 28:-1 29:-1 30:-0.671232 32:-1 33:-1 34:-1 35:-1 37:-1 38:-1 39:1 40:-0.071428 
3.896487534625724 0 1:1 2:-0.5 3:1 4:-1 5:-1 6:-1 7:-1 8:-1 9:-1 10:-1 11:-1 12:-1 13:-1 14:-1 15:-1 16:-1 17:-1 18:-1 19:-1 20:-1 21:-1 24:-1 25:-0.5 26:-1 27:-1 28:1 29:-1 30:-1 32:1 33:-1 34:-1 35:-1 37:-1 38:-1 39:1 40:1 
0 32 1:0.2 2:-0.6 3:0.2 4:-1 5:-1 6:-1 7:-0.6 8:-1 9:-1 10:-1 11:-1 12:-0.6 13:-1 14:-1 15:-0.6 16:-0.6 17:-1 18:-1 19:-1 20:-1 21:-1 22:-0.6 24:-1 25:-1 26:-1 27:-1 28:-1 29:-1 30:-0.834395 32:-1 33:-1 34:-1 35:-1 37:-1 38:-1 39:1 40:-0.5 
32 8.696586769777433 1:0.333334 2:-1 3:1 4:-1 5:-1 6:-1 7:-1 8:-1 9:-1 10:-1 11:-1 12:-1 13:-1 14:-0.333334 15:-1 16:-1 17:-1 18:-1 19:-1 20:-1 21:-1 22:-0.333334 24:-1 25:-0.333334 26:-1 27:-1 28:-1 29:-1 30:-1 32:-1 33:-1 34:-1 35:-1 37:-1 38:-1 39:1 40:1 
32 0 1:1 2:-1 3:1 4:-1 5:-1 6:-1 7:-1 8:-1 9:-1 10:-1 11:-1 12:-1 13:-1 14:-1 15:-1 16:-1 17:-1 18:-1 19:-1 20:-1 21:-1 22:1 24:-1 25:-1 26:-1 27:-1 28:-1 29:-1 30:-0.957447 32:1 33:-1 34:-1 35:-1 37:-1 38:-1 39:-1 40:1 
32 12.67597598872445 1:-0.8 2:-1 3:1 4:-1 5:-1 6:-1 7:-1 8:-1 9:-1 10:-1 11:-1 12:-1 13:-1 14:-1 15:-0.6 16:-0.8 17:-1 18:-1 19:-1 20:-1 21:-1 22:0.2 24:-1 25:-1 26:-1 27:-1 28:-1 29:-1 30:-0.829787 32:-1 33:-1 34:-1 35:-1 37:-1 38:-1 39:1 40:0.5 
32 0 1:1 2:1 3:1 4:-1 5:-1 6:-1 7:-1 8:-1 9:-1 10:-1 11:-1 12:-1 13:-1 14:-1 15:-1 16:-1 17:-1 18:-1 19:-1 20:-1 21:-1 22:1 24:-1 25:-1 26:-1 27:-1 28:1 29:-1 30:-1 32:1 33:-1 34:-1 35:-1 37:-1 38:-1 39:-1 40:1 
0 32 1:0.2 2:-1 3:-0.2 4:-0.6 5:-1 6:-1 7:-1 8:-1 9:-1 10:-1 11:-1 12:-1 13:-1 14:-0.6 15:-1 16:-1 17:-1 18:-1 19:-1 20:-1 21:-1 22:-1 24:-1 25:-1 26:-1 27:-1 28:-1 29:-1 30:-0.945736 32:-1 33:-1 34:-1 35:-1 37:-1 38:-1 39:1 40:-0.333334 
32 0 1:-1 2:-1 3:1 4:-1 5:-1 6:-1 7:-1 8:-1 9:-1 10:-1 11:-1 12:-1 13:-1 14:-1 15:-1 16:-1 17:-1 18:-1 19:-1 20:-1 21:-1 22:1 24:-1 25:-1 26:-1 27:-1 28:-1 29:-1 30:-1 32:-1 33:-1 34:-1 35:-1 37:-1 38:-1 39:-1 40:0.625 
32 0 1:-1 2:-1 3:-1 4:-1 5:-1 6:-1 7:-1 8:-1 9:-1 10:-1 11:-1 12:-1 13:-1 14:-1 15:-1 16:-1 17:-1 18:-1 19:-1 20:-1 21:-1 22:-1 24:-1 25:-1 26:-1 27:-1 28:-1 29:-1 30:-0.993311 32:-1 33:-1 34:-1 35:-1 37:-1 38:-1 39:1 40:1 
0 32 1:-0.25 2:-0.75 3:-0.25 4:-0.75 5:-1 6:-1 7:-0.75 8:-1 9:-1 10:-1 11:-0.75 12:-1 13:-1 14:-0.5 15:-1 16:-0.75 17:-1 18:-1 19:-1 20:-1 21:-1 22:-1 24:-1 25:-1 26:-1 27:-1 28:-1 29:-1 30:-0.93311 32:-1 33:-1 34:-1 35:-1 37:-1 38:-1 39:1 40:-0.4 
32 0 1:-1 2:-1 3:1 4:-1 5:-1 6:-1 7:-1 8:-1 9:-1 10:-1 11:-1 12:-1 13:-1 14:-1 15:-1 16:-1 17:-1 18:-1 19:-1 20:-1 21:-1 22:1 24:-1 25:-1 26:-1 27:-1 28:-1 29:-1 30:0.063546 32:-1 33:-1 34:-1 35:-1 37:-1 38:-1 39:-1 40:0.625 
30.69453164024328 0 1:-1 2:-1 3:1 4:-1 5:-1 6:-1 7:-1 8:-1 9:-1 10:-1 11:-1 12:-1 13:-1 14:-1 15:-1 16:-1 17:-1 18:-1 19:-1 20:-1 21:-1 22:1 24:-1 25:-1 26:-1 27:-1 28:1 29:-1 30:-1 32:-1 33:-1 34:-1 35:-1 37:-1 38:-1 39:-1 40:0.31579 
0 31.99335023484524 1:-0.25 2:-1 3:0.75 4:-1 5:-1 6:-1 7:-1 8:-1 9:-1 10:-1 11:-1 12:-1 13:-1 14:-1 15:-0.5 16:-1 17:-1 18:-1 19:-1 20:-1 21:-1 24:-1 25:-1 26:-1 27:-1 28:-1 29:-1 30:-0.944134 32:-1 33:-1 34:-1 35:-1 37:-1 38:-1 39:1 
0 32 1:-0.454546 2:-1 3:-0.272728 4:-0.454546 5:-1 6:-0.818182 7:-1 8:-1 9:-1 10:-1 11:-1 12:-1 13:-1 14:-0.818182 15:-0.454546 16:-1 17:-1 18:-1 19:-1 20:-1 21:-1 22:-0.818182 24:-1 25:-1 26:-1 27:-1 28:-0.636364 29:-0.818182 30:-0.821229 32:-1 33:-1 34:-1 35:-1 37:-1 38:-1 39:1 
0 32 2:-1 4:-1 5:-1 6:-1 7:-1 8:-1 9:-1 10:-1 11:-1 12:-1 13:-1 14:-1 15:-0.5 16:-1 17:-1 18:-1 19:-1 20:-1 21:-1 22:-1 24:-1 25:-1 26:-1 27:-1 28:-1 29:-1 30:-0.967568 32:-1 33:-1 34:-1 35:-1 37:-1 38:-1 39:1 40:0.428572 
32 0 2:-1 3:1 4:-1 5:-1 6:-1 7:-1 8:-1 9:-1 10:-1 11:-1 12:-1 13:-1 14:-1 15:-1 16:-1 17:-1 18:-1 19:-1 20:-1 21:-1 22:1 24:-1 25:-1 26:-1 27:-1 28:-1 29:-1 30:-0.971564 32:-1 33:-1 34:-1 35:-1 37:-1 38:-1 39:-1 40:0.272728 
0 28.80195076274651 1:-1 2:-1 3:-0.333334 4:-1 5:-1 6:-1 7:-1 8:-1 9:-1 10:-1 11:-1 12:-1 13:-1 14:-0.333334 15:-1 16:-1 17:-1 18:-1 19:-1 20:-1 21:-1 22:-0.333334 24:-1 25:-1 26:-1 27:-1 28:-1 29:-1 30:-0.961353 32:-1 33:-1 34:-1 35:-1 37:-1 38:-1 39:1 40:0.333334 
2.780945773316969 0 1:0.666666 2:-1 3:1 4:-1 5:-1 6:-1 7:-1 8:-1 9:-1 10:-1 11:-1 12:-1 13:-1 14:-1 15:-1 16:-1 17:-1 18:-1 19:-1 20:-1 21:-1 22:1 24:-1 25:-1 26:-1 27:-1 28:-1 29:-1 30:0.90164 32:-1 33:-1 34:-1 35:-1 37:-1 38:-1 39:-1 40:0.0625 
7.08258560920324 0 1:1 2:1 3:1 4:-1 5:-1 6:-1 7:0.833334 8:-1 9:-1 10:-1 11:-1 12:-1 13:-1 14:-1 15:-1 16:-1 17:-1 18:-1 19:-1 20:-1 21:-1 22:0.833334 24:-1 25:-1 26:-1 27:-1 28:-1 29:-1 30:-0.981651 32:1 33:-1 34:-1 35:-1 37:-1 38:-1 39:1 
0 9.424410248135349 1:0.5 2:-0.5 3:0.5 4:-1 5:-1 6:-1 7:-0.5 8:-1 9:-1 10:-1 11:-1 12:-1 13:-1 14:-1 15:-1 16:-1 17:-1 18:-1 19:-1 20:-1 21:-1 22:-0.5 24:-1 25:-1 26:-1 27:-1 28:-1 29:1 30:-0.929577 32:-1 33:-1 34:-1 35:-1 37:-1 38:-1 39:1 40:-0.5 
0 32 1:0.333334 2:-1 3:0.333334 4:-1 5:-1 6:-1 7:-1 8:-1 9:-1 10:-1 11:-1 12:-1 13:-1 14:-1 15:-0.333334 16:-1 17:-1 18:-1 19:-1 20:-1 21:-1 22:-1 24:-1 25:-1 26:-1 27:-1 28:-1 29:1 30:-0.875 32:-1 33:-1 34:-1 35:-1 37:-1 38:-1 39:1 
4.177253196838123 0 1:-1 2:-1 3:1 4:-1 5:-1 6:-1 7:-1 8:-1 9:-1 10:-1 11:-1 12:-1 13:-1 14:-1 15:-1 16:-1 17:-1 18:-1 19:-1 20:-1 21:-1 22:1 24:-1 25:-1 26:-1 27:-1 28:-1 29:1 30:-1 32:-1 33:-1 34:-1 35:-1 37:-1 38:-1 39:-1 40:1 
0 32 1:-0.5 2:-1 3:0.5 4:-1 5:-1 6:-1 7:-1 8:-1 9:-1 10:-1 11:-1 12:-1 13:-1 14:-0.5 15:-0.75 16:-0.75 17:-1 18:-1 19:-1 20:-1 21:-1 22:-0.5 24:-1 25:-1 26:-1 27:-1 28:-1 29:-1 30:-0.960656 32:-1 33:-1 34:-1 35:-1 37:-1 38:-1 39:1 
0.7442497758242278 0 1:0.333334 2:0.333334 3:0.333334 4:-0.666666 5:-0.666666 6:-1 7:-1 8:-1 9:-1 10:-1 11:-1 12:-1 13:-1 14:-1 15:-1 16:-1 17:-1 18:-1 19:-1 20:-1 21:-1 24:-1 25:-1 26:-1 27:-1 28:-1 29:-1 30:1 32:-1 33:-1 34:-1 35:-1 37:-1 38:-1 39:1 40:-1 
32 0 1:0.5 2:-1 3:1 4:-1 5:-1 6:-1 7:-1 8:-1 9:-1 10:-1 11:-1 12:-1 13:-1 14:-0.5 15:-1 16:-1 17:-1 18:-1 19:-1 20:-1 21:-1 22:1 24:-1 25:-1 26:-1 27:-1 28:-1 29:-1 30:-0.824074 32:-1 33:-1 34:-1 35:-1 37:-1 38:-1 39:-1 40:0.333334 
32 0 1:0.5 2:-1 3:1 4:-1 5:-1 6:-1 7:-1 8:-1 9:-1 10:-1 11:-1 12:-1 13:-1 14:-1 15:-1 16:-1 17:-1 18:-1 19:-1 20:-1 21:-1 22:1 24:-1 25:-1 26:-1 27:-1 28:-1 29:-1 30:-0.939394 32:-1 33:-1 34:-1 35:-1 37:-1 38:-1 39:-1 40:1 
0 32 1:-0.2 2:-0.6 3:0.6 4:-1 5:-1 6:-1 7:-1 8:-1 9:-1 10:-1 11:-0.6 12:-1 13:-1 14:-1 15:-0.6 16:-0.6 17:-1 18:-1 19:-1 20:-1 21:-1 22:-1 24:-1 25:-1 26:-1 27:-1 28:-1 29:0.2 30:-0.272728 32:-1 33:-1 34:-1 35:-1 37:-1 38:-1 39:1 
31.4697144279876 0 1:1 2:1 3:1 4:-1 5:-1 6:-1 7:-1 8:-1 9:-1 10:-1 11:-1 12:-1 13:-1 14:-1 15:-1 16:-1 17:-1 18:-1 19:-1 20:-1 21:-1 22:1 24:-1 25:-1 26:-1 27:-1 28:-1 29:-1 30:-0.993846 32:1 33:-1 34:-1 35:-1 37:-1 38:-1 39:-1 40:1 
0 32 1:-1 2:-1 3:-0.333334 4:-0.333334 5:-1 6:-1 7:-1 8:-1 9:-1 10:-1 11:-1 12:-1 13:-1 14:-1 15:-0.333334 16:-1 17:-1 18:-1 19:-1 20:-1 21:-1 22:-1 24:-1 25:-1 26:-1 27:-1 28:-1 29:-1 30:-0.944444 32:-1 33:-1 34:-1 35:-1 37:-1 38:-1 39:1 40:-0.015624 
0 32 1:-0.2 2:-0.866667 3:0.066666 4:-0.6 5:-1 6:-1 7:-1 8:-1 9:-1 10:-1 11:-0.866667 12:-1 13:-1 14:-0.466666 15:-0.866667 16:-0.866667 17:-1 18:-1 19:-1 20:-1 21:-1 22:-0.466666 24:-1 25:-1 26:-1 27:-1 28:-1 29:-1 30:-0.632432 32:-1 33:-1 34:-1 35:-1 37:-1 38:-1 39:1 
32 0 1:1 2:1 3:1 4:-1 5:-1 6:-1 7:-1 8:-1 9:-1 10:-1 11:-1 12:-1 13:-1 14:-1 15:-1 16:-1 17:-1 18:-1 19:-1 20:-1 21:-1 22:1 24:-1 25:-1 26:-1 27:-1 28:1 29:-1 30:-0.987578 32:1 33:-1 34:-1 35:-1 37:-1 38:-1 39:-1 40:0.5 
0 25.08829272461811 1:-0.333334 2:-0.333334 3:-0.333334 4:-0.666666 5:-1 6:-1 7:-0.666666 8:-1 9:-1 10:-1 11:-0.666666 12:-1 13:-1 14:-0.666666 15:-1 16:-1 17:-1 18:-1 19:-1 20:-1 21:-1 22:-0.333334 24:-1 25:-1 26:-1 27:-1 28:0.666666 29:-1 30:-0.950311 32:-1 33:-1 34:-1 35:-1 37:-1 38:-1 39:1 40:-0.114286 
0 32 1:-0.5 2:-0.5 3:-0.5 4:-0.5 5:-1 6:-1 7:-1 8:-1 9:-1 10:-1 11:-1 12:-1 13:-1 14:-0.5 15:-1 16:-1 17:-1 18:-1 19:-1 20:-1 21:-1 22:-1 24:-1 25:-1 26:-1 27:-1 28:0.5 29:-1 30:-0.925466 32:-1 33:-1 34:-1 35:-1 37:-1 38:-1 39:1 40:-0.133334 
0 32 1:0.333334 2:-0.333334 3:-0.333334 4:-1 5:-1 6:-1 7:-0.333334 8:-1 9:-1 10:-1 11:-0.333334 12:-1 13:-1 14:-1 15:-1 16:-1 17:-1 18:-1 19:-1 20:-1 21:-1 22:-0.333334 24:-1 25:-1 26:-1 27:-1 28:1 29:-1 30:-0.913043 32:-1 33:-1 34:-1 35:-1 37:-1 38:-1 39:1 
0 10.54404320831283 1:0.5 2:0.5 3:0.5 4:-1 5:-1 6:-1 7:-0.5 8:-1 9:-1 10:-1 11:-0.5 12:-1 13:-1 14:-1 15:-0.5 16:-1 17:-1 18:-1 19:-1 20:-1 21:-1 24:-1 25:-1 26:-1 27:-1 28:1 29:-1 30:-0.863354 32:-1 33:-1 34:-1 35:-1 37:-1 38:-1 39:1 40:-0.225 
0 32 1:0.5 2:-1 3:0.5 4:-1 5:-1 6:-1 7:-1 8:-1 9:-1 10:-1 11:-1 12:-1 13:-1 14:-1 15:-1 16:-1 17:-1 18:-1 19:-1 20:-1 21:-1 22:-1 24:-1 25:-1 26:-1 27:-1 28:-1 29:-1 30:-1 32:-1 33:-1 34:-1 35:-1 37:-1 38:-1 39:1 40:0.17647 
0 32 2:-1 3:0.2 4:-0.8 5:-1 6:-1 7:-1 8:-1 9:-1 10:-1 11:-1 12:-1 13:-1 14:-0.8 15:-1 16:-1 17:-1 18:-1 19:-1 20:-1 21:-1 22:-0.8 24:-1 25:-1 26:-1 27:-1 28:-1 29:-1 30:-0.908497 32:-1 33:-1 34:-1 35:-1 37:-1 38:-1 39:1 40:0.05475 
0 32 1:0.2 2:-0.6 3:0.2 4:-1 5:-1 6:-1 7:-0.6 8:-1 9:-1 10:-1 11:-0.6 12:-1 13:-1 14:-0.6 15:-1 16:-1 17:-1 18:-1 19:-1 20:-1 21:-1 22:-0.6 24:-1 25:-1 26:-1 27:-1 28:-1 29:-1 30:-0.882353 32:-1 33:-1 34:-1 35:-1 37:-1 38:-1 39:1 40:-0.111112 
0 32 1:0.142858 2:-0.714286 3:0.142858 4:-1 5:-1 6:-1 7:-0.714286 8:-1 9:-1 10:-1 11:-0.714286 12:-1 13:-1 14:-0.714286 15:-1 16:-0.428572 17:-1 18:-1 19:-1 20:-1 21:-1 22:-0.428572 24:-1 25:-1 26:-1 27:-1 28:-1 29:-1 30:-0.843137 32:-1 33:-1 34:-1 35:-1 37:-1 38:-1 39:1 40:-0.111112 
0 32 1:0.2 2:-0.6 3:0.2 4:-1 5:-1 6:-1 7:-0.6 8:-1 9:-1 10:-1 11:-0.6 12:-1 13:-1 14:-0.6 15:-1 16:-0.6 17:-1 18:-1 19:-1 20:-1 21:-1 22:-0.6 24:-1 25:-1 26:-1 27:-1 28:-1 29:-1 30:-0.830065 32:-1 33:-1 34:-1 35:-1 37:-1 38:-1 39:1 40:-0.111112 
0 11.3231388923031 1:-0.636364 2:-1 3:0.272728 4:-0.818182 5:-1 6:-1 7:-1 8:-1 9:-1 10:-1 11:-1 12:-1 13:-1 14:-0.818182 15:-0.818182 16:-1 17:-1 18:-1 19:-1 20:-1 21:-1 22:-0.818182 24:-1 25:-1 26:-1 27:-1 28:-1 29:-1 30:0.85621 32:-1 33:-1 34:-1 35:-1 37:-1 38:-1 39:1 40:-0.004386 
0 32 1:0.5 2:-1 3:0.5 4:-1 5:-1 6:-1 7:-1 8:-1 9:-1 10:-1 11:-1 12:-1 13:-1 14:-1 15:-1 16:-1 17:-1 18:-1 19:-1 20:-1 21:-1 22:-1 24:-1 25:-1 26:-1 27:-1 28:-1 29:-1 30:-1 32:-1 33:-1 34:-1 35:-1 37:-1 38:-1 39:1 40:0.166666 
0 32 2:-1 3:0.5 4:-1 5:-1 6:-1 7:-1 8:-1 9:-1 10:-1 11:-1 12:-1 13:-1 14:-0.833333 15:-1 16:-1 17:-0.833333 18:-1 19:-1 20:-1 21:-1 22:-0.833333 24:-1 25:-1 26:-1 27:-1 28:-1 29:-1 30:-0.930233 32:-1 33:-1 34:-1 35:-1 37:-1 38:-1 39:1 40:0.055556 
0 32 1:0.2 2:-0.6 3:0.2 4:-1 5:-1 6:-1 7:-0.6 8:-1 9:-1 10:-1 11:-0.6 12:-1 13:-1 14:-0.6 15:-1 16:-1 17:-1 18:-1 19:-1 20:-1 21:-1 22:-0.6 24:-1 25:-1 26:-1 27:-1 28:-1 29:-1 30:-0.895349 32:-1 33:-1 34:-1 35:-1 37:-1 38:-1 39:1 40:-0.333334 
0 5.196120447384478 1:0.2 2:-0.6 3:0.2 4:-1 5:-1 6:-1 7:-0.6 8:-1 9:-1 10:-1 11:-0.6 12:-1 13:-1 14:-0.6 15:-1 16:-0.6 17:-1 18:-1 19:-1 20:-1 21:-1 22:-0.6 24:-1 25:-1 26:-1 27:-1 28:-1 29:-1 30:-0.848837 32:-1 33:-1 34:-1 35:-1 37:-1 38:-1 39:1 40:-0.333334 
32 32 2:-1 4:-0.5 5:-1 6:-1 7:-1 8:-1 9:-1 10:-0.5 11:-1 12:-1 13:-1 14:-1 15:-1 16:-1 17:-1 18:-1 19:-1 20:-1 21:-1 22:-1 24:-1 25:-1 26:-1 27:-1 28:-1 29:-1 30:-0.767442 32:-1 33:-1 34:-1 35:-1 37:-1 38:-1 39:1 40:0.5 
0 31.00546513054157 1:1 2:-1 3:1 4:-1 5:-1 6:-1 7:-1 8:-1 9:-1 10:-1 11:-1 12:-1 13:-1 14:-1 15:-1 16:-1 17:-1 18:-1 19:-1 20:-1 21:-1 22:-1 24:-1 25:-1 26:-1 27:-1 28:-1 29:-1 30:-0.755814 32:1 33:-1 34:-1 35:-1 37:-1 38:-1 39:1 40:0.111112 
32 0 1:-0.2 2:-1 3:1 4:-1 5:-1 6:-1 7:-1 8:-1 9:-1 10:-1 11:-1 12:-1 13:-1 14:-1 15:-1 16:-1 17:-1 18:-1 19:-1 20:-1 21:-1 22:-0.6 24:-1 25:-1 26:-1 27:-1 28:-1 29:-1 30:0.953488 32:-1 33:-1 34:-1 35:-1 37:-1 38:-1 39:1 
18.52093661842286 0 1:1 2:-1 3:-1 4:-1 5:-1 6:-1 7:-1 8:-1 9:-1 10:-1 11:-1 12:-1 13:-1 14:-1 15:-1 16:-1 17:-1 18:-1 19:-1 20:-1 21:-1 22:-1 24:-1 25:-1 26:-1 27:-1 28:-1 29:-1 30:0.976744 32:-1 33:-1 34:-1 35:-1 37:-1 38:-1 39:1 
12.18470308632 0 1:-1 2:-1 3:1 4:-1 5:-1 6:-1 7:-1 8:-1 9:-1 10:-1 11:-1 12:-1 13:-1 14:-1 15:-1 16:-1 17:-1 18:-1 19:-1 20:-1 21:-1 22:1 24:-1 25:-1 26:-1 27:-1 28:-1 29:-1 30:-0.929078 32:-1 33:-1 34:-1 35:-1 37:-1 38:-1 39:-1 40:0.285714 
0 32 1:0.142858 2:-0.714286 3:0.142858 4:-1 5:-1 6:-1 7:-1 8:-1 9:-1 10:-1 11:-0.714286 12:-1 13:-1 14:-0.714286 15:-0.428572 16:-1 17:-1 18:-1 19:-1 20:-1 21:-1 22:-0.714286 24:-1 25:-0.714286 26:-1 27:-1 28:-1 29:-1 30:-0.669902 32:-1 33:-1 34:-1 35:-1 37:-1 38:-1 39:1 
0 15.45937255904049 2:-1 4:-1 5:-1 6:-1 7:-1 8:-1 9:-1 10:-1 11:-0.5 12:-1 13:-1 14:-0.5 15:-1 16:-1 17:-1 18:-1 19:-1 20:-1 21:-1 22:-1 24:-1 25:-0.5 26:-1 27:-1 28:-1 29:-1 30:-0.965909 32:-1 33:-1 34:-1 35:-1 37:-1 38:-1 39:1 40:0.4 
32 0 1:-0.793104 2:-0.793104 3:0.931034 4:-1 5:-1 6:-1 7:-0.793104 8:-1 9:-1 10:-1 11:-1 12:-1 13:-1 14:-1 15:-1 16:-1 17:-1 18:-1 19:-1 20:-1 21:-1 22:0.931034 24:-1 25:-1 26:-1 27:-1 28:-1 29:-0.37931 30:-0.944444 32:-1 33:-1 34:-1 35:-1 37:-1 38:-1 39:1 40:0.666666 
0 8.115942884252165 1:-0.2 2:-0.8 3:-0.4 4:-0.4 5:-0.8 6:-1 7:-1 8:-0.8 9:-1 10:-1 11:-1 12:-1 13:-1 14:-0.8 15:-1 16:-1 17:-1 18:-1 19:-1 20:-1 21:-1 22:-1 24:-1 25:-1 26:-1 27:-1 28:-0.4 29:-0.6 30:-0.872093 32:-1 33:-1 34:-1 35:-1 37:-1 38:-1 39:1 40:-0.25 
0 32 1:0.333334 2:-0.333334 3:0.333334 4:-1 5:-1 6:-1 7:-1 8:-1 9:-1 10:-1 11:-1 12:-1 13:-1 14:-0.333334 15:-0.333334 16:-1 17:-1 18:-1 19:-1 20:-1 21:-1 22:-1 24:-1 25:-1 26:-1 27:-1 28:-1 29:-1 30:0.12963 32:-1 33:-1 34:-1 35:-1 37:-1 38:-1 39:1 
7.324829463450809 0 2:-1 3:0.5 4:-1 5:-1 6:-1 7:-1 8:-1 9:-0.5 10:-1 11:-1 12:-1 13:-1 14:-1 15:-1 16:-1 17:-1 18:-1 19:-1 20:-1 21:-1 24:-1 25:-1 26:-1 27:-1 28:-1 29:-1 30:0.5 32:-1 33:-1 34:-1 35:-1 37:-1 38:-1 39:1 
32 0 1:-1 2:-1 3:1 4:-1 5:-1 6:-1 7:-1 8:-1 9:-1 10:-1 11:-1 12:-1 13:-1 14:-1 15:-1 16:-1 17:-1 18:-1 19:-1 20:-1 21:-1 22:1 24:-1 25:-1 26:-1 27:-1 28:-1 29:-1 30:-1 32:-1 33:-1 34:-1 35:-1 37:-1 38:-1 39:-1 40:0.75 
32 0 1:-0.333334 2:-1 3:0.5 4:-1 5:-1 6:-1 7:-1 8:-1 9:-1 10:-1 11:-0.833333 12:-1 13:-1 14:-1 15:-1 16:-0.833333 17:-1 18:-1 19:-1 20:-1 21:-1 22:0.166666 24:-1 25:-1 26:-1 27:-1 28:-1 29:-1 30:-0.997286 32:-1 33:-1 34:-1 35:-1 37:-1 38:-1 39:1 40:0.333334 
32 0 1:-0.833333 2:-1 3:0.666666 4:-1 5:-1 6:-1 7:-1 8:-1 9:-1 10:-1 11:-1 12:-1 13:-1 14:-1 15:-1 16:-0.833333 17:-1 18:-1 19:-1 20:-1 21:-1 22:0.5 24:-1 25:-1 26:-1 27:-1 28:-1 29:-1 30:-0.991859 32:-1 33:-1 34:-1 35:-1 37:-1 38:-1 39:1 40:0.333334 
10.42458695529865 0 1:-0.6 2:-1 3:0.8 4:-1 5:-1 6:-1 7:-1 8:-1 9:-1 10:-1 11:-1 12:-1 13:-1 14:-0.4 15:-1 16:-1 17:-1 18:-1 19:-1 20:-1 21:-1 22:0.6 24:-1 25:-1 26:-1 27:-1 28:-1 29:-1 30:-0.986431 32:-1 33:-1 34:-1 35:-1 37:-1 38:-1 39:1 40:0.333334 
21.32039312607224 0 1:-0.8 2:-1 3:1 4:-1 5:-1 6:-1 7:-1 8:-1 9:-1 10:-1 11:-1 12:-1 13:-1 14:-1 15:-0.6 16:-1 17:-1 18:-0.8 19:-1 20:-1 21:-1 22:0.2 24:-1 25:-1 26:-1 27:-1 28:-1 29:-1 30:-0.97829 32:-1 33:-1 34:-1 35:-1 37:-1 38:-1 39:1 40:0.333334 
0 6.105241133949404 1:-0.6 2:-0.733334 3:0.6 4:-1 5:-1 6:-1 7:-0.733334 8:-1 9:-1 10:-1 11:-1 12:-1 13:-1 14:-0.6 15:-1 16:-1 17:-0.866667 18:-1 19:-1 20:-1 21:-1 22:0.333334 24:-1 25:-1 26:-1 27:-1 28:-1 29:-1 30:-0.959294 32:-1 33:-1 34:-1 35:-1 37:-1 38:-1 39:1 40:0.333334 
0 32 1:-0.692308 2:-1 3:0.538462 4:-1 5:-1 6:-1 7:-1 8:-1 9:-1 10:-1 11:-1 12:-1 13:-1 14:-0.384616 15:-0.846154 16:-0.846154 17:-1 18:-1 19:-1 20:-1 21:-1 22:0.23077 24:-1 25:-1 26:-1 27:-1 28:-1 29:-1 30:-0.953867 32:-1 33:-1 34:-1 35:-1 37:-1 38:-1 39:1 40:0.333334 
0 32 1:-0.428572 2:-1 3:0.571428 4:-0.857143 5:-1 6:-1 7:-1 8:-1 9:-1 10:-1 11:-0.857143 12:-1 13:-1 14:-0.857143 15:-0.714286 16:-1 17:-1 18:-1 19:-1 20:-1 21:-1 22:0.142858 24:-1 25:-1 26:-1 27:-1 28:-1 29:-1 30:-0.94844 32:-1 33:-1 34:-1 35:-1 37:-1 38:-1 39:1 40:0.333334 
0 32 1:-0.36 2:-0.76 3:-0.2 4:-0.68 5:-0.92 6:-0.92 7:-0.76 8:-1 9:-1 10:-1 11:-0.52 12:-1 13:-1 14:-0.84 15:-1 16:-0.92 17:-1 18:-1 19:-1 20:-1 21:-1 22:-0.6 24:-1 25:-1 26:-1 27:-1 28:-1 29:-1 30:-0.932157 32:-1 33:-1 34:-1 35:-1 37:-1 38:-1 39:1 
0 32 1:-0.25 2:-0.75 3:-0.25 4:-0.75 5:-1 6:-1 7:-0.75 8:-1 9:-1 10:-1 11:-0.5 12:-1 13:-1 14:-0.5 15:-1 16:-1 17:-1 18:-1 19:-1 20:-1 21:-1 22:-0.75 24:-1 25:-1 26:-1 27:-1 28:-1 29:-1 30:-0.929444 32:-1 33:-1 34:-1 35:-1 37:-1 38:-1 39:1 
0 32 1:-0.133334 2:-0.533334 3:-0.066666 4:-0.933333 5:-1 6:-1 7:-0.533334 8:-1 9:-1 10:-1 11:-0.666666 12:-1 13:-1 14:-0.6 15:-1 16:-0.866667 17:-1 18:-1 19:-1 20:-1 21:-1 22:-0.333334 24:-1 25:-1 26:-1 27:-1 28:-1 29:-1 30:-0.92673 32:-1 33:-1 34:-1 35:-1 37:-1 38:-1 39:1 
0 32 1:-0.416666 2:-0.75 3:0.25 4:-0.916667 5:-1 6:-1 7:-0.75 8:-1 9:-1 10:-1 11:-0.75 12:-1 13:-1 14:-0.583334 15:-1 16:-0.833333 17:-1 18:-1 19:-1 20:-1 21:-1 22:-0.083334 24:-1 25:-1 26:-1 27:-1 28:-1 29:-1 30:-0.921303 32:-1 33:-1 34:-1 35:-1 37:-1 38:-1 39:1 
0 32 1:-0.304348 2:-0.652174 3:0.130434 4:-0.913043 5:-1 6:-1 7:-0.652174 8:-1 9:-1 10:-1 11:-0.565218 12:-1 13:-1 14:-0.652174 15:-0.913043 16:-0.826087 17:-1 18:-1 19:-1 20:-1 21:-1 22:-0.217392 24:-1 25:-1 26:-1 27:-1 28:-1 29:-1 30:-0.913161 32:-1 33:-1 34:-1 35:-1 37:-1 38:-1 39:1 
0 32 1:-0.419354 2:-0.741936 3:0.16129 4:-0.935484 5:-1 6:-1 7:-0.741936 8:-1 9:-1 10:-1 11:-0.612904 12:-1 13:-1 14:-0.741936 15:-0.870968 16:-0.870968 17:-1 18:-1 19:-1 20:-1 21:-1 22:-0.225806 24:-1 25:-1 26:-1 27:-1 28:-1 29:-1 30:-0.90502 32:-1 33:-1 34:-1 35:-1 37:-1 38:-1 39:1 
0 32 1:-0.333334 2:-0.62963 3:0.111112 4:-0.925926 5:-1 6:-1 7:-0.62963 8:-1 9:-1 10:-1 11:-0.407408 12:-1 13:-1 14:-0.703704 15:-0.925926 16:-0.851852 17:-1 18:-1 19:-1 20:-1 21:-1 22:-0.25926 24:-1 25:-1 26:-1 27:-1 28:-1 29:-1 30:-0.899593 32:-1 33:-1 34:-1 35:-1 37:-1 38:-1 39:1 
0 32 1:-0.225806 2:-0.67742 3:-0.032258 4:-0.67742 5:-1 6:-1 7:-0.67742 8:-1 9:-1 10:-1 11:-0.67742 12:-1 13:-1 14:-0.741936 15:-0.935484 16:-0.935484 17:-1 18:-1 19:-1 20:-1 21:-1 22:-0.16129 24:-1 25:-1 26:-1 27:-1 28:-1 29:-1 30:-0.894166 32:-1 33:-1 34:-1 35:-1 37:-1 38:-1 39:1 40:-0.136364 
0 32 1:-0.310344 2:-0.586206 3:0.103448 4:-0.931034 5:-1 6:-1 7:-0.586206 8:-1 9:-1 10:-1 11:-0.586206 12:-1 13:-1 14:-0.655172 15:-0.931034 16:-0.931034 17:-1 18:-1 19:-1 20:-1 21:-1 22:-0.103448 24:-1 25:-1 26:-1 27:-1 28:-1 29:-1 30:-0.888738 32:-1 33:-1 34:-1 35:-1 37:-1 38:-1 39:1 
0 32 1:-0.142858 2:-0.571428 4:-0.928571 5:-1 6:-0.928571 7:-0.571428 8:-1 9:-1 10:-1 11:-0.642858 12:-1 13:-1 14:-0.642858 15:-0.928571 16:-1 17:-1 18:-1 19:-1 20:-1 21:-1 22:-0.285714 24:-1 25:-1 26:-1 27:-1 28:-1 29:-1 30:-0.872456 32:-1 33:-1 34:-1 35:-1 37:-1 38:-1 39:1 
0 32 1:-0.125 2:-0.5 3:0.0625 4:-0.9375 5:-1 6:-0.9375 7:-0.5 8:-1 9:-1 10:-1 11:-0.5625 12:-1 13:-1 14:-0.6875 15:-0.9375 16:-1 17:-1 18:-1 19:-1 20:-1 21:-1 22:-0.25 24:-1 25:-1 26:-1 27:-1 28:-1 29:-1 30:-0.864315 32:-1 33:-1 34:-1 35:-1 37:-1 38:-1 39:1 
0 32 1:-0.083334 2:-0.583334 3:0.25 4:-1 5:-1 6:-1 7:-0.583334 8:-1 9:-1 10:-1 11:-0.833333 12:-1 13:-1 14:-0.5 15:-1 16:-0.916667 17:-0.916667 18:-1 19:-1 20:-1 21:-1 22:-0.166666 24:-1 25:-1 26:-1 27:-1 28:-1 29:-1 30:-0.858887 32:-1 33:-1 34:-1 35:-1 37:-1 38:-1 39:1 
0 32 1:-0.142858 2:-0.428572 3:0.142858 4:-1 5:-1 6:-1 7:-0.428572 8:-1 9:-1 10:-1 11:-0.714286 12:-1 13:-1 14:-0.428572 15:-1 16:-1 17:-1 18:-1 19:-1 20:-1 21:-1 22:-0.714286 24:-1 25:-1 26:-1 27:-1 28:-1 29:-1 30:-0.848033 32:-1 33:-1 34:-1 35:-1 37:-1 38:-1 39:1 
0 32 1:-0.272728 2:-0.636364 3:0.454546 4:-1 5:-1 6:-1 7:-0.636364 8:-1 9:-1 10:-1 11:-0.818182 12:-1 13:-1 14:-0.636364 15:-1 16:-1 17:-0.818182 18:-1 19:-1 20:-1 21:-1 22:-0.272728 24:-1 25:-1 26:-1 27:-1 28:-1 29:-1 30:-0.845319 32:-1 33:-1 34:-1 35:-1 37:-1 38:-1 39:1 
0 32 1:-0.076924 2:-0.538462 3:-0.23077 4:-0.846154 5:-1 6:-0.846154 7:-0.538462 8:-1 9:-1 10:-1 11:-0.692308 12:-1 13:-1 14:-0.692308 15:-1 16:-0.846154 17:-1 18:-1 19:-1 20:-1 21:-1 22:-0.538462 24:-1 25:-1 26:-1 27:-1 28:-1 29:-1 30:-0.842605 32:-1 33:-1 34:-1 35:-1 37:-1 38:-1 39:1 
0 32 1:-0.157894 2:-0.473684 3:0.052632 4:-0.947368 5:-1 6:-0.947368 7:-0.473684 8:-1 9:-1 10:-1 11:-0.578948 12:-1 13:-1 14:-0.631578 15:-0.947368 16:-0.789474 17:-1 18:-1 19:-1 20:-1 21:-1 22:-0.210526 24:-1 25:-1 26:-1 27:-1 28:-1 29:-1 30:-0.826323 32:-1 33:-1 34:-1 35:-1 37:-1 38:-1 39:1 
0 32 1:-0.2 2:-0.542858 3:-0.028572 4:-0.942857 5:-1 6:-0.942857 7:-0.542858 8:-1 9:-1 10:-1 11:-0.657142 12:-1 13:-1 14:-0.6 15:-0.885714 16:-1 17:-1 18:-1 19:-1 20:-1 21:-1 22:-0.371428 24:-1 25:-1 26:-1 27:-1 28:-1 29:-1 30:-0.818182 32:-1 33:-1 34:-1 35:-1 37:-1 38:-1 39:1 
0 32 2:-0.421052 4:-0.947368 5:-1 6:-0.947368 7:-0.421052 8:-1 9:-1 10:-1 11:-0.526316 12:-1 13:-1 14:-0.68421 15:-0.894737 16:-0.894737 17:-1 18:-1 19:-1 20:-1 21:-1 22:-0.31579 24:-1 25:-1 26:-1 27:-1 28:-1 29:-1 30:-0.8019 32:-1 33:-1 34:-1 35:-1 37:-1 38:-1 39:1 
0 32 1:-0.1 2:-0.5 3:-0.2 4:-0.9 5:-1 6:-0.9 7:-0.5 8:-1 9:-1 10:-1 11:-0.6 12:-1 13:-1 14:-0.6 15:-1 16:-1 17:-1 18:-1 19:-1 20:-1 21:-1 22:-0.5 24:-1 25:-1 26:-1 27:-1 28:-1 29:-1 30:-0.785618 32:-1 33:-1 34:-1 35:-1 37:-1 38:-1 39:1 
0 10.49630496493828 1:-0.5 2:-0.7 3:0.5 4:-1 5:-1 6:-1 7:-0.7 8:-1 9:-1 10:-1 11:-0.8 12:-1 13:-1 14:-0.9 15:-0.9 16:-0.9 17:-1 18:-1 19:-1 20:-1 21:-1 22:-0.6 24:-1 25:-1 26:-1 27:-1 28:-1 29:-1 30:-0.739484 32:-1 33:-1 34:-1 35:-1 37:-1 38:-1 39:1 
0 32 1:-0.333334 2:-0.333334 3:0.333334 4:-1 5:-1 6:-1 7:-0.333334 8:-1 9:-1 10:-1 11:-1 12:-1 13:-1 14:-1 15:-1 16:-1 17:-1 18:-1 19:-1 20:-1 21:-1 22:-1 24:-1 25:-1 26:-1 27:-1 28:-1 29:-1 30:-0.709634 32:-1 33:-1 34:-1 35:-1 37:-1 38:-1 39:1 40:0.083334 
0 27.22690026869548 1:-0.333334 2:-0.333334 3:0.333334 4:-1 5:-1 6:-1 7:-0.333334 8:-1 9:-1 10:-1 11:-0.333334 12:-1 13:-1 14:-1 15:-1 16:-1 17:-1 18:-1 19:-1 20:-1 21:-1 22:-1 24:-1 25:-1 26:-1 27:-1 28:-1 29:-1 30:-0.704206 32:-1 33:-1 34:-1 35:-1 37:-1 38:-1 39:1 40:0.083334 
0 28.12295013264651 3:1 4:-1 5:-1 6:-1 8:-1 9:-1 10:-1 11:-1 12:-1 13:-1 14:-1 15:-1 16:-1 17:-1 18:-1 19:-1 20:-1 21:-1 22:-1 24:-1 25:-1 26:-1 27:-1 28:-1 29:-1 30:-0.68521 32:-1 33:-1 34:-1 35:-1 37:-1 38:-1 39:1 40:0.25 
0 32 1:-0.111112 2:-0.555556 3:0.111112 4:-1 5:-1 6:-1 7:-0.555556 8:-1 9:-1 10:-1 11:-0.777778 12:-1 13:-1 14:-0.555556 15:-0.777778 16:-1 17:-1 18:-1 19:-1 20:-1 21:-1 22:-0.555556 24:-1 25:-1 26:-1 27:-1 28:-1 29:-1 30:-0.682496 32:-1 33:-1 34:-1 35:-1 37:-1 38:-1 39:1 40:0.25 
0 18.57064853393315 1:-0.111112 2:-1 3:0.555556 4:-0.777778 5:-1 6:-1 7:-1 8:-1 9:-1 10:-1 11:-0.777778 12:-1 13:-1 14:-1 15:-1 16:-0.555556 17:-1 18:-1 19:-1 20:-1 21:-1 22:-0.333334 24:-1 25:-1 26:-1 27:-1 28:-1 29:-1 30:-0.622796 32:-1 33:-1 34:-1 35:-1 37:-1 38:-1 39:1 40:0.32653 
32 0 1:-0.111112 2:-1 3:0.555556 4:-1 5:-1 6:-1 7:-1 8:-1 9:-1 10:-1 11:-1 12:-1 13:-1 14:-0.777778 15:-1 16:-0.777778 17:-1 18:-1 19:-1 20:-1 21:-1 22:-0.111112 24:-1 25:-1 26:-1 27:-1 28:-1 29:-1 30:-0.59023 32:-1 33:-1 34:-1 35:-1 37:-1 38:-1 39:1 40:0.333334 
32 0 1:-1 2:-1 3:1 4:-1 5:-1 6:-1 7:-1 8:-1 9:-1 10:-1 11:-1 12:-1 13:-1 14:-1 15:-1 16:-1 17:-1 18:-1 19:-1 20:-1 21:-1 22:1 24:-1 25:-1 26:-1 27:-1 28:-1 29:-1 30:-0.563094 32:-1 33:-1 34:-1 35:-1 37:-1 38:-1 39:-1 40:0.75 
32 0 1:-0.4 2:-0.8 3:1 4:-1 5:-1 6:-1 7:-1 8:-1 9:-1 10:-1 11:-1 12:-1 13:-1 14:-1 15:-1 16:-0.8 17:-1 18:-1 19:-1 20:-1 21:-1 22:0.6 24:-1 25:-1 26:-1 27:-1 28:-1 29:-1 30:-0.503392 32:-1 33:-1 34:-1 35:-1 37:-1 38:-1 39:1 40:0.333334 
32 0 1:-0.4 2:-0.8 3:0.8 4:-1 5:-1 6:-1 7:-1 8:-1 9:-1 10:-1 11:-1 12:-1 13:-1 14:-1 15:-0.8 16:-1 17:-1 18:-1 19:-1 20:-1 21:-1 22:0.4 24:-1 25:-1 26:-1 27:-1 28:-1 29:-1 30:-0.468114 32:-1 33:-1 34:-1 35:-1 37:-1 38:-1 39:1 40:0.333334 
0.2653108958840752 0 1:1 2:-1 3:-1 4:-1 5:-1 6:-1 7:-1 8:1 9:-1 10:-1 11:-1 12:-1 13:-1 14:-1 15:-1 16:-1 17:-1 18:-1 19:-1 20:-1 21:-1 22:-1 24:-1 25:-1 26:-1 27:-1 28:-1 29:-1 30:0.112618 32:-1 33:-1 34:-1 35:-1 37:-1 38:-1 39:1 40:0.166666 
27.35947465271229 18.17891254782496 1:1 2:1 3:1 4:-1 5:-1 6:-1 7:-1 8:-1 9:-1 10:-1 11:-1 12:-1 13:-1 14:-1 15:-1 16:-1 17:-1 18:-1 19:-1 20:-1 21:-1 22:-1 24:-1 25:-1 26:-1 27:-1 28:-1 29:-1 30:-1 32:1 33:-1 34:-1 35:-1 37:-1 38:-1 39:1 40:0.846154 
0 32 2:-1 3:1 4:-1 5:-1 6:-1 7:-1 8:-1 9:-1 10:-1 11:-1 12:-1 13:-1 14:-1 16:-1 17:-1 18:-1 19:-1 20:-1 21:-1 22:-1 24:-1 25:-1 26:-1 27:-1 28:-1 29:-1 30:-0.496856 32:-1 33:-1 34:-1 35:-1 37:-1 38:-1 39:1 
32 0 1:1 2:-1 3:1 4:-1 5:-1 6:-1 7:-1 8:-1 9:-1 10:-1 11:-1 12:-1 13:-1 14:-1 15:-1 16:-1 17:-1 18:-1 19:-1 20:-1 21:-1 22:1 24:-1 25:-1 26:-1 27:-1 28:-1 29:-1 30:-0.963415 32:1 33:-1 34:-1 35:-1 37:-1 38:-1 39:-1 40:0.5 
32 0 1:1 2:-1 3:1 4:-1 5:-1 6:-1 7:-1 8:-1 9:-1 10:-1 11:-1 12:-1 13:-1 14:-1 15:-1 16:-1 17:-1 18:-1 19:-1 20:-1 21:-1 22:1 24:-1 25:-1 26:-1 27:-1 28:-1 29:-1 30:-0.95122 32:1 33:-1 34:-1 35:-1 37:-1 38:-1 39:-1 40:0.5 
32 0 1:1 2:-1 3:0.333334 4:-1 5:-1 6:-1 7:-1 8:-1 9:-1 10:-1 11:-1 12:-1 13:-1 14:-1 15:-1 16:-1 17:-1 18:-1 19:-1 20:-1 21:-1 22:-0.333334 24:-1 25:-1 26:-1 27:-1 28:-1 29:-1 30:0.485982 32:-1 33:-1 34:-1 35:-1 37:-1 38:-1 39:1 40:0.25 
32 0 2:-1 3:1 4:-1 5:-1 6:-1 7:-1 8:-1 9:-1 10:-1 11:-1 12:-1 13:-1 14:-1 15:-1 16:-1 17:-1 18:-1 19:-1 20:-1 21:-1 22:1 24:-1 25:-1 26:-1 27:-1 28:-1 29:-1 30:0.6974 32:-1 33:-1 34:-1 35:-1 37:-1 38:-1 39:-1 40:0.310344 
0 32 1:0.5 2:-1 3:0.5 4:-1 5:-1 6:-1 7:-1 8:-1 9:-1 10:-1 11:-1 12:-1 13:-1 14:-0.5 15:-0.5 16:-1 17:-1 18:-1 19:-1 20:-1 21:-1 22:-0.5 24:-1 25:-1 26:-1 27:-1 28:-1 29:-1 30:-0.953488 32:-1 33:-1 34:-1 35:-1 37:-1 38:-1 39:1 40:-0.333334 
32 0 1:1 2:-1 3:1 4:-1 5:-1 6:-1 7:-1 8:-1 9:-1 10:-1 11:-1 12:-1 13:-1 14:-1 15:-1 16:-1 17:-1 18:-1 19:-1 20:-1 21:-1 22:1 24:-1 25:-1 26:-1 27:-1 28:-1 29:-1 30:-0.988636 32:1 33:-1 34:-1 35:-1 37:-1 38:-1 39:-1 40:1 
0 32 1:0.037038 2:-0.333334 3:0.111112 4:-1 5:-1 6:-1 7:-0.333334 8:-1 9:-1 10:-1 11:-0.333334 12:-1 13:-1 14:-0.703704 15:-1 16:-0.925926 17:-1 18:-1 19:-1 20:-1 21:-1 22:-0.185186 24:-1 25:-1 26:-1 27:-1 28:-1 29:-1 30:-0.899281 32:-1 33:-1 34:-1 35:-1 37:-1 38:-1 39:1 40:0.142858 
32 0 1:0.454546 2:-1 3:1 4:-1 5:-1 6:-1 7:-1 8:-1 9:-1 10:-1 11:-1 12:-1 13:-1 14:-1 15:-1 16:-1 17:-1 18:-1 19:-1 20:-1 21:-1 22:0.636364 24:-1 25:-1 26:-1 27:-1 28:-1 29:-1 30:-0.856115 32:-1 33:-1 34:-1 35:-1 37:-1 38:-1 39:1 40:0.142858 
0 32 1:0.058824 2:-0.294118 3:0.17647 4:-1 5:-1 6:-1 7:-0.294118 8:-1 9:-1 10:-1 11:-0.294118 12:-1 13:-1 14:-0.764706 15:-0.882353 16:-0.764706 17:-1 18:-1 19:-1 20:-1 21:-1 22:-0.17647 24:-1 25:-1 26:-1 27:-1 28:-1 29:-1 30:-0.841727 32:-1 33:-1 34:-1 35:-1 37:-1 38:-1 39:1 40:0.142858 
0 6.871812679765694 1:-0.571428 2:-0.857143 3:-0.571428 4:-0.428572 5:-0.857143 6:-0.857143 7:-0.857143 8:-1 9:-1 10:-1 11:-0.857143 12:-1 13:-1 14:-0.714286 15:-1 16:-1 17:-1 18:-1 19:-1 20:-1 21:-0.857143 22:-0.857143 24:-1 25:-1 26:-1 27:-1 28:-1 29:-1 30:-0.827338 32:-1 33:-1 34:-1 35:-1 37:-1 38:-1 39:1 40:0.142858 
0 32 1:0.076924 2:-0.23077 3:0.23077 4:-1 5:-1 6:-1 7:-0.23077 8:-1 9:-1 10:-1 11:-0.23077 12:-1 13:-1 14:-0.846154 15:-0.846154 16:-0.846154 17:-1 18:-1 19:-1 20:-1 21:-1 22:-0.076924 24:-1 25:-1 26:-1 27:-1 28:-1 29:-1 30:-0.769784 32:-1 33:-1 34:-1 35:-1 37:-1 38:-1 39:1 40:0.142858 
0 32 1:0.142858 2:-0.428572 3:0.428572 4:-1 5:-1 6:-1 7:-0.428572 8:-1 9:-1 10:-1 11:-0.428572 12:-1 13:-1 14:-0.714286 15:-1 16:-1 17:-1 18:-1 19:-1 20:-1 21:-1 22:-0.142858 24:-1 25:-1 26:-1 27:-1 28:-1 29:-1 30:-0.697842 32:-1 33:-1 34:-1 35:-1 37:-1 38:-1 39:1 40:0.142858 
0 32 1:0.04762 2:-0.333334 3:0.142858 4:-1 5:-1 6:-1 7:-0.333334 8:-1 9:-1 10:-1 11:-0.333334 12:-1 13:-1 14:-0.714286 15:-0.904762 16:-0.809524 17:-1 18:-1 19:-1 20:-1 21:-1 22:-0.238096 24:-1 25:-1 26:-1 27:-1 28:-1 29:-1 30:-0.640288 32:-1 33:-1 34:-1 35:-1 37:-1 38:-1 39:1 40:0.142858 
0 19.780011366782 4:-1 5:-1 6:-1 7:-1 8:-1 9:-1 10:-1 12:-1 13:-1 14:-1 16:-1 17:-1 18:-1 19:-1 20:-1 21:-1 22:-1 24:-1 25:-1 26:-1 27:-1 28:-1 29:-1 30:-0.223022 32:-1 33:-1 34:-1 35:-1 37:-1 38:-1 39:1 
23.4752463250289 0 1:1 2:1 3:1 4:-1 5:-1 6:-1 8:-1 9:-1 10:-1 11:-1 12:-1 13:-1 14:-1 15:-1 16:-1 17:-1 18:-1 19:-1 20:-1 21:-1 24:-1 25:-1 26:-1 27:-1 28:1 29:-1 30:-0.924528 32:1 33:-1 34:-1 35:-1 37:-1 38:-1 39:1 40:0.5 
0.4535263406076451 0 1:1 2:1 3:1 4:-1 5:-1 6:-1 7:1 8:-1 9:-1 10:-1 11:-1 12:-1 13:-1 14:-1 15:-1 16:-1 17:-1 18:-1 19:-1 20:-1 21:-1 22:1 24:-1 25:-1 26:-1 27:-1 28:1 29:-1 30:-0.808696 32:1 33:1 34:-1 35:-1 37:-1 38:-1 39:-1 40:1 
9.534238468480979 0 1:0.428572 2:-1 3:1 4:-1 5:-1 6:-1 7:-1 8:-1 9:-1 10:-1 11:-1 12:-1 13:-1 14:-1 15:-1 16:-0.714286 17:-1 18:-1 19:-1 20:-1 21:-1 22:0.714286 24:-1 25:-1 26:-1 27:-1 28:-1 29:-1 30:-1 32:-1 33:-1 34:-1 35:-1 37:-1 38:-1 39:1 40:0.133334 
32 0 1:-1 2:-1 3:1 4:-1 5:-1 6:-1 7:-1 8:-1 9:-1 10:-1 11:-1 12:-1 13:-1 14:-1 15:-1 16:-1 17:-1 18:-1 19:-1 20:-1 21:-1 22:1 24:-1 25:-1 26:-1 27:-1 28:-1 29:-1 30:-1 32:-1 33:-1 34:-1 35:-1 37:-1 38:-1 39:-1 40:0.75 
0 32 1:-0.310344 2:-0.862069 3:0.034482 4:-0.724138 5:-0.931034 6:-1 7:-0.862069 8:-1 9:-1 10:-1 11:-0.724138 12:-1 13:-1 14:-0.793104 15:-0.862069 16:-0.931034 17:-1 18:-1 19:-1 20:-1 21:-1 22:-0.448276 24:-1 25:-1 26:-1 27:-1 28:-1 29:-1 30:-0.820728 32:-1 33:-1 34:-1 35:-1 37:-1 38:-1 39:1 
0 32 1:-0.333334 2:-0.62963 3:0.185186 4:-0.925926 5:-1 6:-1 7:-0.62963 8:-1 9:-1 10:-1 11:-0.62963 12:-1 13:-1 14:-0.62963 15:-0.925926 16:-0.777778 17:-1 18:-1 19:-1 20:-1 21:-1 22:-0.111112 24:-1 25:-1 26:-1 27:-1 28:-1 29:-1 30:-0.803922 32:-1 33:-1 34:-1 35:-1 37:-1 38:-1 39:1 
0 32 1:-0.333334 2:-1 3:-0.333334 4:-0.333334 5:-1 6:-1 7:-1 8:-1 9:-1 10:-1 11:-0.333334 12:-1 13:-1 14:-1 15:-1 16:-1 17:-1 18:-1 19:-1 20:-1 21:-1 22:-1 24:-1 25:-1 26:-1 27:-1 28:-1 29:-1 30:-0.77591 32:-1 33:-1 34:-1 35:-1 37:-1 38:-1 39:1 
0 32 1:-0.172414 2:-0.586206 3:-0.103448 4:-0.862069 5:-1 6:-1 7:-0.586206 8:-1 9:-1 10:-1 11:-0.724138 12:-1 13:-1 14:-0.655172 15:-0.931034 16:-0.862069 17:-1 18:-1 19:-1 20:-1 21:-1 22:-0.37931 24:-1 25:-1 26:-1 27:-1 28:-1 29:-1 30:-0.568628 32:-1 33:-1 34:-1 35:-1 37:-1 38:-1 39:1 
32 0 1:-1 2:-1 3:1 4:-1 5:-1 6:-1 7:-1 8:-1 9:-1 10:-1 11:-1 12:-1 13:-1 14:-1 15:-1 16:-1 17:-1 18:-1 19:-1 20:-1 21:-1 22:1 24:-1 25:-1 26:-1 27:-1 28:-1 29:-1 30:-0.17647 32:-1 33:-1 34:-1 35:-1 37:-1 38:-1 39:-1 40:0.75 
32 0 1:-0.272728 2:-1 3:0.636364 4:-1 5:-1 6:-1 7:-1 8:-1 9:-1 10:-1 11:-1 12:-1 13:-1 14:-0.818182 15:-1 16:-1 17:-1 18:-1 19:-1 20:-1 21:-1 22:0.454546 24:-1 25:-1 26:-1 27:-1 28:-1 29:-1 30:0.591036 32:-1 33:-1 34:-1 35:-1 37:-1 38:-1 39:1 40:0.333334 
0 7.49279276821692 1:0.333334 2:-1 3:0.333334 4:-1 5:-1 6:-1 7:-1 8:-1 9:-1 10:-1 11:-1 12:-1 13:-1 14:-1 15:-1 16:-1 17:-1 18:-1 19:-1 20:-1 21:-1 22:-1 24:-1 25:-1 26:-1 27:-1 28:-1 29:-1 30:0.89916 32:-1 33:-1 34:-1 35:-1 37:-1 38:-1 39:1 40:0.083334 
23.36222728336313 0 1:-0.538462 2:-1 3:0.692308 4:-1 5:-1 6:-1 7:-1 8:-1 9:-1 10:-1 11:-1 12:-1 13:-1 14:-0.692308 15:-1 16:-1 17:-1 18:-1 19:-1 20:-1 21:-1 22:0.076924 24:-1 25:-1 26:-1 27:-1 28:-1 29:-1 30:0.971988 32:-1 33:-1 34:-1 35:-1 37:-1 38:-1 39:1 40:0.166666 
0 1.93720468505715 1:-0.333334 2:-1 3:-0.333334 4:-0.333334 5:-1 6:-1 7:-1 8:-1 9:-1 10:-1 11:-0.333334 12:-1 13:-1 14:-1 15:-1 16:-1 17:-1 18:-1 19:-1 20:-1 21:-1 22:-0.333334 24:-1 25:-1 26:-1 27:-1 28:1 29:-1 30:-0.74269 32:-1 33:-1 34:-1 35:-1 37:-1 38:-1 39:1 
32 11.46218459837316 1:1 2:-1 3:1 4:-1 5:-1 6:-1 7:-1 8:-1 9:-1 10:-1 11:-1 12:-1 13:-1 14:-1 15:-1 17:-1 18:-1 19:-1 20:-1 21:-1 24:-1 25:-1 26:-1 27:-1 28:-1 29:-1 30:-0.989011 32:1 33:-1 34:-1 35:-1 37:-1 38:-1 39:1 40:0.818182 
0 10.72424623076525 1:1 2:-1 3:1 4:-1 5:-1 6:-1 7:-1 8:-1 9:-1 10:-1 11:-1 12:-1 13:-1 14:-1 16:-1 17:-1 18:-1 19:-1 20:-1 21:-1 24:-1 25:-1 26:-1 27:-1 28:-1 29:-1 30:-0.967033 32:1 33:-1 34:-1 35:-1 37:-1 38:-1 39:1 40:0.181818 
32 0 1:1 2:-1 3:1 4:-1 5:-1 6:-1 7:-1 8:-1 9:-1 10:-1 11:-1 12:-1 13:-1 14:-1 15:-1 17:-1 18:-1 19:-1 20:-1 21:-1 24:-1 25:-1 26:-1 27:-1 28:-1 29:-1 30:-0.23077 32:1 33:-1 34:-1 35:-1 37:-1 38:-1 39:1 40:0.818182 
0 29.981307909326 1:1 2:-1 3:1 4:-1 5:-1 6:-1 7:-1 8:-1 9:-1 10:-1 11:-1 12:-1 13:-1 14:-1 15:-1 16:1 17:-1 18:-1 19:-1 20:-1 21:-1 22:-1 24:-1 25:-1 26:-1 27:-1 28:-1 29:-1 30:-0.957627 32:1 33:-1 34:-1 35:1 37:-1 38:-1 39:-1 40:0.166666 
0 32 1:-0.333334 2:-1 3:0.333334 4:-1 5:-1 6:-1 7:-1 8:-1 9:-1 10:-1 11:-1 12:-1 13:-1 14:-1 15:-1 16:-1 17:-1 18:-1 19:-1 20:-1 21:-1 22:-1 24:-1 25:-1 26:-1 27:-1 28:-1 29:-1 30:-0.940678 32:-1 33:-1 34:-1 35:-1 37:-1 38:-1 39:1 40:0.166666 
32 0 1:-0.714286 2:-1 3:1 4:-1 5:-1 6:-1 7:-1 8:-1 9:-1 10:-1 11:-1 12:-1 13:-1 14:-1 15:-1 16:-0.714286 17:-1 18:-1 19:-1 20:-1 21:-1 22:0.714286 24:-1 25:-1 26:-1 27:-1 28:-1 29:-1 30:-0.985075 32:-1 33:-1 34:-1 35:-1 37:-1 38:-1 39:1 40:0.333334 
32 0 1:-1 2:-1 3:0.714286 4:-1 5:-1 6:-1 7:-1 8:-1 9:-1 10:-0.714286 11:-1 12:-1 13:-1 14:-1 15:-1 16:-1 17:-1 18:-1 19:-1 20:-1 21:-1 22:0.714286 24:-1 25:-1 26:-1 27:-1 28:-1 29:-1 30:-0.970149 32:-1 33:-1 34:-1 35:-1 37:-1 38:-1 39:1 40:0.333334 
32 0 1:-1 2:-1 3:1 4:-1 5:-1 6:-1 7:-1 8:-1 9:-1 10:-1 11:-1 12:-1 13:-1 14:-1 15:-1 16:-1 17:-1 18:-1 19:-1 20:-1 21:-1 22:1 24:-1 25:-1 26:-1 27:-1 28:-1 29:-1 30:-0.955224 32:-1 33:-1 34:-1 35:-1 37:-1 38:-1 39:-1 40:0.333334 
0.7114736041110953 0 1:-1 2:-1 3:1 4:-1 5:-1 6:-1 7:-1 8:-1 9:-1 10:-1 11:-1 12:-1 13:-1 14:-1 15:-1 16:1 17:-1 18:-1 19:-1 20:-1 21:-1 22:-1 24:-1 25:-1 26:-1 27:-1 28:-1 29:-1 30:-0.701492 32:-1 33:-1 34:-1 35:1 37:-1 38:-1 39:-1 40:0.111112 
0 32 1:-0.333334 2:-1 3:0.142858 4:-0.714286 5:-1 6:-1 7:-1 8:-1 9:-1 10:-1 11:-1 12:-1 13:-1 14:-0.428572 15:-0.714286 16:-0.904762 17:-1 18:-1 19:-0.809524 20:-1 21:-1 22:-0.714286 24:-1 25:-0.904762 26:-1 27:-1 28:-1 29:-1 30:-0.567164 32:-1 33:-1 34:-1 35:-1 37:-1 38:-1 39:1 40:0.02735 
0 4.426754649893216 1:1 3:1 4:-1 5:-1 6:-1 7:-1 8:-1 9:-1 10:-1 11:-1 12:-1 13:-1 14:-1 15:-1 16:-1 17:-1 18:-1 19:-1 20:-1 21:-1 22:-1 24:-1 25:-1 26:-1 27:-1 28:-1 29:1 30:-0.946154 32:1 33:-1 34:-1 35:-1 37:-1 38:-1 39:1 
0 32 1:0.5 2:0.5 3:0.5 4:-1 5:-1 6:-1 7:-0.5 8:-1 9:-1 10:-1 11:-0.5 12:-1 13:-1 14:-1 15:-0.5 16:-1 17:-1 18:-1 19:-1 20:-1 21:-1 22:-0.5 24:-1 25:-1 26:-1 27:-1 28:-1 29:-1 30:-0.971631 32:-1 33:-1 34:-1 35:-1 37:-1 38:-1 39:1 40:-0.666666 
2.464224518178932 0 1:1 2:1 3:1 4:-1 5:-1 6:-1 7:-1 8:-1 9:-1 10:-1 11:-1 12:-1 13:-1 14:-1 15:-0.5 16:-1 17:-1 18:-1 19:-1 20:-1 21:-1 22:0.5 24:-1 25:-1 26:-1 27:-1 28:-1 29:-1 30:0.971632 32:1 33:-1 34:-1 35:-1 37:-1 38:-1 39:1 40:-1 
0 32 2:-1 3:0.333334 4:-1 5:-1 6:-1 7:-1 8:-1 9:-1 10:-1 11:-1 12:-1 13:-1 14:-0.666666 15:-1 16:-1 17:-1 18:-1 19:-1 20:-1 21:-1 22:-0.666666 24:-1 25:-1 26:-1 27:-1 28:-1 29:-1 30:-0.931707 32:-1 33:-1 34:-1 35:-1 37:-1 38:-1 39:1 
0 32 1:-0.142858 2:-1 3:0.142858 4:-0.714286 5:-1 6:-1 7:-1 8:-1 9:-1 10:-1 11:-1 12:-1 13:-1 14:-0.714286 15:-1 16:-0.714286 17:-1 18:-1 19:-1 20:-1 21:-1 22:-0.714286 24:-1 25:-1 26:-1 27:-1 28:-1 29:-1 30:-0.921951 32:-1 33:-1 34:-1 35:-1 37:-1 38:-1 39:1 
0 8.302195195594516 1:-0.333334 2:-1 3:-0.333334 4:-0.333334 5:-1 6:-1 7:-1 8:-1 9:-1 10:-1 11:-0.333334 12:-1 13:-1 14:-1 15:-1 16:-1 17:-1 18:-1 19:-1 20:-1 21:-1 22:-0.333334 24:-1 25:-1 26:-1 27:-1 28:-1 29:-1 30:-0.86 32:-1 33:-1 34:-1 35:-1 37:-1 38:-1 39:1 40:0.4 
20.91690795958685 0 1:1 2:-1 3:1 4:-1 5:-1 6:-1 7:-1 8:-1 9:-1 10:-1 11:-1 12:-1 13:-1 14:-1 15:-1 16:-1 17:-1 18:-1 19:-1 20:-1 21:-1 22:1 24:-1 25:-1 26:-1 27:-1 28:-1 29:-1 30:0.63 32:1 33:-1 34:-1 35:-1 37:-1 38:-1 39:-1 40:0.4 
0 9.885292533640824 1:-1 2:-1 3:-1 4:-0.170732 5:-1 6:-1 7:-1 8:-1 9:-1 10:-1 11:-0.853659 12:-1 13:-1 14:-0.170732 15:-1 16:-1 17:-1 18:-1 19:-1 20:-1 21:-1 22:-1 24:-1 25:-1 26:-1 27:-1 28:-1 29:-1 30:0.83 32:-1 33:-1 34:-1 35:-1 37:-1 38:-1 39:1 
32 0 1:-0.333334 2:-1 3:1 4:-1 5:-1 6:-1 7:-1 8:-1 9:-1 10:-1 11:-1 12:-1 13:-1 14:-1 15:-1 16:-1 17:-1 18:-1 19:-1 20:-1 21:-1 22:1 24:-1 25:-1 26:-1 27:-1 28:-1 29:-1 30:-0.414634 32:-1 33:-1 34:-1 35:-1 37:-1 38:-1 39:-1 40:0.666666 
11.90726998549079 0 1:1 2:-1 3:1 4:-1 5:-1 6:-1 7:-1 8:-1 9:-1 10:-1 11:-1 12:-1 13:-1 14:-1 15:-1 16:-1 17:-1 18:-1 19:-1 20:-1 21:-1 24:-1 25:-1 26:-1 27:-1 28:-1 29:-1 30:-0.98895 32:1 33:-1 34:-1 35:-1 37:-1 38:-1 39:1 40:0.2 
0 32 1:1 2:-1 3:1 4:-1 5:-1 6:-1 7:-1 8:-1 9:-1 10:-1 11:-1 12:-1 13:-1 14:-1 16:-1 17:-1 18:-1 19:-1 20:-1 21:-1 22:-1 24:-1 25:-1 26:-1 27:-1 28:-1 29:-1 30:-0.690608 32:1 33:-1 34:-1 35:-1 37:-1 38:-1 39:1 40:0.066666 
0 19.83811342432562 1:-0.411764 2:-0.764706 3:-0.411764 4:-0.529412 5:-0.882353 6:-1 7:-0.764706 8:-1 9:-1 10:-1 11:-0.529412 12:-1 13:-1 14:-0.882353 15:-0.882353 16:-1 17:-1 18:-1 19:-1 20:-1 21:-1 22:-0.764706 24:-1 25:-1 26:-1 27:-1 28:-1 29:-1 30:-1 32:-1 33:-1 34:-1 35:-1 37:-1 38:-1 39:1 40:-0.333334 
0 13.96081721579153 2:-1 5:-1 6:-1 7:-1 8:-1 9:-1 10:-1 11:-1 12:-1 13:-1 14:-1 15:-1 16:-1 17:-1 18:-1 19:-1 20:-1 21:-1 22:-1 24:-1 25:-1 26:-1 27:-1 28:-1 29:-1 30:-0.838863 32:-1 33:-1 34:-1 35:-1 37:-1 38:-1 39:1 40:-0.5 
0 1.321547726312928 1:0.333334 2:-1 3:0.333334 4:-1 5:-1 6:-1 7:-1 8:-1 9:-1 10:-1 11:-1 12:-1 13:-1 14:-0.333334 15:-0.333334 16:-0.333334 17:-1 18:-1 19:-1 20:-1 21:-1 22:-1 24:-1 25:-1 26:-1 27:-1 28:-1 29:-1 30:-0.725118 32:-1 33:-1 34:-1 35:-1 37:-1 38:-1 39:1 40:-0.5 
0 0.3347971839882273 1:1 2:-1 3:-1 4:-1 5:-1 6:-1 7:-1 8:-1 9:-1 10:-1 11:-1 12:-1 13:-1 14:-1 15:-1 16:-1 17:-1 18:-1 19:-1 20:-1 21:-1 22:-1 24:-1 25:-1 26:-1 27:-1 28:1 29:-1 30:-0.990291 32:-1 33:-1 34:-1 35:-1 37:-1 38:-1 39:1 40:0.153846 
0 32 1:0.076924 2:-1 3:0.23077 4:-0.846154 5:-1 6:-1 7:-1 8:-1 9:-1 10:-1 11:-0.846154 12:-1 13:-1 14:-0.384616 15:-0.692308 16:-1 17:-1 18:-1 19:-1 20:-1 21:-1 22:-0.384616 24:-1 25:-0.846154 26:-1 27:-1 28:-1 29:-1 30:-0.932039 32:-1 33:-1 34:-1 35:-1 37:-1 38:-1 39:1 
0 11.4930370424388 1:1 2:-1 3:1 4:-1 5:-1 6:-1 7:-1 8:-1 9:-1 10:-1 11:-1 12:-1 13:-1 14:-1 15:-1 16:-1 17:-1 18:-1 19:-1 20:-1 21:-1 22:-1 24:-1 25:-1 26:-1 27:-1 28:-1 29:-1 30:-0.828571 32:1 33:-1 34:-1 35:-1 37:-1 38:-1 39:1 40:0.066666 
32 0 1:0.428572 2:-1 3:1 4:-1 5:-1 6:-1 7:-1 8:-1 9:-1 10:-1 11:-1 12:-1 13:-1 14:-1 15:-1 16:-1 17:-1 18:-1 19:-1 20:-1 21:-1 22:1 24:-1 25:-1 26:-1 27:-1 28:-1 29:-1 30:-1 32:-1 33:-1 34:-1 35:-1 37:-1 38:-1 39:-1 40:0.1875 
0 32 1:0.5 2:-0.5 3:0.5 4:-1 5:-1 6:-1 7:-0.5 8:-1 9:-1 10:-1 11:-0.5 12:-1 13:-1 14:-1 15:-0.5 16:-0.5 17:-1 18:-1 19:-1 20:-1 21:-1 22:-0.5 24:-1 25:-1 26:-1 27:-1 28:-1 29:-1 30:0.53 32:-1 33:-1 34:-1 35:-1 37:-1 38:-1 39:1 40:0.0625 
22.17137807773617 0 1:0.6 2:-1 3:1 4:-1 5:-1 6:-1 7:-1 8:-1 9:-1 10:-1 11:-1 12:-1 13:-1 14:-1 15:-1 16:-0.6 17:-1 18:-1 19:-1 20:-1 21:-1 22:0.6 24:-1 25:-1 26:-1 27:-1 28:-1 29:-1 30:0.83 32:-1 33:-1 34:-1 35:-1 37:-1 38:-1 39:1 40:0.0625 
0 7.406422577174799 5:-1 6:-1 7:-1 8:-1 9:-1 10:-1 11:-1 12:-1 13:-1 14:-1 15:-1 16:-1 17:-1 18:-1 19:-1 20:-1 21:-1 22:-1 24:-1 25:-1 26:-1 27:-1 28:-1 29:-1 30:0.97 32:-1 33:-1 34:-1 35:-1 37:-1 38:-1 39:1 40:0.0625 
0 32 1:1 2:-1 3:1 4:-1 5:-1 6:-1 7:-1 8:-1 9:-1 10:-1 11:-1 12:-1 13:-1 14:-1 15:1 16:-1 17:-1 18:-1 19:-1 20:-1 21:-1 22:-1 24:-1 25:-1 26:-1 27:-1 28:-1 29:-1 30:-0.945055 32:1 33:-1 34:1 35:-1 37:-1 38:-1 39:-1 40:0.5 
0 32 1:0.066666 2:-1 3:0.333334 4:-0.866667 5:-1 6:-0.866667 7:-1 8:-1 9:-1 10:-1 11:-1 12:-1 13:-1 14:-0.6 15:-0.6 16:-0.733334 17:-1 18:-1 19:-1 20:-1 21:-1 22:-1 24:-1 25:-1 26:-1 27:-1 28:-1 29:-1 30:-0.934066 32:-1 33:-1 34:-1 35:-1 37:-1 38:-1 39:1 40:-0.333334 
32 0 1:1 2:1 3:1 4:-1 5:-1 6:-1 7:-1 8:-1 9:-1 10:-1 11:-1 12:-1 13:-1 14:-1 15:-1 16:-1 17:-1 18:-1 19:-1 20:-1 21:-1 22:1 24:-1 25:-1 26:-1 27:-1 28:-1 29:-1 30:-1 32:1 33:-1 34:-1 35:-1 37:-1 38:-1 39:-1 40:1 
0 25.43680325771044 1:1 2:1 3:1 4:-1 5:-1 6:-1 7:-1 8:-1 9:-1 10:-1 11:-1 12:-1 13:-1 14:-1 16:-1 17:-1 18:-1 19:-1 20:-1 21:-1 22:-1 24:-1 25:-1 26:-1 27:-1 28:-1 29:-1 30:-0.969231 32:1 33:-1 34:-1 35:-1 37:-1 38:-1 39:1 40:-0.5 
0 13.47819577158458 1:1 2:1 3:1 4:-1 5:-1 6:-1 7:-1 8:-1 9:-1 10:-1 11:-1 12:-1 13:-1 14:-1 17:-1 18:-1 19:-1 20:-1 21:-1 22:-1 24:-1 25:-1 26:-1 27:-1 28:-1 29:-1 30:-0.892308 32:1 33:-1 34:-1 35:-1 37:-1 38:-1 39:1 40:-0.5 
0 32 1:0.5 2:0.5 3:0.5 4:-1 5:-1 6:-1 7:-0.5 8:-1 9:-1 10:-1 11:-1 12:-1 13:-1 14:-1 15:-0.5 16:-0.5 17:-1 18:-1 19:-1 20:-1 21:-1 22:-0.5 24:-1 25:-1 26:-1 27:-1 28:-1 29:-1 30:-0.584616 32:-1 33:-1 34:-1 35:-1 37:-1 38:-1 39:1 40:-0.5 
32 0 1:-0.5 2:-1 3:1 4:-1 5:-1 6:-1 7:-1 8:-1 9:-1 10:-1 11:-1 12:-1 13:-1 14:-1 15:-1 16:-0.5 17:-1 18:-1 19:-1 20:-1 21:-1 22:0.5 24:-1 25:-1 26:-1 27:-1 28:-1 29:-1 30:-0.276924 32:-1 33:-1 34:-1 35:-1 37:-1 38:-1 39:1 40:0.527778 
32 0 1:0.2 2:-1 3:0.2 4:-1 5:-1 6:-1 7:-1 8:-1 9:-1 10:-1 11:-1 12:-1 13:-1 14:-1 15:-1 16:-1 17:-1 18:-1 19:-1 20:-1 21:-1 22:0.2 24:-1 25:-1 26:-1 27:-1 28:1 29:-1 30:-0.990521 32:-1 33:-1 34:-1 35:-1 37:-1 38:-1 39:1 40:0.214286 
0 32 1:0.272728 2:-1 3:0.272728 4:-0.818182 5:-1 6:-1 7:-1 8:-1 9:-1 10:-1 11:-1 12:-1 13:-1 14:-0.454546 15:-0.818182 16:-0.818182 17:-1 18:-0.818182 19:-1 20:-1 21:-1 22:-0.818182 24:-1 25:-1 26:-1 27:-1 28:-1 29:-1 30:-0.943128 32:-1 33:-1 34:-1 35:-1 37:-1 38:-1 39:1 40:0.071428 
29.32631038699623 0 1:-0.818182 2:-1 3:0.818182 4:-1 5:-1 6:-1 7:-1 8:-1 9:-1 10:-1 11:-0.909091 12:-1 13:-1 14:-0.909091 15:-1 16:-0.727272 17:-1 18:-1 19:-1 20:-1 21:-1 22:0.545454 24:-1 25:-1 26:-1 27:-1 28:1 29:-1 30:-0.933649 32:-1 33:-1 34:-1 35:-1 37:-1 38:-1 39:1 40:0.142858 
31.8076850567688 0 1:-0.9 2:-1 3:0.8 4:-0.8 5:-1 6:-0.9 7:-1 8:-1 9:-1 10:-1 11:-1 12:-1 13:-1 14:-0.9 15:-0.9 16:-0.9 17:-1 18:-1 19:-1 20:-1 21:-1 22:0.6 24:-1 25:-1 26:-1 27:-1 28:1 29:-1 30:-0.914692 32:-1 33:-1 34:-1 35:-1 37:-1 38:-1 39:1 40:0.142858 
32 0 1:-1 2:-1 3:0.916666 4:-1 5:-1 6:-1 7:-1 8:-1 9:-1 10:-1 11:-1 12:-1 13:-1 14:-0.916667 15:-1 16:-0.916667 17:-1 18:-1 19:-1 20:-1 21:-1 22:0.666666 24:-1 25:-1 26:-1 27:-1 28:1 29:-1 30:-0.876777 32:-1 33:-1 34:-1 35:-1 37:-1 38:-1 39:1 40:0.142858 
25.76889576025582 0 1:1 2:-1 3:1 4:-1 5:-1 6:-1 7:-1 8:-1 9:-1 10:-1 11:-1 12:-1 13:-1 14:-1 15:-1 16:-1 17:-1 18:-1 19:-1 20:-1 21:-1 22:1 24:-1 25:-1 26:-1 27:-1 28:1 29:-1 30:-0.800948 32:1 33:-1 34:-1 35:-1 37:-1 38:-1 39:-1 40:0.285714 
32 0 1:1 3:1 4:-1 5:-1 6:-1 7:-1 8:-1 9:-1 10:-1 11:-1 12:-1 13:-1 14:-1 15:-1 16:-1 17:-1 18:-1 19:-1 20:-1 21:-1 24:-1 25:-1 26:-1 27:-1 28:1 29:-1 30:-1 32:1 33:-1 34:-1 35:-1 37:-1 38:-1 39:1 40:1 
0 32 1:0.333334 2:-0.333334 3:0.333334 4:-1 5:-1 6:-1 7:-0.333334 8:-1 9:-1 10:-1 11:-0.333334 12:-1 13:-1 14:-1 15:-0.333334 16:-1 17:-1 18:-1 19:-1 20:-1 21:-1 22:-0.333334 24:-1 25:-1 26:-1 27:-1 28:-1 29:-1 30:-0.24 32:-1 33:-1 34:-1 35:-1 37:-1 38:-1 39:1 
0 32 1:1 2:-1 3:1 4:-1 5:-1 6:-1 7:-1 8:-1 9:-1 10:-1 11:-1 12:-1 13:-1 14:-1 16:-1 17:-1 18:-1 19:-1 20:-1 21:-1 22:-1 24:-1 25:-1 26:-1 27:-1 28:-1 29:-1 30:0.53271 32:1 33:-1 34:-1 35:-1 37:-1 38:-1 39:1 
0 22.61509260933975 1:-0.411764 2:-0.764706 3:-0.411764 4:-0.529412 5:-0.882353 6:-1 7:-0.764706 8:-1 9:-1 10:-1 11:-0.529412 12:-1 13:-1 14:-0.882353 15:-0.882353 16:-1 17:-1 18:-1 19:-1 20:-1 21:-1 22:-0.764706 24:-1 25:-1 26:-1 27:-1 28:-1 29:-1 30:-1 32:-1 33:-1 34:-1 35:-1 37:-1 38:-1 39:1 40:-0.333334 
0 32 1:-0.5 2:-1 4:-1 5:-1 6:-1 7:-1 8:-1 9:-1 10:-1 11:-1 12:-1 13:-1 14:-0.5 15:-1 16:-0.5 17:-1 18:-1 19:-1 20:-1 21:-1 22:-1 24:-1 25:-1 26:-1 27:-1 28:-1 29:-1 30:-0.924528 32:-1 33:-1 34:-1 35:-1 37:-1 38:-1 39:1 
0 14.44743875946747 1:-1 2:-1 3:-1 4:0.333334 5:-1 6:-1 7:-1 8:-1 9:-1 10:-1 11:-1 12:-1 13:-1 14:-0.333334 15:-1 16:-1 17:-1 18:-1 19:-1 20:-1 21:-1 22:-1 24:-1 25:-1 26:-1 27:-1 28:-1 29:-1 30:-0.95 32:-1 33:-1 34:-1 35:-1 37:-1 38:-1 39:1 40:-0.5 
0 20.48205947684689 1:1 2:-1 3:1 4:-1 5:-1 6:-1 7:-1 8:-1 9:-1 10:-1 11:-1 12:-1 13:-1 14:-1 15:1 16:-1 17:-1 18:-1 19:-1 20:-1 21:-1 22:-1 24:-1 25:-1 26:-1 27:-1 28:-1 29:-1 30:-0.111112 32:1 33:-1 34:1 35:-1 37:-1 38:-1 39:-1 40:0.2 
0.5342531756527266 0 1:-1 2:-1 3:-1 4:1 5:1 6:-1 7:-1 8:-1 9:-1 10:-1 11:-1 12:-1 13:-1 14:-1 15:-1 16:-1 17:-1 18:-1 19:-1 20:-1 21:-1 22:-1 24:-1 25:-1 26:-1 27:-1 28:-1 29:-1 30:-1 32:-1 33:-1 34:-1 35:-1 37:-1 38:-1 39:1 40:0.4 
0 20.51954277623296 1:0.125 2:-0.5 3:0.125 4:-0.625 5:-0.875 6:-1 7:-0.875 8:-1 9:-1 10:-1 11:-0.875 12:-1 13:-1 14:-0.625 15:-1 16:-0.625 17:-1 18:-0.875 19:-1 20:-1 21:-1 22:-0.5 24:-1 25:-1 26:-1 27:-1 28:-1 29:1 30:-0.90625 32:-1 33:-1 34:-1 35:-1 37:-1 38:-1 39:1 40:0.2 
32 0 1:1 2:1 3:1 4:-1 5:-1 6:-1 7:-1 8:-1 9:-1 10:-1 11:-1 12:-1 13:-1 14:-1 15:-1 16:-0.333334 17:-1 18:-1 19:-1 20:-1 21:-1 22:0.333334 24:-1 25:-1 26:-1 27:-1 28:-1 29:-1 30:-1 32:1 33:-1 34:-1 35:-1 37:-1 38:-1 39:1 40:1 
0 32 2:-0.846154 3:0.076924 4:-0.923077 5:-1 6:-1 7:-1 8:-0.923077 9:-1 10:-1 11:-1 12:-1 13:-1 14:-0.384616 15:-1 16:-0.692308 17:-1 18:-1 19:-1 20:-1 21:-1 22:-0.538462 24:-1 25:-0.846154 26:-1 27:-1 28:-1 29:-1 30:-0.917098 32:-1 33:-1 34:-1 35:-1 37:-1 38:-1 39:1 40:0.192708 
0 32 1:-1 2:-1 3:-0.68421 4:-0.157894 5:-1 6:-0.894737 7:-1 8:-1 9:-1 10:-1 11:-1 12:-1 13:-1 14:-0.263158 15:-1 16:-0.894737 17:-1 18:-1 19:-1 20:-1 21:-1 22:-0.789474 24:-1 25:-1 26:-1 27:-1 28:-1 29:-1 30:-0.854922 32:-1 33:-1 34:-1 35:-1 37:-1 38:-1 39:1 
0 32 1:0.2 2:-0.8 3:0.4 4:-0.6 5:-1 6:-1 7:-0.8 8:-1 9:-1 10:-1 11:-0.8 12:-1 13:-1 14:-0.8 15:-0.4 16:-0.6 17:-1 18:-1 19:-1 20:-1 21:-1 22:-0.6 24:-1 25:-1 26:-1 27:-1 28:-1 29:-1 30:-0.516484 32:-1 33:-1 34:-1 35:-1 37:-1 38:-1 39:1 40:0.113998 
32 0 1:1 2:-1 3:1 4:-1 5:-1 6:-1 7:-1 8:-1 9:-1 10:-1 11:-1 12:-1 13:-1 14:-1 15:-1 16:-1 17:-1 18:-1 19:-1 20:-1 21:-1 22:1 24:-1 25:-1 26:-1 27:-1 28:-1 29:-1 30:-0.988827 32:1 33:-1 34:-1 35:-1 37:-1 38:-1 39:-1 40:1 
0 32 2:-1 3:0.5 4:-0.5 5:-1 6:-1 7:-1 8:-1 9:-1 10:-1 11:-1 12:-1 13:-1 14:-1 15:-0.5 16:-1 17:-1 18:-1 19:-1 20:-1 21:-1 24:-1 25:-1 26:-1 27:-1 28:-1 29:-1 30:-0.745856 32:-1 33:-1 34:-1 35:-1 37:-1 38:-1 39:1 40:0.25 
0 32 1:-0.333334 2:-1 4:-0.333334 5:-1 6:-1 7:-1 8:-1 9:-1 10:-1 11:-0.666666 12:-1 13:-1 14:-1 15:-0.666666 16:-0.666666 17:-1 18:-1 19:-1 20:-1 21:-1 22:-0.666666 24:-1 25:-1 26:-1 27:-1 28:-1 29:-1 30:-0.535912 32:-1 33:-1 34:-1 35:-1 37:-1 38:-1 39:1 
32 0 1:1 2:-1 3:1 4:-1 5:-1 6:-1 7:-1 8:-1 9:-1 10:-1 11:-1 12:-1 13:-1 14:-1 15:-1 16:-1 17:-1 18:-1 19:-1 20:-1 21:-1 22:1 24:-1 25:-1 26:-1 27:-1 28:1 29:-1 30:-0.987654 32:1 33:-1 34:-1 35:-1 37:-1 38:-1 39:-1 40:1 
0 16.77430002633671 2:-1 4:-1 5:-1 6:-1 7:-1 8:-1 9:-1 10:-1 11:-1 12:-0.5 13:-1 14:-1 15:-0.5 16:-0.5 17:-1 18:-1 19:-1 20:-1 21:-1 22:-1 24:-1 25:-1 26:-1 27:-1 28:-1 29:-1 30:-0.864198 32:-1 33:-1 34:-1 35:-1 37:-1 38:-1 39:1 40:-0.5 
0 31.93158648292031 1:0.2 2:-1 3:0.2 4:-1 5:-1 6:-1 7:-1 8:-1 9:-1 10:-1 11:-1 12:-1 13:-1 14:-1 15:-1 16:-1 17:-1 18:-1 19:-1 20:-1 21:-1 22:-0.2 24:-1 25:-1 26:-1 27:-1 28:1 29:-1 30:-0.990698 32:-1 33:-1 34:-1 35:-1 37:-1 38:-1 39:1 40:0.214286 
0 32 2:-1 4:-0.5 5:-1 6:-1 7:-1 8:-1 9:-1 10:-1 11:-1 12:-1 13:-1 14:-0.5 15:-0.5 16:-1 17:-1 18:-1 19:-1 20:-1 21:-1 22:-0.5 24:-1 25:-1 26:-1 27:-1 28:-1 29:-1 30:-0.934884 32:-1 33:-1 34:-1 35:-1 37:-1 38:-1 39:1 40:0.071428 
5.258901153937996 0 1:-0.789474 2:-1 3:0.894736 4:-1 5:-1 6:-1 7:-1 8:-1 9:-1 10:-1 11:-0.894737 12:-1 13:-1 14:-1 15:-1 16:-1 17:-1 18:-1 19:-1 20:-1 21:-1 22:0.894736 24:-1 25:-1 26:-1 27:-1 28:1 29:-1 30:-0.925581 32:-1 33:-1 34:-1 35:-1 37:-1 38:-1 39:1 40:0.142858 
32 0 1:-0.6 2:-1 3:0.8 4:-1 5:-1 6:-1 7:-1 8:-1 9:-1 10:-1 11:-0.9 12:-1 13:-1 14:-0.8 15:-1 16:-0.9 17:-1 18:-1 19:-1 20:-1 21:-1 22:0.7 24:-1 25:-1 26:-1 27:-1 28:1 29:-1 30:-0.869767 32:-1 33:-1 34:-1 35:-1 37:-1 38:-1 39:1 40:0.142858 
32 0 1:1 2:-1 3:1 4:-1 5:-1 6:-1 7:-1 8:-1 9:-1 10:-1 11:-1 12:-1 13:-1 14:-1 15:-1 16:-1 17:-1 18:-1 19:-1 20:-1 21:-1 22:1 24:-1 25:-1 26:-1 27:-1 28:1 29:-1 30:-0.804651 32:1 33:-1 34:-1 35:-1 37:-1 38:-1 39:-1 40:0.285714 
32 0 1:1 2:1 3:1 4:-1 5:-1 6:-1 7:-1 8:-1 9:-1 10:-1 11:-1 12:-1 13:-1 14:-1 15:-1 16:-0.333334 17:-1 18:-1 19:-1 20:-1 21:-1 22:0.333334 24:-1 25:-1 26:-1 27:-1 28:-1 29:-1 30:-1 32:1 33:-1 34:-1 35:-1 37:-1 38:-1 39:1 40:1 
32 0 1:-1 2:-1 3:1 4:-1 5:-1 6:-1 7:-1 8:-1 9:-1 10:-1 11:-1 12:-1 13:-1 14:-1 15:-1 16:-1 17:-1 18:-1 19:-1 20:-1 21:-1 22:1 24:-1 25:-1 26:-1 27:-1 28:-1 29:-1 30:-0.975 32:-1 33:-1 34:-1 35:-1 37:-1 38:-1 39:-1 40:0.5 
32 0 1:-1 2:-1 3:1 4:-1 5:-1 6:-1 7:-1 8:-1 9:-1 10:-1 11:-1 12:-1 13:-1 14:-1 15:-1 16:-1 17:-1 18:-1 19:-1 20:-1 21:-1 22:1 24:-1 25:-1 26:-1 27:-1 28:-1 29:-1 30:-0.95 32:-1 33:-1 34:-1 35:-1 37:-1 38:-1 39:-1 40:0.5 
31.18066166735546 0 1:1 2:-1 3:1 4:-1 5:-1 6:-1 7:-1 8:-1 9:-1 10:-1 11:-1 12:-1 13:-1 14:-1 15:-1 16:-1 17:-1 18:-1 19:-1 20:-1 21:-1 22:1 24:-1 25:-1 26:-1 27:-1 28:-1 29:-1 30:-0.6 32:1 33:-1 34:-1 35:-1 37:-1 38:-1 39:-1 40:0.5 
32 0 1:1 2:-1 3:1 4:-1 5:-1 6:-1 7:-1 8:-1 9:-1 10:-1 11:-1 12:-1 13:-1 14:-1 15:-1 16:-1 17:-1 18:-1 19:-1 20:-1 21:-1 22:1 24:-1 25:-1 26:-1 27:-1 28:-1 29:-1 30:0.225 32:1 33:-1 34:-1 35:-1 37:-1 38:-1 39:-1 40:0.5 
32 0 1:0.5 2:-1 3:1 4:-1 5:-1 6:-1 7:-1 8:-1 9:-1 10:-1 11:-1 12:-1 13:-1 14:-1 15:-1 16:-1 17:-1 18:-1 19:-1 20:-1 21:-1 22:1 24:-1 25:-1 26:-1 27:-1 28:-1 29:-1 30:0.660516 32:-1 33:-1 34:-1 35:-1 37:-1 38:-1 39:-1 40:0.181818 
0 1.949135493013693 1:0.666666 2:-1 3:0.666666 4:-1 5:-1 6:-1 7:-1 8:-1 9:-1 10:-1 11:-1 12:-1 13:-1 14:-0.666666 15:-0.666666 16:-0.666666 17:-1 18:-1 19:-1 20:-1 21:-1 22:-0.333334 24:-1 25:-1 26:-1 27:-1 28:-1 29:-1 30:-0.703704 32:-1 33:-1 34:-1 35:-1 37:-1 38:-1 39:1 
4.404491113189199 0 1:0.5 2:-0.5 3:1 4:-1 5:-1 6:-1 7:-0.5 8:-1 9:-1 10:-1 11:-1 12:-1 13:-1 14:-1 15:-1 16:-1 17:-1 18:-1 19:-1 20:-1 21:-1 22:1 24:-1 25:-1 26:-1 27:-1 28:-1 29:-1 30:0.798942 32:-1 33:-1 34:-1 35:-1 37:-1 38:-1 39:-1 40:0.25 
0 32 1:0.333334 2:-0.333334 3:0.333334 4:-1 5:-1 6:-1 7:-0.333334 8:-1 9:-1 10:-1 11:-0.333334 12:-1 13:-1 14:-1 15:-1 16:-1 17:-1 18:-1 19:-1 20:-1 21:-1 22:-0.333334 24:-1 25:-1 26:-1 27:-1 28:1 29:-1 30:-0.935484 32:-1 33:-1 34:-1 35:-1 37:-1 38:-1 39:1 
0 32 1:-0.333334 2:-1 3:0.333334 4:-1 5:-1 6:-1 7:-1 8:-1 9:-1 10:-1 11:-1 12:-1 13:-1 14:-1 15:-0.666666 16:-1 17:-1 18:-1 19:-1 20:-1 21:-1 22:-0.666666 24:-1 25:-1 26:-1 27:-1 28:-1 29:-0.333334 30:-0.44086 32:-1 33:-1 34:-1 35:-1 37:-1 38:-1 39:1 
0 32 1:0.5 2:-1 3:1 4:-1 5:-1 6:-1 7:-1 8:-1 9:-1 10:-1 11:-1 12:-1 13:-1 14:-1 15:-1 16:-1 17:-0.5 18:-1 19:-1 20:-1 21:-1 22:-1 24:-1 25:-1 26:-1 27:-1 28:-1 29:-1 30:-0.991398 32:-1 33:-1 34:-1 35:-1 37:-1 38:-1 39:1 40:0.4 
0 32 1:0.5 2:-1 3:1 4:-1 5:-1 6:-1 7:-1 8:-1 9:-1 10:-1 11:-1 12:-1 13:-1 14:-1 15:-1 16:-0.5 17:-0.5 18:-1 19:-1 20:-1 21:-1 22:-1 24:-1 25:-1 26:-1 27:-1 28:-1 29:-1 30:-0.987097 32:-1 33:-1 34:-1 35:-1 37:-1 38:-1 39:1 40:0.4 
20.16722672914026 32 1:0.111112 2:-1 3:0.777778 4:-1 5:-1 6:-1 7:-1 8:-1 9:-1 10:-1 11:-1 12:-1 13:-1 14:-1 15:-1 16:-1 17:-0.555556 18:-1 19:-1 20:-1 21:-1 22:-0.777778 24:-1 25:-1 26:-1 27:-1 28:-1 29:-1 30:-0.982796 32:-1 33:-1 34:-1 35:-1 37:-1 38:-1 39:1 40:0.4 
2.471417075402593 0.6500454829883572 1:-0.8 2:-1 3:0.2 4:-0.6 5:-1 6:-1 7:-1 8:-1 9:-1 10:-1 11:-0.6 12:-1 13:-1 14:-0.8 15:-1 16:-1 17:-1 18:-1 19:-1 20:-1 21:-1 22:0.2 24:-1 25:-1 26:-1 27:-1 28:-1 29:-1 30:-0.883871 32:-1 33:-1 34:-1 35:-1 37:-1 38:-1 39:1 40:0.6 
0 25.38328094343749 1:-0.333334 2:-0.333334 3:-0.333334 4:-0.333334 5:-1 6:-1 7:-1 8:-1 9:-1 10:-1 11:-0.333334 12:-1 13:-1 14:-1 15:-1 16:-1 17:-1 18:-1 19:-1 20:-1 21:-1 22:-0.333334 24:-1 25:-1 26:-1 27:-1 28:-1 29:-1 30:-0.810753 32:-1 33:-1 34:-1 35:-1 37:-1 38:-1 39:1 40:0.6 
0 32 2:-1 4:-0.5 5:-1 6:-1 7:-1 8:-1 9:-1 10:-1 11:-1 12:-1 13:-1 14:-0.5 15:-0.5 16:-1 17:-1 18:-1 19:-1 20:-1 21:-1 22:-0.5 24:-1 25:-1 26:-1 27:-1 28:-1 29:-1 30:-0.958333 32:-1 33:-1 34:-1 35:-1 37:-1 38:-1 39:1 40:-0.25 
3.410727052751692 0 1:0.5 2:0.5 3:0.5 4:-1 5:-1 6:-1 7:-1 8:-1 9:-1 10:-0.5 11:-1 12:-1 13:-1 14:-1 15:-1 16:-1 17:-1 18:-1 19:-1 20:-1 21:-1 24:-1 25:-1 26:-1 27:-1 28:1 29:-1 30:0.5 32:-1 33:-1 34:-1 35:-1 37:-1 38:-1 39:1 
6.435418670128394 0 1:0.333334 2:-0.333334 3:0.333334 4:-1 5:-1 6:-1 7:-0.333334 8:-1 9:-1 10:-0.333334 11:-1 12:-1 13:-1 14:-1 15:-1 16:-1 17:-1 18:-1 19:-1 20:-1 21:-1 22:-0.333334 24:-1 25:-1 26:-1 27:-1 28:-1 29:-1 30:0.989584 32:-1 33:-1 34:-1 35:-1 37:-1 38:-1 39:1 
32 9.568982726801609 1:0.5 2:-1 3:1 4:-1 5:-1 6:-1 7:-1 8:-1 9:-1 10:-1 11:-1 12:-1 13:-1 14:-1 15:-1 16:-1 17:-1 18:-1 19:-1 20:-1 21:-1 22:0.5 24:-1 25:-1 26:-1 27:-0.5 28:-1 29:-1 30:-1 32:-1 33:-1 34:-1 35:-1 37:-1 38:-1 39:1 40:1 
16.95528571689767 0 1:0.23077 2:-1 3:0.846154 4:-1 5:-1 6:-1 7:-1 8:-1 9:-1 10:-1 11:-1 12:-1 13:-1 14:-0.846154 15:-1 16:-1 17:-1 18:-1 19:-1 20:-1 21:-1 22:0.538462 24:-1 25:-1 26:-1 27:-1 28:-1 29:-1 30:-0.950617 32:-1 33:-1 34:-1 35:-1 37:-1 38:-1 39:1 40:0.166666 
0 32 1:0.066666 2:-0.733334 3:0.066666 4:-0.866667 5:-1 6:-1 7:-0.733334 8:-1 9:-1 10:-1 11:-0.733334 12:-1 13:-1 14:-0.866667 15:-0.6 16:-0.866667 17:-0.866667 18:-1 19:-1 20:-1 21:-1 22:-0.6 24:-1 25:-1 26:-1 27:-1 28:-1 29:-1 30:-0.185186 32:-1 33:-1 34:-1 35:-1 37:-1 38:-1 39:1 40:0.031636 
32 0 1:1 2:-1 3:1 4:-1 5:-1 6:-1 7:-1 8:-1 9:-1 10:-1 11:-1 12:-1 13:-1 14:-1 15:-1 16:-1 17:-1 18:-1 19:-1 20:-1 21:-1 22:1 24:-1 25:-1 26:-1 27:-1 28:-1 29:-1 30:-0.957672 32:1 33:-1 34:-1 35:-1 37:-1 38:-1 39:-1 40:1 
0.9719397995033595 0 1:1 2:-1 3:1 4:-1 5:-1 6:-1 7:-1 8:-1 9:-1 10:-1 11:-1 12:-1 13:-1 14:-1 15:-1 16:-1 17:-1 18:-1 19:-1 20:-1 21:-1 22:-1 24:-1 25:-1 26:1 27:-1 28:-1 29:-1 30:-0.411764 32:1 33:-1 34:-1 35:-1 37:-1 38:-1 39:1 40:0.4 
0 32 2:-0.5 4:-0.5 5:-1 6:-1 7:-1 8:-1 9:-1 10:-1 11:-1 12:-1 13:-1 14:-0.5 15:-0.5 16:-1 17:-1 18:-1 19:-1 20:-1 21:-1 22:-0.5 24:-1 25:-1 26:-1 27:-1 28:-1 29:-1 30:0.411764 32:-1 33:-1 34:-1 35:-1 37:-1 38:-1 39:1 40:0.2 
3.377507938694118 0 1:1 2:1 3:1 4:-1 5:-1 6:-1 7:-1 8:-1 9:-1 10:-1 11:-1 12:-1 13:-1 14:-1 15:-1 16:-1 17:-1 18:-1 19:-1 20:-1 21:-1 22:0.333334 24:-1 25:-1 26:-1 27:-1 28:-1 29:-1 30:1 32:1 33:-1 34:-1 35:-1 37:-1 38:-1 39:1 40:0.4 
32 0 1:0.2 2:-1 3:0.2 4:-1 5:-1 6:-1 7:-1 8:-1 9:-1 10:-1 11:-1 12:-1 13:-1 14:-1 15:-1 16:-1 17:-1 18:-1 19:-1 20:-1 21:-1 22:0.2 24:-1 25:-1 26:-1 27:-1 28:1 29:-1 30:-0.989362 32:-1 33:-1 34:-1 35:-1 37:-1 38:-1 39:1 40:0.214286 
32 0 1:-0.894737 2:-1 3:1 4:-1 5:-1 6:-1 7:-1 8:-1 9:-1 10:-1 11:-1 12:-1 13:-1 14:-1 15:-1 16:-0.789474 17:-1 18:-1 19:-1 20:-1 21:-1 22:0.789474 24:-1 25:-1 26:-1 27:-1 28:1 29:-1 30:-0.914894 32:-1 33:-1 34:-1 35:-1 37:-1 38:-1 39:1 40:0.142858 
6.020420912950235 0 1:0.333334 2:-1 3:1 4:-1 5:-1 6:-1 7:-1 8:-1 9:-1 10:-1 11:-1 12:-1 13:-1 14:-0.333334 15:-1 16:-1 17:-1 18:-1 19:-1 20:-1 21:-1 22:1 24:-1 25:-1 26:-1 27:-1 28:1 29:-1 30:-0.202128 32:-1 33:-1 34:-1 35:-1 37:-1 38:-1 39:-1 40:0.285714 
32 0 1:-0.826087 2:-0.913043 3:0.826086 4:-1 5:-1 6:-1 7:-1 8:-1 9:-1 10:-1 11:-1 12:-1 13:-1 14:-0.913043 15:-1 16:-1 17:-1 18:-1 19:-1 20:-1 21:-1 22:0.652174 24:-1 25:-1 26:-1 27:-1 28:1 29:-1 30:-0.903846 32:-1 33:-1 34:-1 35:-1 37:-1 38:-1 39:1 40:0.142858 
32 0 1:-0.846154 2:-0.846154 3:0.76923 4:-1 5:-1 6:-1 7:-1 8:-1 9:-1 10:-1 11:-1 12:-1 13:-1 14:-0.846154 15:-1 16:-1 17:-1 18:-1 19:-1 20:-1 21:-1 22:0.538462 24:-1 25:-1 26:-1 27:-1 28:1 29:-1 30:-0.875 32:-1 33:-1 34:-1 35:-1 37:-1 38:-1 39:1 40:0.142858 
0 32 1:0.076924 2:-0.384616 3:0.076924 4:-1 5:-1 6:-1 7:-0.384616 8:-1 9:-1 10:-1 11:-0.384616 12:-1 13:-1 14:-1 15:-0.692308 16:-1 17:-1 18:-1 19:-1 20:-1 21:-1 22:-0.384616 24:-1 25:-1 26:-1 27:-1 28:-1 29:-1 30:-0.837321 32:-1 33:-1 34:-1 35:-1 37:-1 38:-1 39:1 40:-0.2 
0 13.02410311853112 2:-0.333334 4:-1 5:-1 6:-1 7:-0.333334 8:-1 9:-1 10:-1 11:-0.444444 12:-1 13:-1 14:-1 15:-0.888889 16:-0.888889 17:-1 18:-1 19:-1 20:-1 21:-1 22:-0.333334 24:-1 25:-1 26:-1 27:-1 28:-1 29:-1 30:-0.827751 32:-1 33:-1 34:-1 35:-1 37:-1 38:-1 39:1 40:-0.184822 
0 32 1:0.058824 2:-0.294118 3:0.058824 4:-1 5:-1 6:-1 7:-0.294118 8:-1 9:-1 10:-1 11:-0.294118 12:-1 13:-1 14:-1 15:-0.647058 16:-1 17:-1 18:-1 19:-1 20:-1 21:-1 22:-0.294118 24:-1 25:-1 26:-1 27:-1 28:-1 29:-1 30:-0.712918 32:-1 33:-1 34:-1 35:-1 37:-1 38:-1 39:1 40:-0.2 
0 0.1115701186701672 1:1 2:-1 3:1 4:-1 5:-1 6:-1 7:-1 8:-1 9:-1 10:-1 11:-1 12:-1 13:-1 14:-1 15:-1 16:1 17:-1 18:-1 19:-1 20:-1 21:-1 22:-1 24:-1 25:-1 26:-1 27:-1 28:1 29:-1 30:-1 32:1 33:-1 34:-1 35:1 37:-1 38:-1 39:-1 40:-0.6 
0 9.487468709553488 1:0.333334 2:0.333334 3:1 4:-1 5:-1 6:-1 7:-0.333334 8:-1 9:-1 10:-1 11:-1 12:-1 13:-1 14:-0.333334 15:-1 16:-1 17:-1 18:-1 19:-1 20:-1 21:-1 22:-0.333334 24:-1 25:-1 26:-1 27:-1 28:-1 29:-1 30:-0.85022 32:-1 33:-1 34:-1 35:-1 37:-1 38:-1 39:1 40:-0.114286 
0 32 1:0.111112 2:-0.555556 3:0.111112 4:-1 5:-1 6:-1 7:-0.555556 8:-1 9:-1 10:-1 11:-0.111112 12:-1 13:-1 14:-1 15:-0.777778 16:-1 17:-1 18:-1 19:-1 20:-1 21:-1 22:-0.555556 24:-1 25:-1 26:-1 27:-1 28:-1 29:-1 30:-1 32:-1 33:-1 34:-1 35:-1 37:-1 38:-1 39:1 40:-0.333334 
32 0 1:0.5 2:-1 4:-1 5:-1 6:-1 7:-1 8:-1 9:-1 10:-0.5 11:-1 12:-1 13:-1 14:-1 15:-1 16:-1 17:-1 18:-1 19:-1 20:-1 21:-1 24:-1 25:-1 26:-1 27:-1 28:-1 29:-1 30:-0.272728 32:-1 33:-1 34:-1 35:-1 37:-1 38:-1 39:1 40:0.5 
32 0 1:0.6 2:-1 3:1 4:-1 5:-1 6:-1 7:-1 8:-1 9:-1 10:-1 11:-1 12:-1 13:-1 14:-0.6 15:-1 16:-1 17:-1 18:-1 19:-1 20:-1 21:-1 22:1 24:-1 25:-1 26:-1 27:-1 28:-1 29:-1 30:-0.236364 32:-1 33:-1 34:-1 35:-1 37:-1 38:-1 39:-1 40:0.5 
0 32 1:-0.066666 2:-0.866667 3:0.066666 4:-0.466666 5:-1 6:-1 7:-0.866667 8:-1 9:-1 10:-1 11:-0.866667 12:-1 13:-1 14:-0.6 15:-0.6 16:-0.733334 17:-1 18:-1 19:-1 20:-1 21:-1 22:-0.733334 24:-1 25:-1 26:-1 27:-1 28:-1 29:-1 30:-0.2 32:-1 33:-1 34:-1 35:-1 37:-1 38:-1 39:1 40:-0.093024 
0 32 1:0.333334 2:-1 3:0.333334 4:-1 5:-1 6:-1 7:-1 8:-1 9:-1 10:-1 11:-1 12:-1 13:-1 14:-0.333334 15:-0.666666 16:-0.833333 17:-1 18:-1 19:-1 20:-1 21:-1 22:-0.5 24:-1 25:-0.833333 26:-1 27:-1 28:-1 29:1 30:-0.899497 32:-1 33:-1 34:-1 35:-1 37:-1 38:-1 39:1 40:0.071428 
0.2968968647357325 0 1:1 2:-1 3:-1 4:-1 5:-1 6:-1 7:-1 8:-1 9:-1 10:-1 11:-1 12:-1 13:-1 14:-1 15:-1 16:-1 17:-1 18:-1 19:-1 20:-1 21:-1 22:-1 24:-1 25:-1 26:-1 27:-1 28:-1 29:1 30:0.711628 32:-1 33:-1 34:-1 35:-1 37:-1 38:-1 39:1 40:-0.5 
27.32942879602421 32 1:0.2 2:-1 3:0.2 4:-1 5:-1 6:-1 7:-1 8:-1 9:-1 10:-1 11:-1 12:-1 13:-1 14:-1 15:-1 16:-1 17:-1 18:-1 19:-1 20:-1 21:-1 22:-0.2 24:-1 25:-1 26:-1 27:-1 28:1 29:-1 30:-0.990741 32:-1 33:-1 34:-1 35:-1 37:-1 38:-1 39:1 40:0.214286 
30.0557619671308 0 1:-0.894737 2:-1 3:0.789474 4:-1 5:-1 6:-1 7:-1 8:-1 9:-1 10:-0.894737 11:-0.894737 12:-1 13:-1 14:-1 15:-1 16:-0.68421 17:-1 18:-1 19:-1 20:-1 21:-1 22:0.157894 24:-1 25:-1 26:-1 27:-1 28:1 29:-1 30:-0.87963 32:-1 33:-1 34:-1 35:-1 37:-1 38:-1 39:1 40:0.142858 
32 0 1:-1 2:-1 3:1 4:-1 5:-1 6:-1 7:-1 8:-1 9:-1 10:-1 11:-1 12:-1 13:-1 14:-0.9 15:-1 16:-0.9 17:-1 18:-1 19:-1 20:-1 21:-1 22:0.5 24:-1 25:-1 26:-1 27:-1 28:1 29:-1 30:-0.824074 32:-1 33:-1 34:-1 35:-1 37:-1 38:-1 39:1 40:0.142858 
0 21.21499650684699 1:1 2:-1 3:1 4:-1 5:-1 6:-1 7:-1 8:-1 9:-1 10:-1 11:-1 12:-1 13:-1 14:-1 15:-1 17:-1 18:-1 19:-1 20:-1 21:-1 22:-1 24:-1 25:-1 26:-1 27:-1 28:-1 29:-1 30:-0.987097 32:1 33:-1 34:-1 35:-1 37:-1 38:-1 39:1 40:-0.25 
32 0 1:1 2:-1 3:1 4:-1 5:-1 6:-1 7:-1 8:-1 9:-1 10:-1 11:-1 12:-1 13:-1 14:-1 15:-1 16:-1 17:-1 18:-1 19:-1 20:-1 21:-1 22:1 24:-1 25:-1 26:-1 27:-1 28:-1 29:-1 30:-0.922581 32:1 33:-1 34:-1 35:-1 37:-1 38:-1 39:-1 40:0.555556 
0 32 1:-0.2 2:-0.6 3:-0.2 4:-0.6 5:-1 6:-1 7:-1 8:-1 9:-1 10:-1 11:-1 12:-1 13:-1 14:-0.2 15:-1 16:-0.6 17:-1 18:-1 19:-1 20:-1 21:-1 22:-0.6 24:-1 25:-1 26:-1 27:-1 28:-1 29:-1 30:-0.918129 32:-1 33:-1 34:-1 35:-1 37:-1 38:-1 39:1 40:-0.166666 
0 2.250094488955977 1:-0.2 2:-0.6 3:-0.2 4:-0.6 5:-1 6:-1 7:-1 8:-1 9:-1 10:-1 11:-1 12:-1 13:-1 14:-0.2 15:-1 16:-0.6 17:-1 18:-1 19:-1 20:-1 21:-1 22:-0.6 24:-1 25:-1 26:-1 27:-1 28:-1 29:-1 30:-0.883041 32:-1 33:-1 34:-1 35:-1 37:-1 38:-1 39:1 40:-0.166666 
1.31607395208918 0 1:-1 2:-1 3:1 4:-1 5:-1 6:-1 7:-1 8:-1 9:-1 10:-1 11:-1 12:-1 13:-1 14:-1 15:-1 16:-1 17:-1 18:-1 19:-1 20:-1 21:-1 22:1 24:-1 25:-1 26:-1 27:-1 28:-1 29:-1 30:0.988304 32:-1 33:-1 34:-1 35:-1 37:-1 38:-1 39:-1 40:-1 
18.20339451930755 0 1:0.333334 2:-1 3:0.333334 4:-0.333334 5:-0.333334 6:-1 7:-1 8:-1 9:-1 10:-1 11:-1 12:-1 13:-1 14:-1 15:-1 16:-1 17:-1 18:-1 19:-1 20:-1 21:-1 22:0.333334 24:-1 25:-1 26:-1 27:-1 28:-1 29:-1 30:-0.956757 32:-1 33:-1 34:-1 35:-1 37:-1 38:-1 39:1 40:0.111112 
0 32 1:0.2 2:-0.6 3:0.2 4:-0.6 5:-1 6:-1 7:-1 8:-1 9:-1 10:-1 11:-1 12:-1 13:-1 14:-0.6 15:-1 16:-0.6 17:-1 18:-1 19:-1 20:-1 21:-1 22:-0.2 24:-1 25:-1 26:-1 27:-1 28:-1 29:-1 30:-0.945946 32:-1 33:-1 34:-1 35:-1 37:-1 38:-1 39:1 40:0.111112 
32 32 1:1 2:-1 3:1 4:-1 5:-1 6:-1 7:-1 8:-1 9:-1 10:-1 11:-1 12:-1 13:-1 14:-1 15:-1 16:-1 17:-1 18:-1 19:-1 20:-1 21:-1 22:-1 24:-1 25:-1 26:-1 27:-1 28:-1 29:-1 30:-0.924324 32:1 33:-1 34:-1 35:-1 37:-1 38:-1 39:1 40:0.333334 
0 20.80984974473324 1:0.2 2:-0.6 3:0.2 4:-0.6 5:-1 6:-1 7:-1 8:-1 9:-1 10:-1 11:-1 12:-1 13:-1 14:-0.6 15:-1 16:-0.6 17:-1 18:-1 19:-1 20:-1 21:-1 22:-0.2 24:-1 25:-1 26:-1 27:-1 28:-1 29:-1 30:-0.891892 32:-1 33:-1 34:-1 35:-1 37:-1 38:-1 39:1 40:0.111112 
6.445239955829144 32 1:1 2:-1 3:1 4:-1 5:-1 6:-1 7:-1 8:-1 9:-1 10:-1 11:-1 12:-1 13:-1 14:-1 15:-1 16:-1 17:-1 18:-1 19:-1 20:-1 21:-1 22:-1 24:-1 25:-1 26:-1 27:-1 28:-1 29:-1 30:-0.87027 32:1 33:-1 34:-1 35:-1 37:-1 38:-1 39:1 40:0.333334 
0 32 4:-0.5 5:-1 6:-1 7:-0.5 8:-1 9:-1 10:-1 11:-0.5 12:-1 13:-1 14:-1 15:-1 16:-1 17:-1 18:-1 19:-1 20:-1 21:-1 22:-0.5 24:-1 25:-1 26:-1 27:-1 28:-1 29:-1 30:-0.243244 32:-1 33:-1 34:-1 35:-1 37:-1 38:-1 39:1 40:0.333334 
0 30.18374528481775 1:1 2:-1 3:1 4:-1 5:-1 6:-1 7:-1 8:-1 9:-1 10:-1 11:-1 12:-1 13:-1 14:-1 15:-1 16:-1 17:-1 18:-1 19:-1 20:-1 21:-1 22:-1 24:-1 25:-1 26:-1 27:-1 28:-1 29:1 30:-0.943662 32:1 33:-1 34:-1 35:-1 37:-1 38:-1 39:1 40:-0.333334 
0 32 2:-1 4:-0.666666 5:-1 6:-1 7:-1 8:-1 9:-1 10:-1 11:-1 12:-1 13:-1 14:-0.333334 15:-0.333334 16:-1 17:-1 18:-1 19:-1 20:-1 21:-1 22:-1 24:-1 25:-1 26:-1 27:-1 28:-1 29:-1 30:-0.239436 32:-1 33:-1 34:-1 35:-1 37:-1 38:-1 39:1 40:-0.333334 
32 0 1:-1 2:-1 3:1 4:-1 5:-1 6:-1 7:-1 8:-1 9:-1 10:-1 11:-1 12:-1 13:-1 14:-1 15:-1 16:-1 17:-1 18:-1 19:-1 20:-1 21:-1 22:1 24:-1 25:-1 26:-1 27:-1 28:1 29:-1 30:-1 32:-1 33:-1 34:-1 35:-1 37:-1 38:-1 39:-1 40:0.31579 
0 12.02179085655626 1:1 2:-1 3:1 4:-1 5:-1 6:-1 7:-1 8:-1 9:-1 10:-1 11:-1 12:-1 13:-1 14:-1 15:0.333334 16:-1 17:-1 18:-1 19:-1 20:-1 21:-1 22:-1 24:-1 25:-1 26:-1 27:-1 28:1 29:-1 30:-0.35955 32:1 33:-1 34:-1 35:-1 37:-1 38:-1 39:1 40:-0.25 
0 32 1:0.5 2:-0.5 3:0.5 4:-1 5:-1 6:-1 7:-0.5 8:-1 9:-1 10:-1 11:-0.5 12:-1 13:-1 14:-1 15:-0.5 16:-0.5 17:-1 18:-1 19:-1 20:-1 21:-1 22:-0.5 24:-1 25:-1 26:-1 27:-1 28:1 29:-1 30:0.88764 32:-1 33:-1 34:-1 35:-1 37:-1 38:-1 39:1 40:-0.25 
-32 0 1:-0.555556 2:-0.777778 3:0.777778 4:-1 5:-1 6:-1 7:-0.777778 8:-1 9:-1 10:-0.777778 11:-1 12:-1 13:-1 14:-1 15:-1 16:-1 17:-1 18:-1 19:-1 20:-1 21:-1 22:0.777778 24:-1 25:-1 26:-1 27:-1 28:1 29:-1 30:-1 32:-1 33:-1 34:-1 35:-1 37:-1 38:-1 39:1 40:0.185186 
-32 0 1:-1 2:-1 3:0.666666 4:-1 5:-1 6:-1 7:-1 8:-1 9:-1 10:-1 11:-1 12:-1 13:-1 14:-1 15:-1 16:-1 17:-1 18:-1 19:-1 20:-1 21:-1 22:0.666666 24:-1 25:-1 26:-1 27:-1 28:1 29:-1 30:-0.991071 32:-1 33:-1 34:-1 35:-1 37:-1 38:-1 39:1 40:0.17379 
-0 32 1:-0.4 2:-1 3:0.2 4:-1 5:-1 6:-1 7:-1 8:-1 9:-1 10:-1 11:-1 12:-1 13:-1 14:-0.6 15:-1 16:-0.8 17:-1 18:-1 19:-1 20:-1 21:-1 22:-0.8 24:-1 25:-1 26:-1 27:-1 28:-1 29:-1 30:-0.953757 32:-1 33:-1 34:-1 35:-1 37:-1 38:-1 39:1 40:1 
-32 0 1:0.714286 2:-1 3:1 4:-1 5:-1 6:-1 7:-1 8:-1 9:-1 10:-1 11:-1 12:-1 13:-1 14:-1 15:-0.857143 16:-1 17:-1 18:-1 19:-1 20:-1 21:-1 22:0.714286 24:-1 25:-1 26:-1 27:-1 28:-1 29:-1 30:-0.75 32:-1 33:-1 34:-1 35:-1 37:-1 38:-1 39:1 
-26.6981337496306 0 1:-0.777778 2:-1 3:1 4:-1 5:-1 6:-1 7:-1 8:-1 9:-1 10:-1 11:-1 12:-1 13:-1 14:-1 15:-1 16:-1 17:-1 18:-1 19:-1 20:-1 21:-1 22:1 24:-1 25:-1 26:-1 27:-1 28:-1 29:-1 30:-0.977143 32:-1 33:-1 34:-1 35:-1 37:-1 38:-1 39:-1 40:0.7 
-20.91969084307856 0 1:0.428572 2:-0.714286 3:0.714286 4:-0.714286 5:-1 6:-0.714286 7:-0.714286 8:-1 9:-1 10:-1 11:-1 12:-1 13:-1 14:-1 15:-1 16:-1 17:-1 18:-1 19:-1 20:-1 21:-1 22:0.714286 24:-1 25:-1 26:-1 27:-1 28:1 29:-1 30:-0.977273 32:-1 33:-1 34:-1 35:-1 37:-1 38:-1 39:1 40:0.277778 
-32 0 1:0.5 2:-1 3:1 4:-1 5:-1 6:-1 7:-1 8:-1 9:-1 10:-1 11:-1 12:-1 13:-1 14:-0.5 15:-1 16:-1 17:-1 18:-1 19:-1 20:-1 21:-1 22:1 24:-1 25:-1 26:-1 27:-1 28:1 29:-1 30:-0.965909 32:-1 33:-1 34:-1 35:-1 37:-1 38:-1 39:-1 40:0.277778 
-32 0 1:1 2:-1 3:1 4:-1 5:-1 6:-1 7:-1 8:-1 9:-1 10:-1 11:-1 12:-1 13:-1 14:-1 15:-1 16:-1 17:-1 18:-1 19:-1 20:-1 21:-1 22:1 24:-1 25:-1 26:-1 27:-1 28:-1 29:-1 30:0.2243 32:1 33:-1 34:-1 35:-1 37:-1 38:-1 39:-1 40:1 
-32 23.77483186911682 1:-1 2:-1 4:-1 5:-1 6:-1 7:-1 8:-1 9:-1 10:-1 11:-1 12:-1 13:-1 14:-1 15:-1 16:-1 17:-1 18:-1 19:-1 20:-1 21:-1 24:-1 25:-1 26:-1 27:-1 28:-1 29:-1 30:-0.97551 32:-1 33:-1 34:-1 35:-1 37:-1 38:-1 39:1 40:0.636364 
-32 0 1:-0.8 2:-0.8 3:1 4:-1 5:-1 6:-1 7:-0.8 8:-1 9:-1 10:-1 11:-1 12:-1 13:-1 14:-0.8 15:-1 16:-1 17:-1 18:-1 19:-1 20:-1 21:-1 22:0.8 24:-1 25:-1 26:-1 27:-1 28:1 29:-1 30:-0.949045 32:-1 33:-1 34:-1 35:-1 37:-1 38:-1 39:1 40:0.4 
-32 0 1:-1 2:-1 3:1 4:-1 5:-1 6:-1 7:-1 8:-1 9:-1 10:-1 11:-1 12:-1 13:-1 14:-1 15:-1 16:-1 17:-1 18:-1 19:-1 20:-1 21:-1 22:0.333334 24:-1 25:-1 26:-1 27:-1 28:1 29:-1 30:-0.936306 32:-1 33:-1 34:-1 35:-1 37:-1 38:-1 39:1 40:0.4 
-14.64865503939806 0 1:-1 2:-1 3:-0.333334 4:-1 5:-1 6:-1 7:-1 8:-1 9:-1 10:-1 11:-1 12:-1 13:-1 14:-1 15:-1 16:-1 17:-1 18:-1 19:-1 20:-1 21:-1 22:-0.333334 24:-1 25:-1 26:-1 27:-1 28:-1 29:-1 30:-0.959732 32:-1 33:-1 34:-1 35:-1 37:-1 38:-1 39:1 40:1 
-32 0 1:-0.5 2:-1 3:0.75 4:-1 5:-1 6:-1 7:-1 8:-1 9:-1 10:-1 11:-1 12:-1 13:-1 14:-1 15:-1 16:-0.75 17:-1 18:-1 19:-1 20:-1 21:-1 22:0.25 24:-1 25:-1 26:-1 27:-1 28:-1 29:-1 30:-0.982533 32:-1 33:-1 34:-1 35:-1 37:-1 38:-1 39:1 40:0.636364 
